{"learner":{"attributes":{},"feature_names":[],"feature_types":[],"gradient_booster":{"model":{"gbtree_model_param":{"num_parallel_tree":"1","num_trees":"300"},"iteration_indptr":[0,1,2,3,4,5,6,7,8,9,10,11,12,13,14,15,16,17,18,19,20,21,22,23,24,25,26,27,28,29,30,31,32,33,34,35,36,37,38,39,40,41,42,43,44,45,46,47,48,49,50,51,52,53,54,55,56,57,58,59,60,61,62,63,64,65,66,67,68,69,70,71,72,73,74,75,76,77,78,79,80,81,82,83,84,85,86,87,88,89,90,91,92,93,94,95,96,97,98,99,100,101,102,103,104,105,106,107,108,109,110,111,112,113,114,115,116,117,118,119,120,121,122,123,124,125,126,127,128,129,130,131,132,133,134,135,136,137,138,139,140,141,142,143,144,145,146,147,148,149,150,151,152,153,154,155,156,157,158,159,160,161,162,163,164,165,166,167,168,169,170,171,172,173,174,175,176,177,178,179,180,181,182,183,184,185,186,187,188,189,190,191,192,193,194,195,196,197,198,199,200,201,202,203,204,205,206,207,208,209,210,211,212,213,214,215,216,217,218,219,220,221,222,223,224,225,226,227,228,229,230,231,232,233,234,235,236,237,238,239,240,241,242,243,244,245,246,247,248,249,250,251,252,253,254,255,256,257,258,259,260,261,262,263,264,265,266,267,268,269,270,271,272,273,274,275,276,277,278,279,280,281,282,283,284,285,286,287,288,289,290,291,292,293,294,295,296,297,298,299,300],"tree_info":[0,0,0,0,0,0,0,0,0,0,0,0,0,0,0,0,0,0,0,0,0,0,0,0,0,0,0,0,0,0,0,0,0,0,0,0,0,0,0,0,0,0,0,0,0,0,0,0,0,0,0,0,0,0,0,0,0,0,0,0,0,0,0,0,0,0,0,0,0,0,0,0,0,0,0,0,0,0,0,0,0,0,0,0,0,0,0,0,0,0,0,0,0,0,0,0,0,0,0,0,0,0,0,0,0,0,0,0,0,0,0,0,0,0,0,0,0,0,0,0,0,0,0,0,0,0,0,0,0,0,0,0,0,0,0,0,0,0,0,0,0,0,0,0,0,0,0,0,0,0,0,0,0,0,0,0,0,0,0,0,0,0,0,0,0,0,0,0,0,0,0,0,0,0,0,0,0,0,0,0,0,0,0,0,0,0,0,0,0,0,0,0,0,0,0,0,0,0,0,0,0,0,0,0,0,0,0,0,0,0,0,0,0,0,0,0,0,0,0,0,0,0,0,0,0,0,0,0,0,0,0,0,0,0,0,0,0,0,0,0,0,0,0,0,0,0,0,0,0,0,0,0,0,0,0,0,0,0,0,0,0,0,0,0,0,0,0,0,0,0,0,0,0,0,0,0,0,0,0,0,0,0,0,0,0,0,0,0,0,0,0,0,0,0,0,0,0,0,0,0],"trees":[{"base_weights":[-0E0,-9.5652175E-1,1.655914E0,-1.0993377E0,8.5714287E-1,1.8571429E-1,-1.5384616E-1,-1.7192982E0,-6.938776E-1,-0E0,1.20000005E-1,6.666667E-2,-1E-1,-2.2222223E-2,-1.8461539E-1,-9.879518E-2,7.368421E-2],"categories":[],"categories_nodes":[],"categories_segments":[],"categories_sizes":[],"default_left":[0,0,0,0,0,0,0,0,0,0,0,0,0,0,0,0,0],"id":0,"left_children":[1,3,5,7,9,-1,11,13,15,-1,-1,-1,-1,-1,-1,-1,-1],"loss_changes":[1.0057878E2,1.1367859E1,8.752804E0,8.296207E0,1.0285714E0,0E0,2.9230769E0,2.2959976E0,1.103604E1,0E0,0E0,0E0,0E0,0E0,0E0,0E0,0E0],"parents":[2147483647,0,0,1,1,2,2,3,3,4,4,6,6,7,7,8,8],"right_children":[2,4,6,8,10,-1,12,14,16,-1,-1,-1,-1,-1,-1,-1,-1],"split_conditions":[1.7666584E-1,1.268009E0,7.0359784E-1,-7.5245285E-1,-5.6367457E-1,1.8571429E-1,3.182437E-1,-7.702305E-1,1.8272206E0,-0E0,1.20000005E-1,6.666667E-2,-1E-1,-2.2222223E-2,-1.8461539E-1,-9.879518E-2,7.368421E-2],"split_indices":[24,10,14,24,1,0,10,6,16,0,0,0,0,0,0,0,0],"split_type":[0,0,0,0,0,0,0,0,0,0,0,0,0,0,0,0,0],"sum_hessian":[6.15E1,3.925E1,2.225E1,3.675E1,2.5E0,2E1,2.25E0,1.325E1,2.35E1,1E0,1.5E0,1.25E0,1E0,1.25E0,1.2E1,1.975E1,3.75E0],"tree_param":{"num_deleted":"0","num_feature":"37","num_nodes":"17","size_leaf_vector":"1"}},{"base_weights":[6.998926E-4,-1.0095117E0,1.305414E0,4.0619138E-1,-1.1639081E0,1.5075672E0,-3.829284E-1,1.3178574E-1,-7.5903505E-2,-1.3768299E0,-4.9261242E-2,-6.446812E-2,1.6486202E0,3.7697416E-2,-1.0573208E-1,2.760661E-2,-1.4670613E-1,-9.83417E-2,1.2853949E-1,5.6860384E-2,1.7090076E-1],"categories":[],"categories_nodes":[],"categories_segments":[],"categories_sizes":[],"default_left":[0,0,0,0,0,0,0,0,0,0,0,0,0,0,0,0,0,0,0,0,0],"id":1,"left_children":[1,3,5,7,9,11,13,-1,-1,15,17,-1,19,-1,-1,-1,-1,-1,-1,-1,-1],"loss_changes":[8.325262E1,8.254261E0,9.984982E0,5.506632E0,7.611828E0,8.597431E0,2.31774E0,0E0,0E0,4.451462E0,9.027594E0,0E0,5.657196E-1,0E0,0E0,0E0,0E0,0E0,0E0,0E0,0E0],"parents":[2147483647,0,0,1,1,2,2,3,3,4,4,5,5,6,6,9,9,10,10,12,12],"right_children":[2,4,6,8,10,12,14,-1,-1,16,18,-1,20,-1,-1,-1,-1,-1,-1,-1,-1],"split_conditions":[7.566014E-2,-1.1116041E0,7.0359784E-1,5.982697E-1,1.8272206E0,-1.2525412E0,-5.4947096E-1,1.3178574E-1,-7.5903505E-2,-1.7724493E0,-6.460958E-1,-6.446812E-2,1.0977465E-1,3.7697416E-2,-1.0573208E-1,2.760661E-2,-1.4670613E-1,-9.83417E-2,1.2853949E-1,5.6860384E-2,1.7090076E-1],"split_indices":[24,18,14,25,16,8,18,0,0,32,24,0,24,0,0,0,0,0,0,0,0],"split_type":[0,0,0,0,0,0,0,0,0,0,0,0,0,0,0,0,0,0,0,0,0],"sum_hessian":[6.116424E1,3.460027E1,2.6563974E1,3.2420638E0,3.1358204E1,2.3819077E1,2.7448983E0,1.7454479E0,1.4966158E0,2.6131336E1,5.226868E0,1.2454206E0,2.2573656E1,1.4979882E0,1.2469101E0,1.2460548E0,2.488528E1,3.2295806E0,1.9972878E0,1.7468858E0,2.0826769E1],"tree_param":{"num_deleted":"0","num_feature":"37","num_nodes":"21","size_leaf_vector":"1"}},{"base_weights":[1.8407909E-3,-7.9214597E-1,1.394142E0,-9.0871704E-1,9.4565354E-2,1.5698546E-1,-1.4235358E-2,-1.4774706E0,-5.422766E-1,-1.2910502E-2,-1.5967588E-1,-7.5341456E-2,1.08220816E-1],"categories":[],"categories_nodes":[],"categories_segments":[],"categories_sizes":[],"default_left":[0,0,0,0,0,0,0,0,0,0,0,0,0],"id":2,"left_children":[1,3,5,7,-1,-1,-1,9,11,-1,-1,-1,-1],"loss_changes":[6.886436E1,8.896078E0,6.331192E0,7.0536385E0,0E0,0E0,0E0,2.0758705E0,9.21888E0,0E0,0E0,0E0,0E0],"parents":[2147483647,0,0,1,1,2,2,3,3,7,7,8,8],"right_children":[2,4,6,8,-1,-1,-1,10,12,-1,-1,-1,-1],"split_conditions":[1.7666584E-1,1.2761319E0,7.0359784E-1,-7.5245285E-1,9.4565354E-2,1.5698546E-1,-1.4235358E-2,-7.702305E-1,5.493185E-1,-1.2910502E-2,-1.5967588E-1,-7.5341456E-2,1.08220816E-1],"split_indices":[24,10,14,24,0,0,0,6,17,0,0,0,0],"split_type":[0,0,0,0,0,0,0,0,0,0,0,0,0],"sum_hessian":[6.0295254E1,3.867254E1,2.1622713E1,3.668857E1,1.9839697E0,1.9384233E1,2.2384796E0,1.3187791E1,2.3500778E1,1.2411244E0,1.1946667E1,2.1272198E1,2.2285814E0],"tree_param":{"num_deleted":"0","num_feature":"37","num_nodes":"13","size_leaf_vector":"1"}},{"base_weights":[3.568465E-3,-8.517901E-1,1.1257805E0,-9.68175E-1,7.184027E-2,1.3097607E0,-3.4602126E-1,7.14931E-2,-1.1653503E0,-6.2527046E-2,1.4425555E0,3.630375E-2,-9.8445885E-2,8.150574E-2,-8.7676875E-2,-1.274049E-1,3.0879965E-2,5.212588E-2,1.5137567E-1],"categories":[],"categories_nodes":[],"categories_segments":[],"categories_sizes":[],"default_left":[0,0,0,0,0,0,0,0,0,0,0,0,0,0,0,0,0,0,0],"id":3,"left_children":[1,3,5,7,-1,9,11,13,15,-1,17,-1,-1,-1,-1,-1,-1,-1,-1],"loss_changes":[5.8671368E1,7.034605E0,7.6116295E0,6.790819E0,0E0,6.9939537E0,2.0452197E0,5.056838E0,4.809849E0,0E0,6.8605804E-1,0E0,0E0,0E0,0E0,0E0,0E0,0E0,0E0],"parents":[2147483647,0,0,1,1,2,2,3,3,5,5,6,6,7,7,8,8,10,10],"right_children":[2,4,6,8,-1,10,12,14,16,-1,18,-1,-1,-1,-1,-1,-1,-1,-1],"split_conditions":[7.566014E-2,1.2302588E0,7.0359784E-1,-9.396485E-1,7.184027E-2,-1.0698198E0,-5.4947096E-1,2.68718E-1,1.1142225E0,-6.2527046E-2,-1.6313798E0,3.630375E-2,-9.8445885E-2,8.150574E-2,-8.7676875E-2,-1.274049E-1,3.0879965E-2,5.212588E-2,1.5137567E-1],"split_indices":[24,6,14,4,0,10,18,12,12,0,31,0,0,0,0,0,0,0,0],"split_type":[0,0,0,0,0,0,0,0,0,0,0,0,0,0,0,0,0,0,0],"sum_hessian":[5.912379E1,3.368772E1,2.5436068E1,3.1719995E1,1.9677267E0,2.2707632E1,2.728435E0,5.158361E0,2.6561634E1,1.220113E0,2.1487518E1,1.4970992E0,1.2313359E0,2.969975E0,2.188386E0,2.4863993E1,1.6976426E0,2.1384363E0,1.9349083E1],"tree_param":{"num_deleted":"0","num_feature":"37","num_nodes":"19","size_leaf_vector":"1"}},{"base_weights":[4.3569957E-3,-6.699033E-1,1.2248887E0,-7.86054E-1,7.468511E-1,1.3898864E0,-1.2738131E-2,-1.2353928E0,-4.03117E-1,9.763339E-2,1.7868135E-2,1.4362697E-1,4.507443E-2,3.3115927E-2,-1.3870202E-1,9.584614E-2,-5.75477E-2],"categories":[],"categories_nodes":[],"categories_segments":[],"categories_sizes":[],"default_left":[0,0,0,0,0,0,0,0,0,0,0,0,0,0,0,0,0],"id":4,"left_children":[1,3,5,7,9,11,-1,13,15,-1,-1,-1,-1,-1,-1,-1,-1],"loss_changes":[4.9132187E1,6.9161453E0,4.9169655E0,5.7023487E0,2.7238572E-1,1.8101883E-1,0E0,4.2824802E0,5.4655614E0,0E0,0E0,0E0,0E0,0E0,0E0,0E0,0E0],"parents":[2147483647,0,0,1,1,2,2,3,3,4,4,5,5,7,7,8,8],"right_children":[2,4,6,8,10,12,-1,14,16,-1,-1,-1,-1,-1,-1,-1,-1],"split_conditions":[1.7666584E-1,1.268009E0,7.0359784E-1,9.406356E-2,3.7371364E-1,1.7762326E0,-1.2738131E-2,-1.251959E0,-8.6305225E-1,9.763339E-2,1.7868135E-2,1.4362697E-1,4.507443E-2,3.3115927E-2,-1.3870202E-1,9.584614E-2,-5.75477E-2],"split_indices":[24,10,14,7,34,10,0,4,1,0,0,0,0,0,0,0,0],"split_type":[0,0,0,0,0,0,0,0,0,0,0,0,0,0,0,0,0],"sum_hessian":[5.7704994E1,3.7461315E1,2.0243677E1,3.5034252E1,2.4270642E0,1.8017454E1,2.2262235E0,1.5095304E1,1.9938948E1,1.2170964E0,1.2099677E0,1.6665041E1,1.3524132E0,1.2276536E0,1.386765E1,1.7279551E0,1.8210993E1],"tree_param":{"num_deleted":"0","num_feature":"37","num_nodes":"17","size_leaf_vector":"1"}},{"base_weights":[8.28856E-3,-7.256802E-1,9.9697965E-1,5.0811964E-1,-8.714422E-1,1.1718599E0,-3.1547162E-1,1.2857263E-1,-5.74268E-2,-1.0657154E0,8.721529E-2,-5.789293E-2,1.2996099E0,3.490973E-2,-9.241173E-2,3.5378277E-2,-1.15252875E-1,-1.0412382E-1,9.345348E-2,4.4853915E-2,1.3684666E-1],"categories":[],"categories_nodes":[],"categories_segments":[],"categories_sizes":[],"default_left":[0,0,0,0,0,0,0,0,0,0,0,0,0,0,0,0,0,0,0,0,0],"id":5,"left_children":[1,3,5,7,9,11,13,-1,-1,15,17,-1,19,-1,-1,-1,-1,-1,-1,-1,-1],"loss_changes":[4.2226204E1,6.4500923E0,6.0593147E0,4.240562E0,5.725321E0,5.692322E0,1.820255E0,0E0,0E0,3.5158901E0,6.729449E0,0E0,6.105385E-1,0E0,0E0,0E0,0E0,0E0,0E0,0E0,0E0],"parents":[2147483647,0,0,1,1,2,2,3,3,4,4,5,5,6,6,9,9,10,10,12,12],"right_children":[2,4,6,8,10,12,14,-1,-1,16,18,-1,20,-1,-1,-1,-1,-1,-1,-1,-1],"split_conditions":[7.566014E-2,-1.1116041E0,7.0359784E-1,5.982697E-1,1.8272206E0,-1.0698198E0,-5.4947096E-1,1.2857263E-1,-5.74268E-2,-1.7724493E0,-7.725202E-1,-5.789293E-2,-1.6313798E0,3.490973E-2,-9.241173E-2,3.5378277E-2,-1.15252875E-1,-1.0412382E-1,9.345348E-2,4.4853915E-2,1.3684666E-1],"split_indices":[24,18,14,25,16,10,18,0,0,32,24,0,31,0,0,0,0,0,0,0,0],"split_type":[0,0,0,0,0,0,0,0,0,0,0,0,0,0,0,0,0,0,0,0,0],"sum_hessian":[5.61924E1,3.2403343E1,2.3789059E1,3.1610177E0,2.9242325E1,2.1086472E1,2.7025876E0,1.730171E0,1.4308467E0,2.4222025E1,5.020302E0,1.1938107E0,1.989266E1,1.4957938E0,1.2067937E0,1.2187552E0,2.300327E1,2.0548317E0,2.96547E0,2.051398E0,1.7841263E1],"tree_param":{"num_deleted":"0","num_feature":"37","num_nodes":"21","size_leaf_vector":"1"}},{"base_weights":[8.790848E-3,-5.7183146E-1,1.103072E0,-6.7047024E-1,8.17739E-2,1.2649595E0,-1.1459209E-2,-1.2022231E0,-3.521274E-1,1.3129595E-1,3.7015148E-2,1.8137155E-4,-1.3279095E-1,7.179651E-2,-6.038038E-2],"categories":[],"categories_nodes":[],"categories_segments":[],"categories_sizes":[],"default_left":[0,0,0,0,0,0,0,0,0,0,0,0,0,0,0],"id":6,"left_children":[1,3,5,7,-1,9,-1,11,13,-1,-1,-1,-1,-1,-1],"loss_changes":[3.5826572E1,5.5991583E0,3.9976654E0,5.4942083E0,0E0,2.5851822E-1,0E0,1.9207573E0,6.703396E0,0E0,0E0,0E0,0E0,0E0,0E0],"parents":[2147483647,0,0,1,1,2,2,3,3,5,5,7,7,8,8],"right_children":[2,4,6,8,-1,10,-1,12,14,-1,-1,-1,-1,-1,-1],"split_conditions":[1.7666584E-1,1.2761319E0,7.0359784E-1,-7.5245285E-1,8.17739E-2,1.7762326E0,-1.1459209E-2,-7.702305E-1,-6.417198E-1,1.3129595E-1,3.7015148E-2,1.8137155E-4,-1.3279095E-1,7.179651E-2,-6.038038E-2],"split_indices":[24,10,14,24,0,10,0,6,5,0,0,0,0,0,0],"split_type":[0,0,0,0,0,0,0,0,0,0,0,0,0,0,0],"sum_hessian":[5.4394703E1,3.5850155E1,1.8544548E1,3.39572E1,1.8929577E0,1.63341E1,2.2104461E0,1.1676511E1,2.2280687E1,1.5058987E1,1.2751145E0,1.1968284E0,1.0479682E1,3.889663E0,1.8391024E1],"tree_param":{"num_deleted":"0","num_feature":"37","num_nodes":"15","size_leaf_vector":"1"}},{"base_weights":[1.0628521E-2,-6.257336E-1,8.923745E-1,-7.3900825E-1,7.50715E-2,1.0620733E0,-2.8795898E-1,1.6870847E-1,-9.2732406E-1,-5.7633262E-2,1.1915095E0,3.3527996E-2,-8.703228E-2,8.0583334E-2,-7.143711E-2,-1.0294794E-1,3.384928E-2,3.8237985E-2,1.2617032E-1],"categories":[],"categories_nodes":[],"categories_segments":[],"categories_sizes":[],"default_left":[0,0,0,0,0,0,0,0,0,0,0,0,0,0,0,0,0,0,0],"id":7,"left_children":[1,3,5,7,-1,9,11,13,15,-1,17,-1,-1,-1,-1,-1,-1,-1,-1],"loss_changes":[3.0697906E1,5.5107536E0,4.898361E0,5.2628593E0,0E0,4.9830875E0,1.6233857E0,3.9394884E0,3.5675488E0,0E0,6.024666E-1,0E0,0E0,0E0,0E0,0E0,0E0,0E0,0E0],"parents":[2147483647,0,0,1,1,2,2,3,3,5,5,6,6,7,7,8,8,10,10],"right_children":[2,4,6,8,-1,10,12,14,16,-1,18,-1,-1,-1,-1,-1,-1,-1,-1],"split_conditions":[7.566014E-2,1.2302588E0,7.0359784E-1,-9.396485E-1,7.50715E-2,-1.2525412E0,-5.4947096E-1,2.68718E-1,1.1142225E0,-5.7633262E-2,-1.6313798E0,3.3527996E-2,-8.703228E-2,8.0583334E-2,-7.143711E-2,-1.0294794E-1,3.384928E-2,3.8237985E-2,1.2617032E-1],"split_indices":[24,6,14,4,0,8,18,12,12,0,31,0,0,0,0,0,0,0,0],"split_type":[0,0,0,0,0,0,0,0,0,0,0,0,0,0,0,0,0,0,0],"sum_hessian":[5.2714115E1,3.0785997E1,2.192812E1,2.8873003E1,1.9129941E0,1.9259357E1,2.6687624E0,4.9787297E0,2.3894274E1,1.1573206E0,1.8102036E1,1.4940861E0,1.1746764E0,2.9429336E0,2.0357962E0,2.2282698E1,1.6115749E0,1.9597129E0,1.6142323E1],"tree_param":{"num_deleted":"0","num_feature":"37","num_nodes":"19","size_leaf_vector":"1"}},{"base_weights":[1.1488817E-2,-4.9235323E-1,1.0078388E0,-2.396887E-2,-7.8530663E-1,1.1709789E0,-1.0367616E-2,-3.8174582E-1,9.4418883E-1,-9.022874E-1,6.8451904E-2,1.2226623E-1,3.0020973E-2,1.48925185E-2,-8.50175E-2,1.3419737E-1,-7.4895495E-3,2.8939048E-2,-1.02301694E-1],"categories":[],"categories_nodes":[],"categories_segments":[],"categories_sizes":[],"default_left":[0,0,0,0,0,0,0,0,0,0,0,0,0,0,0,0,0,0,0],"id":8,"left_children":[1,3,5,7,9,11,-1,13,15,17,-1,-1,-1,-1,-1,-1,-1,-1,-1],"loss_changes":[2.65559E1,4.8040953E0,3.3423634E0,5.402503E0,4.330264E0,3.3369064E-1,0E0,2.9456885E0,1.8094213E0,3.2356148E0,0E0,0E0,0E0,0E0,0E0,0E0,0E0,0E0,0E0],"parents":[2147483647,0,0,1,1,2,2,3,3,4,4,5,5,7,7,8,8,9,9],"right_children":[2,4,6,8,10,12,-1,14,16,18,-1,-1,-1,-1,-1,-1,-1,-1,-1],"split_conditions":[1.7666584E-1,-3.1379294E-1,7.0359784E-1,-1.5110101E-1,9.902463E-1,1.7762326E0,-1.0367616E-2,3.0774805E-1,2.0352432E-1,-1.6550038E0,6.8451904E-2,1.2226623E-1,3.0020973E-2,1.48925185E-2,-8.50175E-2,1.3419737E-1,-7.4895495E-3,2.8939048E-2,-1.02301694E-1],"split_indices":[24,28,14,24,4,10,0,18,12,10,0,0,0,0,0,0,0,0,0],"split_type":[0,0,0,0,0,0,0,0,0,0,0,0,0,0,0,0,0,0,0],"sum_hessian":[5.0911407E1,3.414868E1,1.6762728E1,1.3556261E1,2.0592419E1,1.4570656E1,2.1920733E0,1.0340638E1,3.2156227E0,1.9431988E1,1.1604313E0,1.3372811E1,1.1978439E0,5.168011E0,5.172627E0,2.08495E0,1.1306728E0,1.6590524E0,1.7772936E1],"tree_param":{"num_deleted":"0","num_feature":"37","num_nodes":"19","size_leaf_vector":"1"}},{"base_weights":[1.4863846E-2,-4.5286247E-1,9.6578485E-1,8.4452234E-2,-5.4497194E-1,1.18937485E-1,1.0361843E-1,-2.7511594E-1,-1.0217131E0,9.2159845E-2,-5.519094E-1,-4.48833E-2,1.1603633E-1,1.0497702E-2,-1.1917507E-1,3.843633E-2,-1.1667011E-1],"categories":[],"categories_nodes":[],"categories_segments":[],"categories_sizes":[],"default_left":[0,0,0,0,0,0,0,0,0,0,0,0,0,0,0,0,0],"id":9,"left_children":[1,3,5,-1,7,-1,9,11,13,-1,15,-1,-1,-1,-1,-1,-1],"loss_changes":[2.278387E1,4.5661345E0,3.1315536E0,0E0,3.9243622E0,0E0,2.9603982E0,6.0672197E0,2.3180742E0,0E0,2.2694995E0,0E0,0E0,0E0,0E0,0E0,0E0],"parents":[2147483647,0,0,1,1,2,2,4,4,6,6,7,7,8,8,10,10],"right_children":[2,4,6,-1,8,-1,10,12,14,-1,16,-1,-1,-1,-1,-1,-1],"split_conditions":[1.7666584E-1,-1.0758268E0,2.5566506E-1,8.4452234E-2,8.0908346E-1,1.18937485E-1,-1.6425582E-2,7.9536986E-1,-3.787478E-1,9.2159845E-2,-1.8391354E-2,-4.48833E-2,1.1603633E-1,1.0497702E-2,-1.1917507E-1,3.843633E-2,-1.1667011E-1],"split_indices":[24,14,15,0,18,0,10,6,28,0,12,0,0,0,0,0,0],"split_type":[0,0,0,0,0,0,0,0,0,0,0,0,0,0,0,0,0],"sum_hessian":[4.9242737E1,3.3358543E1,1.58841915E1,1.6698337E0,3.1688711E1,1.2311794E1,3.5723977E0,2.124194E1,1.0446773E1,1.4087033E0,2.1636944E0,1.9561945E1,1.6799946E0,1.4200385E0,9.026734E0,1.00618E0,1.1575145E0],"tree_param":{"num_deleted":"0","num_feature":"37","num_nodes":"17","size_leaf_vector":"1"}},{"base_weights":[1.7929526E-2,-5.030486E-1,7.814445E-1,5.5271626E-1,-6.436242E-1,9.497913E-1,-2.5376505E-1,1.2175647E-1,-4.5358445E-2,-8.340229E-1,2.184114E-1,-5.2369207E-2,1.0793374E0,3.1470716E-2,-8.008873E-2,4.233621E-2,-9.265531E-2,-5.9528094E-2,1.1527175E-1,3.076517E-2,1.1523334E-1],"categories":[],"categories_nodes":[],"categories_segments":[],"categories_sizes":[],"default_left":[0,0,0,0,0,0,0,0,0,0,0,0,0,0,0,0,0,0,0,0,0],"id":10,"left_children":[1,3,5,7,9,11,13,-1,-1,15,17,-1,19,-1,-1,-1,-1,-1,-1,-1,-1],"loss_changes":[1.9734499E1,4.7356024E0,3.746213E0,3.2322104E0,4.532481E0,3.907734E0,1.3724954E0,0E0,0E0,2.9423008E0,4.9341025E0,0E0,5.705471E-1,0E0,0E0,0E0,0E0,0E0,0E0,0E0,0E0],"parents":[2147483647,0,0,1,1,2,2,3,3,4,4,5,5,6,6,9,9,10,10,12,12],"right_children":[2,4,6,8,10,12,14,-1,-1,16,18,-1,20,-1,-1,-1,-1,-1,-1,-1,-1],"split_conditions":[7.566014E-2,-1.1116041E0,7.0359784E-1,5.982697E-1,1.8272206E0,-1.0698198E0,-5.4947096E-1,1.2175647E-1,-4.5358445E-2,-1.7724493E0,-6.460958E-1,-5.2369207E-2,-1.6313798E0,3.1470716E-2,-8.008873E-2,4.233621E-2,-9.265531E-2,-5.9528094E-2,1.1527175E-1,3.076517E-2,1.1523334E-1],"split_indices":[24,18,14,25,16,10,18,0,0,32,24,0,31,0,0,0,0,0,0,0,0],"split_type":[0,0,0,0,0,0,0,0,0,0,0,0,0,0,0,0,0,0,0,0,0],"sum_hessian":[4.7624004E1,2.851094E1,1.9113064E1,3.005668E0,2.5505272E1,1.6510605E1,2.6024587E0,1.6834775E0,1.3221905E0,2.0917664E1,4.58761E0,1.0884004E0,1.5422205E1,1.4846598E0,1.1177989E0,1.1887285E0,1.9728935E1,2.6460304E0,1.9415796E0,1.7834023E0,1.3638803E1],"tree_param":{"num_deleted":"0","num_feature":"37","num_nodes":"21","size_leaf_vector":"1"}},{"base_weights":[1.9754866E-2,-3.530843E-1,9.8052925E-1,-8.7655556E-1,-1.0194783E-1,1.122108E-1,8.376918E-3,-1.1436745E-1,-2.4118972E-1,-3.3900195E-1,6.307939E-1,7.731155E-2,-8.895184E-2,6.2192626E-2,-5.9118416E-2,-7.5367354E-2,1.0562684E-1],"categories":[],"categories_nodes":[],"categories_segments":[],"categories_sizes":[],"default_left":[0,0,0,0,0,0,0,0,0,0,0,0,0,0,0,0,0],"id":11,"left_children":[1,3,5,7,9,-1,-1,-1,11,13,15,-1,-1,-1,-1,-1,-1],"loss_changes":[1.7110554E1,4.439682E0,1.600769E0,1.5974798E0,4.4544225E0,0E0,0E0,0E0,3.669437E0,4.995246E0,4.5171947E0,0E0,0E0,0E0,0E0,0E0,0E0],"parents":[2147483647,0,0,1,1,2,2,3,3,4,4,8,8,9,9,10,10],"right_children":[2,4,6,8,10,-1,-1,-1,12,14,16,-1,-1,-1,-1,-1,-1],"split_conditions":[3.9406222E-1,-7.5245285E-1,6.4667946E-1,1.3619448E-1,7.7783513E-1,1.122108E-1,8.376918E-3,-1.1436745E-1,3.7371364E-1,-9.1326016E-1,-1.55458E0,7.731155E-2,-8.895184E-2,6.2192626E-2,-5.9118416E-2,-7.5367354E-2,1.0562684E-1],"split_indices":[24,24,14,10,1,0,0,0,34,25,4,0,0,0,0,0,0],"split_type":[0,0,0,0,0,0,0,0,0,0,0,0,0,0,0,0,0],"sum_hessian":[4.579977E1,3.345117E1,1.2348598E1,1.0037842E1,2.341333E1,1.04478245E1,1.900773E0,6.5035925E0,3.5342488E0,1.8096245E1,5.317084E0,1.3030939E0,2.231155E0,3.4570692E0,1.4639176E1,1.0685891E0,4.248495E0],"tree_param":{"num_deleted":"0","num_feature":"37","num_nodes":"17","size_leaf_vector":"1"}},{"base_weights":[1.9181754E-2,-3.2904848E-1,9.462316E-1,9.0389E-2,-6.1334133E-1,1.09291725E-1,7.825776E-3,-2.4185185E-1,7.678066E-1,1.2417344E-2,-8.777971E-1,7.441142E-2,-4.3894626E-2,1.2433683E-1,-7.179639E-3,6.280583E-2,-9.177449E-2,-1.1202134E-1,-3.013194E-3],"categories":[],"categories_nodes":[],"categories_segments":[],"categories_sizes":[],"default_left":[0,0,0,0,0,0,0,0,0,0,0,0,0,0,0,0,0,0,0],"id":12,"left_children":[1,3,5,7,9,-1,-1,11,13,15,17,-1,-1,-1,-1,-1,-1,-1,-1],"loss_changes":[1.4926328E1,4.0681863E0,1.5212431E0,3.4415462E0,3.351327E0,0E0,0E0,2.360542E0,2.0856159E0,4.5749464E0,2.8847942E0,0E0,0E0,0E0,0E0,0E0,0E0,0E0,0E0],"parents":[2147483647,0,0,1,1,2,2,3,3,4,4,7,7,8,8,9,9,10,10],"right_children":[2,4,6,8,10,-1,-1,12,14,16,18,-1,-1,-1,-1,-1,-1,-1,-1],"split_conditions":[3.9406222E-1,-3.1379294E-1,6.4667946E-1,-1.5110101E-1,-1.2930719E0,1.09291725E-1,7.825776E-3,-7.409952E-1,6.2761915E-1,-7.591464E-2,1.5419531E-1,7.441142E-2,-4.3894626E-2,1.2433683E-1,-7.179639E-3,6.280583E-2,-9.177449E-2,-1.1202134E-1,-3.013194E-3],"split_indices":[24,28,14,24,26,0,0,14,4,31,17,0,0,0,0,0,0,0,0],"split_type":[0,0,0,0,0,0,0,0,0,0,0,0,0,0,0,0,0,0,0],"sum_hessian":[4.4271862E1,3.2651825E1,1.1620035E1,1.3466216E1,1.918561E1,9.718477E0,1.9015586E0,9.466387E0,3.999829E0,5.982585E0,1.3203025E1,1.1146953E0,8.351692E0,2.2464895E0,1.7533398E0,3.7953594E0,2.1872256E0,1.0016863E1,3.186162E0],"tree_param":{"num_deleted":"0","num_feature":"37","num_nodes":"19","size_leaf_vector":"1"}},{"base_weights":[2.0746708E-2,-3.0445167E-1,9.139531E-1,-8.1258374E-1,-7.1365714E-2,1.0661848E-1,7.311096E-3,-1.8254754E-3,-9.9928194E-1,-2.7767226E-1,7.122301E-1,-2.0803804E-2,-1.0797117E-1,5.326669E-3,-1.08972706E-1,-1.2384672E-5,9.495293E-2],"categories":[],"categories_nodes":[],"categories_segments":[],"categories_sizes":[],"default_left":[0,0,0,0,0,0,0,0,0,0,0,0,0,0,0,0,0],"id":13,"left_children":[1,3,5,7,9,-1,-1,-1,11,13,15,-1,-1,-1,-1,-1,-1],"loss_changes":[1.2988373E1,3.8301408E0,1.4489813E0,1.4984221E0,4.013171E0,0E0,0E0,0E0,3.0117702E-1,5.272152E0,8.790078E-1,0E0,0E0,0E0,0E0,0E0,0E0],"parents":[2147483647,0,0,1,1,2,2,3,3,4,4,8,8,9,9,10,10],"right_children":[2,4,6,8,10,-1,-1,-1,12,14,16,-1,-1,-1,-1,-1,-1],"split_conditions":[3.9406222E-1,-7.5245285E-1,6.4667946E-1,-4.6580818E-1,1.8272206E0,1.0661848E-1,7.311096E-3,-1.8254754E-3,-9.018426E-1,3.0774805E-1,-2.6453419E0,-2.0803804E-2,-1.0797117E-1,5.326669E-3,-1.08972706E-1,-1.2384672E-5,9.495293E-2],"split_indices":[24,24,14,6,16,0,0,0,23,18,34,0,0,0,0,0,0],"split_type":[0,0,0,0,0,0,0,0,0,0,0,0,0,0,0,0,0],"sum_hessian":[4.2757183E1,3.1828295E1,1.092889E1,9.227016E0,2.2601278E1,9.026649E0,1.9022408E0,1.9649001E0,7.262116E0,1.8402008E1,4.199271E0,1.0010147E0,6.2611012E0,1.3737806E1,4.6642017E0,1.2990627E0,2.9002082E0],"tree_param":{"num_deleted":"0","num_feature":"37","num_nodes":"17","size_leaf_vector":"1"}},{"base_weights":[1.8741071E-2,-2.8574088E-1,8.833064E-1,1.0950229E-1,-5.625868E-1,1.04145326E-1,6.8304213E-3,-1.9308358E-1,7.1190596E-1,-1.102091E-1,-2.502856E-1,2.5303826E-2,-6.508948E-2,1.17517054E-1,-8.47385E-3,8.65575E-2,-4.913106E-2],"categories":[],"categories_nodes":[],"categories_segments":[],"categories_sizes":[],"default_left":[0,0,0,0,0,0,0,0,0,0,0,0,0,0,0,0,0],"id":14,"left_children":[1,3,5,7,9,-1,-1,11,13,-1,15,-1,-1,-1,-1,-1,-1],"loss_changes":[1.1403306E1,3.5721097E0,1.382369E0,2.698915E0,2.9304862E0,0E0,0E0,2.2358117E0,1.9123244E0,0E0,4.014887E0,0E0,0E0,0E0,0E0,0E0,0E0],"parents":[2147483647,0,0,1,1,2,2,3,3,4,4,7,7,8,8,10,10],"right_children":[2,4,6,8,10,-1,-1,12,14,-1,16,-1,-1,-1,-1,-1,-1],"split_conditions":[3.9406222E-1,-3.1379294E-1,6.4667946E-1,-1.5110101E-1,3.1020397E-1,1.04145326E-1,6.8304213E-3,3.0774805E-1,6.2761915E-1,-1.102091E-1,-1.1116041E0,2.5303826E-2,-6.508948E-2,1.17517054E-1,-8.47385E-3,8.65575E-2,-4.913106E-2],"split_indices":[24,28,14,24,35,0,0,18,4,0,18,0,0,0,0,0,0],"split_type":[0,0,0,0,0,0,0,0,0,0,0,0,0,0,0,0,0],"sum_hessian":[4.135951E1,3.1082424E1,1.0277087E1,1.3052414E1,1.803001E1,8.374254E0,1.9028329E0,9.140594E0,3.9118197E0,5.6832275E0,1.2346783E1,4.8559337E0,4.28466E0,2.1730165E0,1.7388031E0,1.7328897E0,1.0613893E1],"tree_param":{"num_deleted":"0","num_feature":"37","num_nodes":"17","size_leaf_vector":"1"}},{"base_weights":[2.0260328E-2,-2.6366642E-1,8.539864E-1,-7.5568765E-1,-4.6879724E-2,1.01834945E-1,6.381498E-3,-1.04770444E-1,-1.2637933E-1,3.441351E-1,-4.2685044E-1,7.809171E-2,-7.972297E-2,1.1181529E-1,-4.281079E-3,-6.7601204E-2,7.228984E-2],"categories":[],"categories_nodes":[],"categories_segments":[],"categories_sizes":[],"default_left":[0,0,0,0,0,0,0,0,0,0,0,0,0,0,0,0,0],"id":15,"left_children":[1,3,5,7,9,-1,-1,-1,11,13,15,-1,-1,-1,-1,-1,-1],"loss_changes":[9.943518E0,3.3126736E0,1.3201804E0,1.6196756E0,3.5425763E0,0E0,0E0,0E0,3.1540244E0,3.5872493E0,3.9371436E0,0E0,0E0,0E0,0E0,0E0,0E0],"parents":[2147483647,0,0,1,1,2,2,3,3,4,4,8,8,9,9,10,10],"right_children":[2,4,6,8,10,-1,-1,-1,12,14,16,-1,-1,-1,-1,-1,-1],"split_conditions":[3.9406222E-1,-7.5245285E-1,6.4667946E-1,1.3619448E-1,-2.787863E-3,1.01834945E-1,6.381498E-3,-1.04770444E-1,3.7371364E-1,-3.9324713E-1,7.7783513E-1,7.809171E-2,-7.972297E-2,1.1181529E-1,-4.281079E-3,-6.7601204E-2,7.228984E-2],"split_indices":[24,24,14,10,4,0,0,0,34,24,1,0,0,0,0,0,0],"split_type":[0,0,0,0,0,0,0,0,0,0,0,0,0,0,0,0,0],"sum_hessian":[4.00547E1,3.0389317E1,9.665381E0,8.534185E0,2.1855131E1,7.762035E0,1.9033465E0,5.3751254E0,3.15906E0,1.0817512E1,1.1037619E1,1.2731324E0,1.8859276E0,2.9756184E0,7.841893E0,9.410342E0,1.6272763E0],"tree_param":{"num_deleted":"0","num_feature":"37","num_nodes":"17","size_leaf_vector":"1"}},{"base_weights":[2.1704786E-2,-2.4339762E-1,8.257532E-1,1.2734106E-1,-5.1175535E-1,9.965662E-2,5.962179E-3,3.3019236E-1,-7.324686E-2,-1.0494001E-1,-2.1582542E-1,-2.7581481E-2,8.289679E-2,8.0888905E-2,-4.4386428E-2],"categories":[],"categories_nodes":[],"categories_segments":[],"categories_sizes":[],"default_left":[0,0,0,0,0,0,0,0,0,0,0,0,0,0,0],"id":16,"left_children":[1,3,5,7,9,-1,-1,11,-1,-1,13,-1,-1,-1,-1],"loss_changes":[8.682275E0,3.1190937E0,1.2614908E0,2.6295588E0,2.6383166E0,0E0,0E0,3.7850237E0,0E0,0E0,3.3669848E0,0E0,0E0,0E0,0E0],"parents":[2147483647,0,0,1,1,2,2,3,3,4,4,7,7,10,10],"right_children":[2,4,6,8,10,-1,-1,12,-1,-1,14,-1,-1,-1,-1],"split_conditions":[3.9406222E-1,-3.1379294E-1,6.4667946E-1,1.0155382E0,3.1020397E-1,9.965662E-2,5.962179E-3,-1.4285515E-1,-7.324686E-2,-1.0494001E-1,-1.1116041E0,-2.7581481E-2,8.289679E-2,8.0888905E-2,-4.4386428E-2],"split_indices":[24,28,14,8,35,0,0,8,0,0,18,0,0,0,0],"split_type":[0,0,0,0,0,0,0,0,0,0,0,0,0,0,0],"sum_hessian":[3.878927E1,2.9695625E1,9.093645E0,1.2689897E1,1.7005728E1,7.189853E0,1.9037919E0,1.076591E1,1.923986E0,5.1333547E0,1.1872374E1,5.0622926E0,5.7036176E0,1.6974708E0,1.0174903E1],"tree_param":{"num_deleted":"0","num_feature":"37","num_nodes":"15","size_leaf_vector":"1"}},{"base_weights":[2.0711644E-2,-3.2558495E-1,5.918103E-1,3.437842E-1,-4.9690676E-1,7.755144E-1,-2.2703719E-1,8.2232946E-1,-5.075791E-2,-6.198635E-1,6.240153E-2,-2.976425E-2,9.03901E-1,2.9147564E-2,-7.446236E-2,2.2797456E-3,1.13040045E-1,-7.24045E-2,4.1051976E-2,9.733566E-2,1.0242171E-2],"categories":[],"categories_nodes":[],"categories_segments":[],"categories_sizes":[],"default_left":[0,0,0,0,0,0,0,0,0,0,0,0,0,0,0,0,0,0,0,0,0],"id":17,"left_children":[1,3,5,7,9,11,13,15,-1,17,-1,-1,19,-1,-1,-1,-1,-1,-1,-1,-1],"loss_changes":[7.8487415E0,3.0084293E0,2.427617E0,2.7126188E0,3.158543E0,1.9846144E0,1.1606995E0,9.565525E-1,0E0,2.2964954E0,0E0,0E0,5.331812E-1,0E0,0E0,0E0,0E0,0E0,0E0,0E0,0E0],"parents":[2147483647,0,0,1,1,2,2,3,3,4,4,5,5,6,6,7,7,9,9,12,12],"right_children":[2,4,6,8,10,12,14,16,-1,18,-1,-1,20,-1,-1,-1,-1,-1,-1,-1,-1],"split_conditions":[7.566014E-2,-9.396485E-1,7.0359784E-1,2.68718E-1,1.2302588E0,-9.57725E-1,-5.4947096E-1,-6.701239E-1,-5.075791E-2,1.1142225E0,6.240153E-2,-2.976425E-2,1.4367709E0,2.9147564E-2,-7.446236E-2,2.2797456E-3,1.13040045E-1,-7.24045E-2,4.1051976E-2,9.733566E-2,1.0242171E-2],"split_indices":[24,4,14,12,6,8,18,8,0,12,0,0,4,0,0,0,0,0,0,0,0],"split_type":[0,0,0,0,0,0,0,0,0,0,0,0,0,0,0,0,0,0,0,0,0],"sum_hessian":[3.7712017E1,2.3744177E1,1.3967839E1,4.6336083E0,1.9110569E1,1.1451643E1,2.5161963E0,2.9881136E0,1.6454947E0,1.7624317E1,1.4862504E0,1.0827585E0,1.0368884E1,1.475206E0,1.0409904E0,1.1298449E0,1.8582687E0,1.627597E1,1.3483478E0,9.344635E0,1.0242488E0],"tree_param":{"num_deleted":"0","num_feature":"37","num_nodes":"21","size_leaf_vector":"1"}},{"base_weights":[2.286069E-2,-2.1328412E-1,7.799631E-1,-6.901818E-1,-1.3653139E-2,9.56945E-1,1.3427477E-3,-9.896595E-2,-8.90732E-2,-2.0724812E-1,6.728675E-1,1.0268157E-1,3.1260695E-2,7.398691E-2,-7.5009644E-2,8.0624875E-3,-9.8770104E-2,3.2007303E-3,8.758413E-2],"categories":[],"categories_nodes":[],"categories_segments":[],"categories_sizes":[],"default_left":[0,0,0,0,0,0,0,0,0,0,0,0,0,0,0,0,0,0,0],"id":18,"left_children":[1,3,5,7,9,11,-1,-1,13,15,17,-1,-1,-1,-1,-1,-1,-1,-1],"loss_changes":[6.857493E0,2.78126E0,1.2233996E0,1.4653153E0,3.0213153E0,1.1669636E-2,0E0,0E0,2.729525E0,4.0514317E0,6.2301373E-1,0E0,0E0,0E0,0E0,0E0,0E0,0E0,0E0],"parents":[2147483647,0,0,1,1,2,2,3,3,4,4,5,5,8,8,9,9,10,10],"right_children":[2,4,6,8,10,12,-1,-1,14,16,18,-1,-1,-1,-1,-1,-1,-1,-1],"split_conditions":[3.9406222E-1,-7.5245285E-1,1.2761319E0,1.3619448E-1,1.8272206E0,7.439573E-1,1.3427477E-3,-9.896595E-2,3.7371364E-1,3.0774805E-1,-2.6453419E0,1.0268157E-1,3.1260695E-2,7.398691E-2,-7.5009644E-2,8.0624875E-3,-9.8770104E-2,3.2007303E-3,8.758413E-2],"split_indices":[24,24,10,10,16,23,0,0,34,18,34,0,0,0,0,0,0,0,0],"split_type":[0,0,0,0,0,0,0,0,0,0,0,0,0,0,0,0,0,0,0],"sum_hessian":[3.6425453E1,2.8312807E1,8.112646E0,7.629481E0,2.0683325E1,6.3890944E0,1.723552E0,4.660959E0,2.968522E0,1.6678267E1,4.0050592E0,5.228526E0,1.160568E0,1.264067E0,1.7044551E0,1.2839181E1,3.8390856E0,1.2418355E0,2.763224E0],"tree_param":{"num_deleted":"0","num_feature":"37","num_nodes":"19","size_leaf_vector":"1"}},{"base_weights":[2.191562E-2,-2.0090136E-1,7.5020134E-1,1.409295E-1,-4.5910156E-1,9.4409645E-2,2.4136463E-3,3.3414456E-1,-6.831535E-2,-1.0755611E-1,-8.780878E-1,-5.2977055E-2,6.1125755E-2,3.8480125E-2,-7.087966E-2,-1.0126729E-1,-7.659722E-3],"categories":[],"categories_nodes":[],"categories_segments":[],"categories_sizes":[],"default_left":[0,0,0,0,0,0,0,0,0,0,0,0,0,0,0,0,0],"id":19,"left_children":[1,3,5,7,9,-1,-1,11,-1,13,15,-1,-1,-1,-1,-1,-1],"loss_changes":[6.052985E0,2.592484E0,1.2065377E0,2.3124058E0,2.3433557E0,0E0,0E0,3.0230188E0,0E0,3.2742174E0,7.2189665E-1,0E0,0E0,0E0,0E0,0E0,0E0],"parents":[2147483647,0,0,1,1,2,2,3,3,4,4,7,7,9,9,10,10],"right_children":[2,4,6,8,10,-1,-1,12,-1,14,16,-1,-1,-1,-1,-1,-1],"split_conditions":[3.9406222E-1,-3.1379294E-1,6.4667946E-1,1.0155382E0,-4.0642628E-1,9.4409645E-2,2.4136463E-3,-8.222695E-1,-6.831535E-2,-7.591464E-2,1.8272206E0,-5.2977055E-2,6.1125755E-2,3.8480125E-2,-7.087966E-2,-1.0126729E-1,-7.659722E-3],"split_indices":[24,28,14,8,27,0,0,8,0,31,16,0,0,0,0,0,0],"split_type":[0,0,0,0,0,0,0,0,0,0,0,0,0,0,0,0,0],"sum_hessian":[3.5372147E1,2.763993E1,7.7322145E0,1.2089218E1,1.5550713E1,5.8655357E0,1.8666787E0,1.0274724E1,1.8144935E0,9.139245E0,6.4114685E0,2.2739158E0,8.000809E0,5.2225075E0,3.9167368E0,5.2640505E0,1.1474178E0],"tree_param":{"num_deleted":"0","num_feature":"37","num_nodes":"17","size_leaf_vector":"1"}},{"base_weights":[1.7146977E-2,-1.9219095E-1,7.248488E-1,-6.57783E-1,-3.7863832E-3,9.139037E-1,-2.3364492E-3,8.433302E-3,-8.647389E-1,-1.3850875E-1,8.585557E-2,9.896828E-2,2.6862357E-2,-1.8846808E-2,-9.5693186E-2,-6.9179356E-2,8.237015E-3],"categories":[],"categories_nodes":[],"categories_segments":[],"categories_sizes":[],"default_left":[0,0,0,0,0,0,0,0,0,0,0,0,0,0,0,0,0],"id":20,"left_children":[1,3,5,7,9,11,-1,-1,13,15,-1,-1,-1,-1,-1,-1,-1],"loss_changes":[5.387406E0,2.46492E0,1.1948681E0,1.3165798E0,2.562217E0,5.92103E-2,0E0,0E0,2.199564E-1,2.3850987E0,0E0,0E0,0E0,0E0,0E0,0E0,0E0],"parents":[2147483647,0,0,1,1,2,2,3,3,4,4,5,5,8,8,9,9],"right_children":[2,4,6,8,10,12,-1,-1,14,16,-1,-1,-1,-1,-1,-1,-1],"split_conditions":[3.9406222E-1,-7.5245285E-1,1.2761319E0,-4.6580818E-1,5.8597684E-1,7.439573E-1,-2.3364492E-3,8.433302E-3,-6.506601E-1,-7.8356653E-1,8.585557E-2,9.896828E-2,2.6862357E-2,-1.8846808E-2,-9.5693186E-2,-6.9179356E-2,8.237015E-3],"split_indices":[24,24,10,6,9,23,0,0,23,8,0,0,0,0,0,0,0],"split_type":[0,0,0,0,0,0,0,0,0,0,0,0,0,0,0,0,0],"sum_hessian":[3.442449E1,2.7128363E1,7.296129E0,7.0974817E0,2.003088E1,5.647659E0,1.6484706E0,1.6768898E0,5.4205923E0,1.8050291E1,1.9805883E0,4.5764885E0,1.0711701E0,1.0155342E0,4.405058E0,4.541693E0,1.3508598E1],"tree_param":{"num_deleted":"0","num_feature":"37","num_nodes":"17","size_leaf_vector":"1"}},{"base_weights":[1.696686E-2,-1.7942294E-1,6.966119E-1,-3.3542317E-1,3.3864453E-1,9.1192864E-2,-1.160051E-3,-6.6070616E-1,1.003882E-1,7.71251E-1,-6.118385E-2,-9.133408E-2,6.1513867E-2,6.3953325E-2,-3.73673E-2,1.0614043E-1,-1.9984206E-2],"categories":[],"categories_nodes":[],"categories_segments":[],"categories_sizes":[],"default_left":[0,0,0,0,0,0,0,0,0,0,0,0,0,0,0,0,0],"id":21,"left_children":[1,3,5,7,9,-1,-1,11,13,15,-1,-1,-1,-1,-1,-1,-1],"loss_changes":[4.7477784E0,2.3494332E0,1.2257843E0,3.1517508E0,3.309116E0,0E0,0E0,4.621382E0,2.838337E0,1.6728625E0,0E0,0E0,0E0,0E0,0E0,0E0,0E0],"parents":[2147483647,0,0,1,1,2,2,3,3,4,4,7,7,8,8,9,9],"right_children":[2,4,6,8,10,-1,-1,12,14,16,-1,-1,-1,-1,-1,-1,-1],"split_conditions":[3.9406222E-1,3.532064E-1,6.4667946E-1,-1.6682191E-1,9.7239804E-1,9.1192864E-2,-1.160051E-3,9.368431E-1,-1.23594165E-1,7.7783513E-1,-6.118385E-2,-9.133408E-2,6.1513867E-2,6.3953325E-2,-3.73673E-2,1.0614043E-1,-1.9984206E-2],"split_indices":[24,10,14,8,8,0,0,17,10,1,0,0,0,0,0,0,0],"split_type":[0,0,0,0,0,0,0,0,0,0,0,0,0,0,0,0,0],"sum_hessian":[3.3634037E1,2.6664953E1,6.969084E0,2.0764812E1,5.9001403E0,5.123688E0,1.8453958E0,1.1594682E1,9.170132E0,4.1842666E0,1.7158735E0,9.9154215E0,1.6792601E0,4.1272264E0,5.042905E0,3.1500597E0,1.0342069E0],"tree_param":{"num_deleted":"0","num_feature":"37","num_nodes":"17","size_leaf_vector":"1"}},{"base_weights":[1.8981922E-2,-1.6526534E-1,6.723991E-1,-6.1871815E-1,1.1894493E-2,8.937674E-2,-1.0848078E-3,-9.2489295E-2,-5.272968E-2,3.344746E-1,-3.244649E-1,6.833751E-2,-6.950201E-2,9.692081E-2,-5.8400154E-4,-5.5458188E-2,6.510877E-2],"categories":[],"categories_nodes":[],"categories_segments":[],"categories_sizes":[],"default_left":[0,0,0,0,0,0,0,0,0,0,0,0,0,0,0,0,0],"id":22,"left_children":[1,3,5,7,9,-1,-1,-1,11,13,15,-1,-1,-1,-1,-1,-1],"loss_changes":[4.157638E0,2.178081E0,1.1577206E0,1.269985E0,2.3232079E0,0E0,0E0,0E0,2.2394135E0,2.3626351E0,2.7182007E0,0E0,0E0,0E0,0E0,0E0,0E0],"parents":[2147483647,0,0,1,1,2,2,3,3,4,4,8,8,9,9,10,10],"right_children":[2,4,6,8,10,-1,-1,-1,12,14,16,-1,-1,-1,-1,-1,-1],"split_conditions":[3.9406222E-1,-7.5245285E-1,6.4667946E-1,1.3619448E-1,-2.787863E-3,8.937674E-2,-1.0848078E-3,-9.2489295E-2,3.7371364E-1,-3.9324713E-1,7.7783513E-1,6.833751E-2,-6.950201E-2,9.692081E-2,-5.8400154E-4,-5.5458188E-2,6.510877E-2],"split_indices":[24,24,14,10,4,0,0,0,34,24,1,0,0,0,0,0,0],"split_type":[0,0,0,0,0,0,0,0,0,0,0,0,0,0,0,0,0],"sum_hessian":[3.2611618E1,2.602133E1,6.590287E0,6.610042E0,1.9411287E1,4.7448616E0,1.8454255E0,3.8780622E0,2.7319798E0,9.911462E0,9.499826E0,1.2432138E0,1.488766E0,2.814345E0,7.0971174E0,8.035826E0,1.4640006E0],"tree_param":{"num_deleted":"0","num_feature":"37","num_nodes":"17","size_leaf_vector":"1"}},{"base_weights":[2.0605933E-2,-2.2931744E-1,4.5756686E-1,5.4041654E-1,-3.6051264E-1,6.6174555E-1,-2.6356107E-1,9.448201E-2,-1.54878665E-2,6.200981E-2,-4.9247915E-1,-3.6864303E-2,9.020698E-1,3.4027796E-2,-6.607487E-2,-6.1177928E-2,5.2645355E-2,6.0991555E-2,-6.282249E-2,1.00371554E-1,1.4227457E-2],"categories":[],"categories_nodes":[],"categories_segments":[],"categories_sizes":[],"default_left":[0,0,0,0,0,0,0,0,0,0,0,0,0,0,0,0,0,0,0,0,0],"id":23,"left_children":[1,3,5,7,9,11,13,-1,-1,-1,15,17,19,-1,-1,-1,-1,-1,-1,-1,-1],"loss_changes":[3.6762612E0,2.362965E0,1.9755375E0,1.1379514E0,2.7567804E0,1.6816678E0,1.0437474E0,0E0,0E0,0E0,2.4194026E0,1.7118086E0,4.244113E-1,0E0,0E0,0E0,0E0,0E0,0E0,0E0,0E0],"parents":[2147483647,0,0,1,1,2,2,3,3,4,4,5,5,6,6,10,10,11,11,12,12],"right_children":[2,4,6,8,10,12,14,-1,-1,-1,16,18,20,-1,-1,-1,-1,-1,-1,-1,-1],"split_conditions":[7.566014E-2,-1.1116041E0,7.0359784E-1,-7.668169E-2,-1.8054882E0,-2.5629783E-1,2.309599E-1,9.448201E-2,-1.54878665E-2,6.200981E-2,1.2302588E0,-1.2332031E-1,1.6237655E0,3.4027796E-2,-6.607487E-2,-6.1177928E-2,5.2645355E-2,6.0991555E-2,-6.282249E-2,1.00371554E-1,1.4227457E-2],"split_indices":[24,18,14,4,32,8,8,0,0,0,6,15,10,0,0,0,0,0,0,0,0],"split_type":[0,0,0,0,0,0,0,0,0,0,0,0,0,0,0,0,0,0,0,0,0],"sum_hessian":[3.1702496E1,2.0469816E1,1.123268E1,2.5266364E0,1.794318E1,8.818246E0,2.4144342E0,1.3705873E0,1.1560491E0,1.6895608E0,1.6253618E1,2.4737606E0,6.3444853E0,1.0148512E0,1.3995829E0,1.4907756E1,1.3458629E0,1.1665312E0,1.3072293E0,5.3127136E0,1.0317715E0],"tree_param":{"num_deleted":"0","num_feature":"37","num_nodes":"21","size_leaf_vector":"1"}},{"base_weights":[2.6028825E-2,-1.3895608E-1,6.3677275E-1,1.6455811E-1,-3.8621765E-1,8.482129E-1,-8.993199E-3,4.5478076E-1,-3.816918E-1,-9.21736E-2,-1.18805006E-1,9.3266696E-2,2.3880979E-2,-1.14723975E-2,8.715754E-2,-6.8799436E-2,3.172628E-2,7.484364E-2,-3.4430977E-2],"categories":[],"categories_nodes":[],"categories_segments":[],"categories_sizes":[],"default_left":[0,0,0,0,0,0,0,0,0,0,0,0,0,0,0,0,0,0,0],"id":24,"left_children":[1,3,5,7,9,11,-1,13,15,-1,17,-1,-1,-1,-1,-1,-1,-1,-1],"loss_changes":[3.2860785E0,2.0001752E0,1.1408558E0,2.1213486E0,1.9697082E0,5.8416367E-2,0E0,2.1127658E0,1.2472993E0,0E0,2.3760014E0,0E0,0E0,0E0,0E0,0E0,0E0,0E0,0E0],"parents":[2147483647,0,0,1,1,2,2,3,3,4,4,5,5,7,7,8,8,10,10],"right_children":[2,4,6,8,10,12,-1,14,16,-1,18,-1,-1,-1,-1,-1,-1,-1,-1],"split_conditions":[3.9406222E-1,-3.1379294E-1,1.2761319E0,6.2761915E-1,3.1020397E-1,7.614906E-1,-8.993199E-3,-1.6170753E-2,-4.8753038E-1,-9.21736E-2,-1.1116041E0,9.3266696E-2,2.3880979E-2,-1.14723975E-2,8.715754E-2,-6.8799436E-2,3.172628E-2,7.484364E-2,-3.4430977E-2],"split_indices":[24,28,10,4,35,8,0,7,16,0,18,0,0,0,0,0,0,0,0],"split_type":[0,0,0,0,0,0,0,0,0,0,0,0,0,0,0,0,0,0,0],"sum_hessian":[3.0733654E1,2.4805292E1,5.928362E0,1.1286078E1,1.3519213E1,4.4627013E0,1.4656607E0,7.4796104E0,3.8064685E0,3.6875958E0,9.831617E0,3.4536219E0,1.0090795E0,3.4670324E0,4.012578E0,2.657538E0,1.1489305E0,1.5503553E0,8.281262E0],"tree_param":{"num_deleted":"0","num_feature":"37","num_nodes":"19","size_leaf_vector":"1"}},{"base_weights":[2.6957689E-2,-5.664575E-1,1.903034E-1,1.3886456E-2,-7.910113E-1,4.455838E-1,-1.00720905E-1,-8.753956E-2,-2.0972343E-2,7.2028565E-1,-9.511994E-2,-4.2972696E-1,5.6131023E-1,-3.2452252E-3,8.845826E-2,3.5059348E-2,-7.040423E-2,-7.650532E-2,1.8494183E-2,-2.2182753E-2,9.896439E-2],"categories":[],"categories_nodes":[],"categories_segments":[],"categories_sizes":[],"default_left":[0,0,0,0,0,0,0,0,0,0,0,0,0,0,0,0,0,0,0,0,0],"id":25,"left_children":[1,3,5,-1,7,9,11,-1,-1,13,15,17,19,-1,-1,-1,-1,-1,-1,-1,-1],"loss_changes":[3.1161714E0,1.2106884E0,1.9085461E0,0E0,8.233762E-2,2.0807893E0,2.9720736E0,0E0,0E0,1.1541629E0,1.7252944E0,1.984525E0,1.7611972E0,0E0,0E0,0E0,0E0,0E0,0E0,0E0,0E0],"parents":[2147483647,0,0,1,1,2,2,4,4,5,5,6,6,9,9,10,10,11,11,12,12],"right_children":[2,4,6,-1,8,10,12,-1,-1,14,16,18,20,-1,-1,-1,-1,-1,-1,-1,-1],"split_conditions":[-7.5245285E-1,-4.6580818E-1,-2.787863E-3,1.3886456E-2,3.532064E-1,5.248842E-1,1.047961E0,-8.753956E-2,-2.0972343E-2,-8.970092E-1,-7.138973E-1,7.566014E-2,-4.7181326E-1,-3.2452252E-3,8.845826E-2,3.5059348E-2,-7.040423E-2,-7.650532E-2,1.8494183E-2,-2.2182753E-2,9.896439E-2],"split_indices":[24,6,4,0,10,20,4,0,0,8,25,24,1,0,0,0,0,0,0,0,0],"split_type":[0,0,0,0,0,0,0,0,0,0,0,0,0,0,0,0,0,0,0,0,0],"sum_hessian":[3.0035963E1,5.950537E0,2.4085424E1,1.5291338E0,4.4214034E0,1.2547731E1,1.1537694E1,3.4191008E0,1.0023023E0,8.100292E0,4.447439E0,7.9417973E0,3.5958962E0,1.59503E0,6.5052624E0,2.812795E0,1.6346444E0,4.980227E0,2.9615705E0,1.4418414E0,2.1540549E0],"tree_param":{"num_deleted":"0","num_feature":"37","num_nodes":"21","size_leaf_vector":"1"}},{"base_weights":[2.3869287E-2,-5.428269E-1,1.7827612E-1,-8.686876E-2,5.1224697E-3,3.361592E-2,6.755394E-1,6.609942E-2,-6.363611E-2,2.2743939E-1,-7.632701E-2,1.2667847E-2,7.994332E-1,-4.845851E-2,4.3022797E-2,9.313806E-2,2.6803747E-2],"categories":[],"categories_nodes":[],"categories_segments":[],"categories_sizes":[],"default_left":[0,0,0,0,0,0,0,0,0,0,0,0,0,0,0,0,0],"id":26,"left_children":[1,3,5,-1,7,9,11,-1,-1,13,-1,-1,15,-1,-1,-1,-1],"loss_changes":[2.7421713E0,1.204482E0,1.7405221E0,0E0,1.8933787E0,3.2689214E0,2.7079058E-1,0E0,0E0,2.6472359E0,0E0,0E0,5.0140142E-2,0E0,0E0,0E0,0E0],"parents":[2147483647,0,0,1,1,2,2,4,4,5,5,6,6,9,9,12,12],"right_children":[2,4,6,-1,8,10,12,-1,-1,14,-1,-1,16,-1,-1,-1,-1],"split_conditions":[-7.5245285E-1,1.3619448E-1,1.8272206E0,-8.686876E-2,3.7371364E-1,3.0774805E-1,-2.2222394E-1,6.609942E-2,-6.363611E-2,9.128607E-2,-7.632701E-2,1.2667847E-2,8.0902976E-1,-4.845851E-2,4.3022797E-2,9.313806E-2,2.6803747E-2],"split_indices":[24,10,16,0,34,18,9,0,0,35,0,0,5,0,0,0,0],"split_type":[0,0,0,0,0,0,0,0,0,0,0,0,0,0,0,0,0],"sum_hessian":[2.9232513E1,5.720791E0,2.3511723E1,3.2203398E0,2.500451E0,1.9040268E1,4.471454E0,1.2213213E0,1.2791299E0,1.5889997E1,3.1502721E0,1.1959156E0,3.2755384E0,3.2143323E0,1.2675664E1,2.0210087E0,1.2545297E0],"tree_param":{"num_deleted":"0","num_feature":"37","num_nodes":"17","size_leaf_vector":"1"}},{"base_weights":[2.0416772E-2,-1.2644969E-1,5.713698E-1,1.5842023E-1,-3.642999E-1,8.323962E-2,-6.71016E-3,4.6238044E-1,-3.1503484E-1,1.0526182E-1,-6.0439795E-1,-3.8983773E-2,6.957536E-2,-7.347643E-2,6.402233E-3,5.2955735E-2,-6.8402044E-2,-9.354942E-2,5.146059E-3],"categories":[],"categories_nodes":[],"categories_segments":[],"categories_sizes":[],"default_left":[0,0,0,0,0,0,0,0,0,0,0,0,0,0,0,0,0,0,0],"id":27,"left_children":[1,3,5,7,9,-1,-1,11,13,15,17,-1,-1,-1,-1,-1,-1,-1,-1],"loss_changes":[2.4669843E0,1.6964127E0,1.1241219E0,1.8296852E0,1.5837518E0,0E0,0E0,1.769182E0,8.6959904E-1,2.1751475E0,2.0176945E0,0E0,0E0,0E0,0E0,0E0,0E0,0E0,0E0],"parents":[2147483647,0,0,1,1,2,2,3,3,4,4,7,7,8,8,9,9,10,10],"right_children":[2,4,6,8,10,-1,-1,12,14,16,18,-1,-1,-1,-1,-1,-1,-1,-1],"split_conditions":[3.9406222E-1,-3.1379294E-1,6.4667946E-1,5.805943E-1,-1.2930719E0,8.323962E-2,-6.71016E-3,-8.222695E-1,-4.9425283E-1,-7.591464E-2,1.16955295E-1,-3.8983773E-2,6.957536E-2,-7.347643E-2,6.402233E-3,5.2955735E-2,-6.8402044E-2,-9.354942E-2,5.146059E-3],"split_indices":[24,28,14,4,26,0,0,8,24,31,17,0,0,0,0,0,0,0,0],"split_type":[0,0,0,0,0,0,0,0,0,0,0,0,0,0,0,0,0,0,0],"sum_hessian":[2.8595123E1,2.3185184E1,5.40994E0,1.070177E1,1.2483414E1,3.6244302E0,1.7855093E0,6.5317497E0,4.17002E0,4.413495E0,8.069919E0,1.2600234E0,5.271726E0,1.5335373E0,2.636483E0,3.0844486E0,1.3290466E0,5.079351E0,2.9905682E0],"tree_param":{"num_deleted":"0","num_feature":"37","num_nodes":"19","size_leaf_vector":"1"}},{"base_weights":[1.6337885E-2,-5.162833E-1,1.5808074E-1,1.4003602E-2,-7.431708E-1,1.6753273E-2,6.4676017E-1,-2.0708816E-2,-8.296237E-2,3.6037177E-1,-3.781345E-1,1.2344844E-2,7.851011E-2,-4.4957746E-2,6.354331E-2,-8.5501425E-2,2.247669E-2],"categories":[],"categories_nodes":[],"categories_segments":[],"categories_sizes":[],"default_left":[0,0,0,0,0,0,0,0,0,0,0,0,0,0,0,0,0],"id":28,"left_children":[1,3,5,-1,7,9,11,-1,-1,13,15,-1,-1,-1,-1,-1,-1],"loss_changes":[2.2599165E0,1.0420675E0,1.6159246E0,0E0,5.248308E-2,2.7547119E0,2.836852E-1,0E0,0E0,2.6985414E0,2.9139671E0,0E0,0E0,0E0,0E0,0E0,0E0],"parents":[2147483647,0,0,1,1,2,2,4,4,5,5,6,6,9,9,10,10],"right_children":[2,4,6,-1,8,10,12,-1,-1,14,16,-1,-1,-1,-1,-1,-1],"split_conditions":[-7.5245285E-1,-4.6580818E-1,1.8272206E0,1.4003602E-2,-5.8786446E-1,-4.2982355E-1,-2.6453419E0,-2.0708816E-2,-8.296237E-2,-7.8356653E-1,1.1444592E-2,1.2344844E-2,7.851011E-2,-4.4957746E-2,6.354331E-2,-8.5501425E-2,2.247669E-2],"split_indices":[24,6,16,0,23,18,34,0,0,8,24,0,0,0,0,0,0],"split_type":[0,0,0,0,0,0,0,0,0,0,0,0,0,0,0,0,0],"sum_hessian":[2.78535E1,5.2990584E0,2.2554441E1,1.4596148E0,3.8394437E0,1.829714E1,4.257302E0,1.0047174E0,2.8347263E0,9.830428E0,8.466712E0,1.2857934E0,2.9715085E0,2.3312721E0,7.499156E0,4.493947E0,3.9727647E0],"tree_param":{"num_deleted":"0","num_feature":"37","num_nodes":"17","size_leaf_vector":"1"}},{"base_weights":[1.3227526E-2,-4.9475342E-1,1.4771661E-1,-8.2321994E-2,2.4025075E-2,1.2738365E-2,6.14615E-1,6.237051E-2,-5.9900966E-2,1.7976826E-1,-7.066085E-2,7.8919284E-2,1.5781952E-2,-4.6472922E-2,3.6419224E-2],"categories":[],"categories_nodes":[],"categories_segments":[],"categories_sizes":[],"default_left":[0,0,0,0,0,0,0,0,0,0,0,0,0,0,0],"id":29,"left_children":[1,3,5,-1,7,9,11,-1,-1,13,-1,-1,-1,-1,-1],"loss_changes":[1.993009E0,1.0613942E0,1.4410331E0,0E0,1.6220506E0,2.3925543E0,2.8491962E-1,0E0,0E0,2.0828495E0,0E0,0E0,0E0,0E0,0E0],"parents":[2147483647,0,0,1,1,2,2,4,4,5,5,6,6,9,9],"right_children":[2,4,6,-1,8,10,12,-1,-1,14,-1,-1,-1,-1,-1],"split_conditions":[-7.5245285E-1,1.3619448E-1,1.8272206E0,-8.2321994E-2,3.7371364E-1,3.0774805E-1,3.2827225E-2,6.237051E-2,-5.9900966E-2,9.128607E-2,-7.066085E-2,7.8919284E-2,1.5781952E-2,-4.6472922E-2,3.6419224E-2],"split_indices":[24,10,16,0,34,18,23,0,0,35,0,0,0,0,0],"split_type":[0,0,0,0,0,0,0,0,0,0,0,0,0,0,0],"sum_hessian":[2.7102823E1,5.1127205E0,2.1990103E1,2.7712498E0,2.3414705E0,1.7855453E1,4.134649E0,1.1925489E0,1.1489216E0,1.5099497E1,2.755957E0,2.464931E0,1.6697179E0,3.02128E0,1.2078217E1],"tree_param":{"num_deleted":"0","num_feature":"37","num_nodes":"15","size_leaf_vector":"1"}},{"base_weights":[9.425647E-3,2.7839857E-1,-2.4584882E-1,-6.403925E-2,6.365991E-1,7.3530115E-2,-7.043206E-1,-7.356788E-2,1.8081522E-1,8.4555686E-1,-2.5650159E-2,4.5682275E-1,-4.9584967E-1,-9.262121E-2,1.4526009E-3,6.884156E-2,-3.9772585E-2,1.021328E-1,1.4171304E-2,-1.4398418E-2,7.994818E-2,2.234878E-2,-8.655042E-2],"categories":[],"categories_nodes":[],"categories_segments":[],"categories_sizes":[],"default_left":[0,0,0,0,0,0,0,0,0,0,0,0,0,0,0,0,0,0,0,0,0,0,0],"id":30,"left_children":[1,3,5,7,9,11,13,-1,15,17,-1,19,21,-1,-1,-1,-1,-1,-1,-1,-1,-1,-1],"loss_changes":[1.9597254E0,1.7434922E0,2.1988852E0,1.4495584E0,1.5000877E0,2.3102977E0,9.8886013E-1,0E0,2.2323956E0,5.7343435E-1,0E0,1.3970963E0,1.3424293E0,0E0,0E0,0E0,0E0,0E0,0E0,0E0,0E0,0E0,0E0],"parents":[2147483647,0,0,1,1,2,2,3,3,4,4,5,5,6,6,8,8,9,9,11,11,12,12],"right_children":[2,4,6,8,10,12,14,-1,16,18,-1,20,22,-1,-1,-1,-1,-1,-1,-1,-1,-1,-1],"split_conditions":[-3.1379294E-1,-1.5110101E-1,-4.0642628E-1,-8.814266E-1,3.4795764E-1,1.5430417E0,6.750672E-1,-7.356788E-2,3.0774805E-1,3.3332098E-1,-2.5650159E-2,-8.855809E-3,-3.8794848E-1,-9.262121E-2,1.4526009E-3,6.884156E-2,-3.9772585E-2,1.021328E-1,1.4171304E-2,-1.4398418E-2,7.994818E-2,2.234878E-2,-8.655042E-2],"split_indices":[28,24,27,20,17,31,35,0,18,12,0,12,1,0,0,0,0,0,0,0,0,0,0],"split_type":[0,0,0,0,0,0,0,0,0,0,0,0,0,0,0,0,0,0,0,0,0,0,0],"sum_hessian":[2.6544838E1,1.2881504E1,1.3663333E1,7.0055013E0,5.876003E0,8.548162E0,5.1151705E0,1.3360742E0,5.669427E0,4.805014E0,1.0709888E0,5.2270937E0,3.3210688E0,3.688229E0,1.4269414E0,2.918701E0,2.7507262E0,3.483905E0,1.3211088E0,2.1090171E0,3.1180768E0,1.2615473E0,2.0595214E0],"tree_param":{"num_deleted":"0","num_feature":"37","num_nodes":"23","size_leaf_vector":"1"}},{"base_weights":[6.9260453E-3,-4.3230402E-1,1.5131214E-1,-6.454112E-1,4.0332735E-2,4.8872375E-1,-1.3810885E-1,-9.402482E-3,-8.488428E-2,8.419245E-1,9.37681E-3,3.3089885E-1,-4.2321992E-1,9.183565E-2,2.6312722E-2,-3.8637485E-2,5.9139874E-2,-4.80594E-2,6.667768E-2,4.592019E-2,-6.5697916E-2],"categories":[],"categories_nodes":[],"categories_segments":[],"categories_sizes":[],"default_left":[0,0,0,0,0,0,0,0,0,0,0,0,0,0,0,0,0,0,0,0,0],"id":31,"left_children":[1,3,5,7,-1,9,11,-1,-1,13,15,17,19,-1,-1,-1,-1,-1,-1,-1,-1],"loss_changes":[1.7665728E0,1.4882675E0,2.111268E0,5.796251E-1,0E0,1.665442E0,1.7507151E0,0E0,0E0,9.598732E-3,1.4272299E0,1.7146479E0,1.9374456E0,0E0,0E0,0E0,0E0,0E0,0E0,0E0,0E0],"parents":[2147483647,0,0,1,1,2,2,3,3,5,5,6,6,9,9,10,10,11,11,12,12],"right_children":[2,4,6,8,-1,10,12,-1,-1,14,16,18,20,-1,-1,-1,-1,-1,-1,-1,-1],"split_conditions":[-7.8356653E-1,5.8597684E-1,-4.6977744E-2,-1.4215302E0,4.0332735E-2,8.354419E-2,-1.0995984E-1,-9.402482E-3,-8.488428E-2,1.0837895E0,-3.7129182E-1,-1.2763183E-1,2.428004E-1,9.183565E-2,2.6312722E-2,-3.8637485E-2,5.9139874E-2,-4.80594E-2,6.667768E-2,4.592019E-2,-6.5697916E-2],"split_indices":[8,9,20,8,0,4,14,0,0,8,20,35,34,0,0,0,0,0,0,0,0],"split_type":[0,0,0,0,0,0,0,0,0,0,0,0,0,0,0,0,0,0,0,0,0],"sum_hessian":[2.5824259E1,5.895563E0,1.9928696E1,4.878945E0,1.0166183E0,8.88352E0,1.1045176E1,1.7090046E0,3.1699402E0,4.679264E0,4.2042556E0,4.115153E0,6.9300227E0,3.6152022E0,1.0640621E0,2.702687E0,1.5015687E0,1.0785294E0,3.0366232E0,1.249362E0,5.6806607E0],"tree_param":{"num_deleted":"0","num_feature":"37","num_nodes":"21","size_leaf_vector":"1"}},{"base_weights":[9.479375E-3,-1.1890212E-1,4.985692E-1,-2.523728E-1,3.0100843E-1,7.837517E-2,-1.0048475E-2,-5.519125E-1,1.09166056E-1,6.784786E-1,-5.257367E-2,-8.0657184E-2,4.5469966E-2,5.6584336E-2,-3.0021254E-2,9.53807E-3,9.174776E-2],"categories":[],"categories_nodes":[],"categories_segments":[],"categories_sizes":[],"default_left":[0,0,0,0,0,0,0,0,0,0,0,0,0,0,0,0,0],"id":32,"left_children":[1,3,5,7,9,-1,-1,11,13,15,-1,-1,-1,-1,-1,-1,-1],"loss_changes":[1.705976E0,1.2854438E0,1.0431817E0,1.8925169E0,2.1233406E0,0E0,0E0,2.7810147E0,1.7591822E0,5.149572E-1,0E0,0E0,0E0,0E0,0E0,0E0,0E0],"parents":[2147483647,0,0,1,1,2,2,3,3,4,4,7,7,8,8,9,9],"right_children":[2,4,6,8,10,-1,-1,12,14,16,-1,-1,-1,-1,-1,-1,-1],"split_conditions":[3.9406222E-1,3.532064E-1,6.4667946E-1,-1.6682191E-1,9.7239804E-1,7.837517E-2,-1.0048475E-2,5.493185E-1,-1.23594165E-1,-6.735212E-1,-5.257367E-2,-8.0657184E-2,4.5469966E-2,5.6584336E-2,-3.0021254E-2,9.53807E-3,9.174776E-2],"split_indices":[24,10,14,8,8,0,0,17,10,24,0,0,0,0,0,0,0],"split_type":[0,0,0,0,0,0,0,0,0,0,0,0,0,0,0,0,0],"sum_hessian":[2.52254E1,2.0580185E1,4.6452146E0,1.5919179E1,4.6610065E0,2.9381695E0,1.7070453E0,8.418104E0,7.501075E0,3.3231025E0,1.337904E0,6.877033E0,1.5410708E0,3.3650422E0,4.1360326E0,1.3728282E0,1.9502742E0],"tree_param":{"num_deleted":"0","num_feature":"37","num_nodes":"17","size_leaf_vector":"1"}},{"base_weights":[1.2982211E-2,-4.542179E-1,1.3645084E-1,-7.767527E-2,2.8322354E-2,2.4894679E-1,-3.6054158E-1,5.865388E-2,-5.6850743E-2,-3.1992814E-1,3.7277582E-1,3.4569915E-2,-7.815788E-2,-5.437982E-2,8.566727E-3,4.8208263E-2,-4.9612813E-2],"categories":[],"categories_nodes":[],"categories_segments":[],"categories_sizes":[],"default_left":[0,0,0,0,0,0,0,0,0,0,0,0,0,0,0,0,0],"id":33,"left_children":[1,3,5,-1,7,9,11,-1,-1,13,15,-1,-1,-1,-1,-1,-1],"loss_changes":[1.5344918E0,8.8841987E-1,1.2616229E0,0E0,1.3979307E0,1.3649014E0,1.5420132E0,0E0,0E0,3.82473E-1,1.6622849E0,0E0,0E0,0E0,0E0,0E0,0E0],"parents":[2147483647,0,0,1,1,2,2,4,4,5,5,6,6,9,9,10,10],"right_children":[2,4,6,-1,8,10,12,-1,-1,14,16,-1,-1,-1,-1,-1,-1],"split_conditions":[-7.5245285E-1,1.3619448E-1,1.0161878E0,-7.767527E-2,3.7371364E-1,-5.46592E-2,4.8108198E-2,5.865388E-2,-5.6850743E-2,1.8272206E0,5.070599E-1,3.4569915E-2,-7.815788E-2,-5.437982E-2,8.566727E-3,4.8208263E-2,-4.9612813E-2],"split_indices":[24,10,8,0,34,35,15,0,0,16,36,0,0,0,0,0,0],"split_type":[0,0,0,0,0,0,0,0,0,0,0,0,0,0,0,0,0],"sum_hessian":[2.4526993E1,4.566967E0,1.9960026E1,2.37187E0,2.1950972E0,1.668289E1,3.2771363E0,1.1431494E0,1.0519477E0,2.6991723E0,1.3983718E1,1.2908391E0,1.9862971E0,1.5196528E0,1.1795193E0,1.2816593E1,1.1671246E0],"tree_param":{"num_deleted":"0","num_feature":"37","num_nodes":"17","size_leaf_vector":"1"}},{"base_weights":[4.939996E-3,2.4370746E-1,-2.2588228E-1,-6.299568E-2,5.704643E-1,-4.7570696E-1,2.864674E-1,-6.769677E-2,1.6107176E-1,8.94781E-2,-6.54422E-2,2.1614315E-1,-7.9481256E-1,-1.5833455E-1,6.7394465E-2,6.261099E-2,-3.7717003E-2,-3.524885E-2,2.532473E-2,5.408557E-2,-1.980721E-2,-9.202032E-2,-2.7659193E-2,1.7498905E-2,-4.2268034E-2],"categories":[],"categories_nodes":[],"categories_segments":[],"categories_sizes":[],"default_left":[0,0,0,0,0,0,0,0,0,0,0,0,0,0,0,0,0,0,0,0,0,0,0,0,0],"id":34,"left_children":[1,3,5,7,9,11,13,-1,15,-1,17,19,21,23,-1,-1,-1,-1,-1,-1,-1,-1,-1,-1,-1],"loss_changes":[1.4373083E0,1.3196318E0,1.8349841E0,1.1419053E0,1.3580954E0,2.2243624E0,9.640213E-1,0E0,1.8151296E0,0E0,3.6920077E-1,6.075835E-1,1.7281008E-1,3.493669E-1,0E0,0E0,0E0,0E0,0E0,0E0,0E0,0E0,0E0,0E0,0E0],"parents":[2147483647,0,0,1,1,2,2,3,3,4,4,5,5,6,6,8,8,10,10,11,11,12,12,13,13],"right_children":[2,4,6,8,10,12,14,-1,16,-1,18,20,22,24,-1,-1,-1,-1,-1,-1,-1,-1,-1,-1,-1],"split_conditions":[-3.1379294E-1,-1.5110101E-1,1.6939236E-1,-8.814266E-1,2.5566506E-1,-1.1937785E0,6.61071E-1,-6.769677E-2,3.0774805E-1,8.94781E-2,6.0810333E-1,-1.0954099E0,1.0977465E-1,3.00654E-1,6.7394465E-2,6.261099E-2,-3.7717003E-2,-3.524885E-2,2.532473E-2,5.408557E-2,-1.980721E-2,-9.202032E-2,-2.7659193E-2,1.7498905E-2,-4.2268034E-2],"split_indices":[28,24,17,20,15,25,20,0,18,0,8,18,24,23,0,0,0,0,0,0,0,0,0,0,0],"split_type":[0,0,0,0,0,0,0,0,0,0,0,0,0,0,0,0,0,0,0,0,0,0,0,0,0],"sum_hessian":[2.4080526E1,1.180911E1,1.2271417E1,6.507859E0,5.30125E0,8.297182E0,3.974235E0,1.1995844E0,5.308275E0,3.2411475E0,2.0601027E0,2.720831E0,5.5763507E0,2.1255708E0,1.8486642E0,2.760214E0,2.548061E0,1.0280622E0,1.0320405E0,1.3538119E0,1.367019E0,3.865373E0,1.7109779E0,1.0896367E0,1.0359342E0],"tree_param":{"num_deleted":"0","num_feature":"37","num_nodes":"25","size_leaf_vector":"1"}},{"base_weights":[4.2051654E-3,-6.719556E-2,7.625333E-2,1.3004234E-1,-3.476266E-1,-5.8796294E-2,2.752505E-1,9.345402E-2,-7.478481E-1,7.204832E-2,-4.9581924E-3,-2.4736935E-2,5.73226E-2,2.7295446E-3,-9.405222E-2],"categories":[],"categories_nodes":[],"categories_segments":[],"categories_sizes":[],"default_left":[0,0,0,0,0,0,0,0,0,0,0,0,0,0,0],"id":35,"left_children":[1,3,-1,5,7,-1,9,11,13,-1,-1,-1,-1,-1,-1],"loss_changes":[1.3718904E0,1.3290465E0,0E0,1.6584454E0,1.8098549E0,0E0,1.8610458E0,1.0538688E0,8.140428E-1,0E0,0E0,0E0,0E0,0E0,0E0],"parents":[2147483647,0,0,1,1,3,3,4,4,6,6,7,7,8,8],"right_children":[2,4,-1,6,8,-1,10,12,14,-1,-1,-1,-1,-1,-1],"split_conditions":[1.7742515E0,8.354419E-2,7.625333E-2,-8.461005E-1,4.8108198E-2,-5.8796294E-2,-1.9431101E-1,7.9367355E-2,-1.0182487E0,7.204832E-2,-4.9581924E-3,-2.4736935E-2,5.73226E-2,2.7295446E-3,-9.405222E-2],"split_indices":[4,4,0,24,15,0,20,12,25,0,0,0,0,0,0],"split_type":[0,0,0,0,0,0,0,0,0,0,0,0,0,0,0],"sum_hessian":[2.3390938E1,2.2211037E1,1.1799002E0,1.3354548E1,8.856489E0,1.7335624E0,1.1620986E1,4.5778146E0,4.2786746E0,4.388229E0,7.232757E0,2.9596922E0,1.6181223E0,1.0226806E0,3.2559938E0],"tree_param":{"num_deleted":"0","num_feature":"37","num_nodes":"15","size_leaf_vector":"1"}},{"base_weights":[4.781309E-3,-3.974134E-1,1.3595925E-1,-5.846045E-1,2.644904E-2,4.5386124E-1,-1.3432579E-1,-8.5990265E-2,2.0896746E-2,7.694607E-2,1.953768E-2,3.2512686E-1,-3.7071407E-1,-3.470365E-2,5.311912E-2,-2.280835E-2,7.5843684E-2,2.425538E-2,-5.7567526E-2],"categories":[],"categories_nodes":[],"categories_segments":[],"categories_sizes":[],"default_left":[0,0,0,0,0,0,0,0,0,0,0,0,0,0,0,0,0,0,0],"id":36,"left_children":[1,3,5,7,-1,9,11,-1,-1,-1,13,15,17,-1,-1,-1,-1,-1,-1],"loss_changes":[1.3182386E0,9.1638714E-1,1.6775229E0,1.2947984E0,0E0,1.201308E0,1.3087199E0,0E0,0E0,0E0,1.0772157E0,1.1915857E0,1.1063341E0,0E0,0E0,0E0,0E0,0E0,0E0],"parents":[2147483647,0,0,1,1,2,2,3,3,5,5,6,6,10,10,11,11,12,12],"right_children":[2,4,6,8,-1,10,12,-1,-1,-1,14,16,18,-1,-1,-1,-1,-1,-1],"split_conditions":[-7.8356653E-1,5.493185E-1,-4.6977744E-2,4.5996004E-1,2.644904E-2,8.354419E-2,-1.8391354E-2,-8.5990265E-2,2.0896746E-2,7.694607E-2,-3.7129182E-1,-2.9424816E-1,-1.4671086E-1,-3.470365E-2,5.311912E-2,-2.280835E-2,7.5843684E-2,2.425538E-2,-5.7567526E-2],"split_indices":[8,17,20,12,0,4,12,0,0,0,20,24,14,0,0,0,0,0,0],"split_type":[0,0,0,0,0,0,0,0,0,0,0,0,0,0,0,0,0,0,0],"sum_hessian":[2.2961878E1,5.148101E0,1.7813776E1,4.1041903E0,1.0439107E0,7.873722E0,9.940054E0,2.9850583E0,1.1191319E0,4.1132298E0,3.760492E0,3.249268E0,6.690786E0,2.3782969E0,1.3821954E0,1.6352088E0,1.6140592E0,1.6300555E0,5.0607305E0],"tree_param":{"num_deleted":"0","num_feature":"37","num_nodes":"19","size_leaf_vector":"1"}},{"base_weights":[7.5946236E-3,-1.0520382E-1,4.4520298E-1,2.9300714E-3,-6.217427E-1,7.81835E-2,-6.5648034E-3,-3.1168476E-1,3.5442278E-1,-2.2806283E-3,-8.7458126E-2,-5.531271E-2,5.28943E-2,8.6897135E-2,7.885951E-3],"categories":[],"categories_nodes":[],"categories_segments":[],"categories_sizes":[],"default_left":[0,0,0,0,0,0,0,0,0,0,0,0,0,0,0],"id":37,"left_children":[1,3,5,7,9,-1,-1,11,13,-1,-1,-1,-1,-1,-1],"loss_changes":[1.2028334E0,1.0870038E0,9.0954316E-1,1.9971098E0,4.9006104E-1,0E0,0E0,2.2277522E0,1.1403731E0,0E0,0E0,0E0,0E0,0E0,0E0],"parents":[2147483647,0,0,1,1,2,2,3,3,4,4,7,7,8,8],"right_children":[2,4,6,8,10,-1,-1,12,14,-1,-1,-1,-1,-1,-1],"split_conditions":[3.9406222E-1,1.0155382E0,4.5485112E-1,-1.6682191E-1,3.2827225E-2,7.81835E-2,-6.5648034E-3,5.493185E-1,-7.3512816E-1,-2.2806283E-3,-8.7458126E-2,-5.531271E-2,5.28943E-2,8.6897135E-2,7.885951E-3],"split_indices":[24,8,10,8,23,0,0,17,18,0,0,0,0,0,0],"split_type":[0,0,0,0,0,0,0,0,0,0,0,0,0,0,0],"sum_hessian":[2.2418968E1,1.8428429E1,3.9905398E0,1.6060583E1,2.3678458E0,2.0856905E0,1.9048493E0,8.5346365E0,7.5259466E0,1.026477E0,1.3413689E0,6.895998E0,1.6386384E0,1.8737429E0,5.6522036E0],"tree_param":{"num_deleted":"0","num_feature":"37","num_nodes":"15","size_leaf_vector":"1"}},{"base_weights":[1.0221499E-2,-5.7224184E-2,7.092103E-2,5.1412098E-2,-4.776062E-1,-1.810622E-1,4.886661E-1,3.7522566E-2,-8.30181E-2,-3.52313E-2,3.725306E-2,-1.5866823E-2,7.312561E-2],"categories":[],"categories_nodes":[],"categories_segments":[],"categories_sizes":[],"default_left":[0,0,0,0,0,0,0,0,0,0,0,0,0],"id":38,"left_children":[1,3,-1,5,7,9,11,-1,-1,-1,-1,-1,-1],"loss_changes":[1.1251881E0,1.0250245E0,0E0,1.949818E0,1.6934346E0,1.3337984E0,1.1566294E0,0E0,0E0,0E0,0E0,0E0,0E0],"parents":[2147483647,0,0,1,1,3,3,4,4,5,5,6,6],"right_children":[2,4,-1,6,8,10,12,-1,-1,-1,-1,-1,-1],"split_conditions":[1.7742515E0,7.3115534E-1,7.092103E-2,1.1444592E-2,-9.9098957E-1,3.0238402E-1,-2.5629783E-1,3.7522566E-2,-8.30181E-2,-3.52313E-2,3.725306E-2,-1.5866823E-2,7.312561E-2],"split_indices":[4,14,0,24,5,10,8,0,0,0,0,0,0],"split_type":[0,0,0,0,0,0,0,0,0,0,0,0,0],"sum_hessian":[2.2006304E1,2.0907104E1,1.099201E0,1.7311197E1,3.5959058E0,1.1684711E1,5.626486E0,1.0329915E0,2.5629144E0,9.201781E0,2.4829304E0,1.6280608E0,3.9984252E0],"tree_param":{"num_deleted":"0","num_feature":"37","num_nodes":"13","size_leaf_vector":"1"}},{"base_weights":[1.3250348E-2,2.2571006E-1,-1.9398832E-1,4.9656376E-1,-1.2147464E-1,-4.282996E-1,2.6003855E-1,-8.12791E-2,7.904523E-1,-5.095779E-1,4.7466855E-2,-6.5224516E-1,4.2215876E-2,-1.6634582E-2,6.267046E-2,3.3150863E-2,-4.5463856E-2,8.88411E-2,2.5282899E-2,-7.314523E-2,5.8230762E-3,-7.920032E-2,-1.1895642E-2],"categories":[],"categories_nodes":[],"categories_segments":[],"categories_sizes":[],"default_left":[0,0,0,0,0,0,0,0,0,0,0,0,0,0,0,0,0,0,0,0,0,0,0],"id":39,"left_children":[1,3,5,7,9,11,13,15,17,19,-1,21,-1,-1,-1,-1,-1,-1,-1,-1,-1,-1,-1],"loss_changes":[1.0358629E0,1.1500144E0,1.38201E0,1.2030952E0,1.6027404E0,1.8477513E0,8.3716583E-1,6.3890433E-1,1.4405251E-2,5.5216956E-1,0E0,4.2214227E-1,0E0,0E0,0E0,0E0,0E0,0E0,0E0,0E0,0E0,0E0,0E0],"parents":[2147483647,0,0,1,1,2,2,3,3,4,4,5,5,6,6,7,7,8,8,9,9,11,11],"right_children":[2,4,6,8,10,12,14,16,18,20,-1,22,-1,-1,-1,-1,-1,-1,-1,-1,-1,-1,-1],"split_conditions":[-3.1379294E-1,-1.0125319E-1,1.6939236E-1,-6.812402E-2,3.3873644E-1,8.86216E-1,6.61071E-1,-3.0623135E-1,-1.8391354E-2,-7.199824E-2,4.7466855E-2,3.532064E-1,4.2215876E-2,-1.6634582E-2,6.267046E-2,3.3150863E-2,-4.5463856E-2,8.88411E-2,2.5282899E-2,-7.314523E-2,5.8230762E-3,-7.920032E-2,-1.1895642E-2],"split_indices":[28,6,17,35,6,12,20,23,12,1,0,10,0,0,0,0,0,0,0,0,0,0,0],"split_type":[0,0,0,0,0,0,0,0,0,0,0,0,0,0,0,0,0,0,0,0,0,0,0],"sum_hessian":[2.1531927E1,1.0588024E1,1.0943903E1,5.7061515E0,4.881872E0,7.255959E0,3.687944E0,2.1676192E0,3.5385325E0,3.0448272E0,1.8370452E0,5.9280353E0,1.327924E0,1.9577116E0,1.7302325E0,1.0826879E0,1.0849315E0,2.4412422E0,1.0972903E0,1.9821056E0,1.0627216E0,4.312687E0,1.615348E0],"tree_param":{"num_deleted":"0","num_feature":"37","num_nodes":"23","size_leaf_vector":"1"}},{"base_weights":[1.5635923E-2,-3.8800082E-1,1.2241553E-1,1.8909998E-2,-6.2617026E-2,2.274082E-1,-3.399912E-1,-3.019448E-1,3.3009124E-1,2.7134532E-2,-6.905878E-2,5.120263E-3,-5.0596643E-2,-8.445452E-3,5.676198E-2],"categories":[],"categories_nodes":[],"categories_segments":[],"categories_sizes":[],"default_left":[0,0,0,0,0,0,0,0,0,0,0,0,0,0,0],"id":40,"left_children":[1,3,5,-1,-1,7,9,11,13,-1,-1,-1,-1,-1,-1],"loss_changes":[9.9814105E-1,7.85594E-1,9.610363E-1,0E0,0E0,9.3856555E-1,9.9521077E-1,2.4419236E-1,1.3677669E0,0E0,0E0,0E0,0E0,0E0,0E0],"parents":[2147483647,0,0,1,1,2,2,5,5,6,6,7,7,8,8],"right_children":[2,4,6,-1,-1,8,10,12,14,-1,-1,-1,-1,-1,-1],"split_conditions":[-7.5245285E-1,-4.6580818E-1,1.0161878E0,1.8909998E-2,-6.2617026E-2,-9.426713E-1,4.8108198E-2,-1.2778996E-1,3.1020397E-1,2.7134532E-2,-6.905878E-2,5.120263E-3,-5.0596643E-2,-8.445452E-3,5.676198E-2],"split_indices":[24,6,8,0,0,23,15,6,35,0,0,0,0,0,0],"split_type":[0,0,0,0,0,0,0,0,0,0,0,0,0,0,0],"sum_hessian":[2.1056612E1,3.8540998E0,1.7202513E1,1.1861076E0,2.667992E0,1.4433495E1,2.769018E0,2.029652E0,1.2403843E1,1.0916138E0,1.6774042E0,1.0174865E0,1.0121655E0,4.7530484E0,7.650794E0],"tree_param":{"num_deleted":"0","num_feature":"37","num_nodes":"15","size_leaf_vector":"1"}},{"base_weights":[1.0334259E-2,2.2023703E-1,-1.9449948E-1,4.6865764E-1,-1.0139217E-1,4.3684673E-2,-3.4398594E-1,-1.8557938E-2,7.187118E-1,-4.680734E-1,4.514918E-2,-7.6843165E-2,-1.1258059E-1,5.895724E-3,8.932987E-2,7.215266E-3,-6.860406E-2,-3.2582175E-2,3.7689276E-2],"categories":[],"categories_nodes":[],"categories_segments":[],"categories_sizes":[],"default_left":[0,0,0,0,0,0,0,0,0,0,0,0,0,0,0,0,0,0,0],"id":41,"left_children":[1,3,5,7,9,-1,11,-1,13,15,-1,-1,17,-1,-1,-1,-1,-1,-1],"loss_changes":[9.780192E-1,9.4330895E-1,1.2393312E0,1.1973208E0,1.3685192E0,0E0,8.84846E-1,0E0,5.129354E-1,5.114235E-1,0E0,0E0,9.131287E-1,0E0,0E0,0E0,0E0,0E0,0E0],"parents":[2147483647,0,0,1,1,2,2,3,3,4,4,6,6,8,8,9,9,12,12],"right_children":[2,4,6,8,10,-1,12,-1,14,16,-1,-1,18,-1,-1,-1,-1,-1,-1],"split_conditions":[-3.1379294E-1,-1.0125319E-1,-9.175919E-1,3.6689135E-1,3.3873644E-1,4.3684673E-2,3.1020397E-1,-1.8557938E-2,-3.5519797E-1,5.0873477E-3,4.514918E-2,-7.6843165E-2,3.532064E-1,5.895724E-3,8.932987E-2,7.215266E-3,-6.860406E-2,-3.2582175E-2,3.7689276E-2],"split_indices":[28,6,5,25,6,0,35,0,14,10,0,0,10,0,0,0,0,0,0],"split_type":[0,0,0,0,0,0,0,0,0,0,0,0,0,0,0,0,0,0,0],"sum_hessian":[2.075089E1,1.02114935E1,1.0539397E1,5.5035295E0,4.7079635E0,1.6496968E0,8.889701E0,1.5931321E0,3.9103978E0,2.9228685E0,1.785095E0,2.317749E0,6.5719514E0,1.0981696E0,2.812228E0,1.0325916E0,1.8902769E0,4.810555E0,1.7613963E0],"tree_param":{"num_deleted":"0","num_feature":"37","num_nodes":"19","size_leaf_vector":"1"}},{"base_weights":[1.0955401E-2,-9.083358E-2,4.0954295E-1,-1.8348134E-1,4.1411105E-1,7.229786E-2,-9.668914E-3,4.1320328E-2,-2.7938455E-1,5.7095956E-2,4.779804E-3,-1.2048724E-2,-7.521498E-2],"categories":[],"categories_nodes":[],"categories_segments":[],"categories_sizes":[],"default_left":[0,0,0,0,0,0,0,0,0,0,0,0,0],"id":42,"left_children":[1,3,5,7,9,-1,-1,-1,11,-1,-1,-1,-1],"loss_changes":[9.039216E-1,9.103583E-1,7.882439E-1,1.0174799E0,1.492216E-1,0E0,0E0,0E0,9.743775E-1,0E0,0E0,0E0,0E0],"parents":[2147483647,0,0,1,1,2,2,3,3,4,4,8,8],"right_children":[2,4,6,8,10,-1,-1,-1,12,-1,-1,-1,-1],"split_conditions":[3.9406222E-1,1.2332089E0,6.486642E-1,-7.409952E-1,-3.391889E-1,7.229786E-2,-9.668914E-3,4.1320328E-2,-7.591464E-2,5.7095956E-2,4.779804E-3,-1.2048724E-2,-7.521498E-2],"split_indices":[24,23,23,14,24,0,0,0,31,0,0,0,0],"split_type":[0,0,0,0,0,0,0,0,0,0,0,0,0],"sum_hessian":[2.0362646E1,1.6835424E1,3.527222E0,1.4763274E1,2.0721495E0,1.9140027E0,1.6132193E0,1.5861464E0,1.3177128E1,1.0597278E0,1.0124218E0,1.0801559E1,2.3755686E0],"tree_param":{"num_deleted":"0","num_feature":"37","num_nodes":"13","size_leaf_vector":"1"}},{"base_weights":[1.3736965E-2,-3.6739743E-1,1.1412057E-1,1.3283598E-2,-6.530933E-2,-7.650975E-3,5.074825E-1,2.7801424E-1,-3.4901625E-1,1.593188E-2,6.972369E-2,4.809915E-2,-5.844597E-2,-7.2648674E-2,1.5136959E-2],"categories":[],"categories_nodes":[],"categories_segments":[],"categories_sizes":[],"default_left":[0,0,0,0,0,0,0,0,0,0,0,0,0,0,0],"id":43,"left_children":[1,3,5,-1,-1,7,9,11,13,-1,-1,-1,-1,-1,-1],"loss_changes":[8.4879506E-1,7.4895567E-1,8.4001625E-1,0E0,0E0,1.49293E0,1.6250658E-1,1.7428355E0,1.4254963E0,0E0,0E0,0E0,0E0,0E0,0E0],"parents":[2147483647,0,0,1,1,2,2,5,5,6,6,7,7,8,8],"right_children":[2,4,6,-1,-1,8,10,12,14,-1,-1,-1,-1,-1,-1],"split_conditions":[-7.5245285E-1,1.973443E-1,1.8272206E0,1.3283598E-2,-6.530933E-2,-4.2982355E-1,5.037273E-1,1.0837895E0,1.1444592E-2,1.593188E-2,6.972369E-2,4.809915E-2,-5.844597E-2,-7.2648674E-2,1.5136959E-2],"split_indices":[24,34,16,0,0,18,17,8,24,0,0,0,0,0,0],"split_type":[0,0,0,0,0,0,0,0,0,0,0,0,0,0,0],"sum_hessian":[2.0089256E1,3.6335466E0,1.645571E1,1.5153385E0,2.1182082E0,1.331453E1,3.1411786E0,7.3496737E0,5.964857E0,1.7570063E0,1.3841723E0,6.307548E0,1.0421256E0,3.142461E0,2.822396E0],"tree_param":{"num_deleted":"0","num_feature":"37","num_nodes":"15","size_leaf_vector":"1"}},{"base_weights":[1.0692787E-2,-3.3998168E-1,1.24652915E-1,1.1443543E-2,-6.0789384E-2,4.3004185E-1,-1.3644429E-1,6.54748E-1,-6.535597E-2,2.9580498E-1,-3.5094348E-1,8.625642E-2,1.0746404E-2,-4.0651795E-2,3.333152E-2,-1.7786078E-2,6.659489E-2,1.9682752E-2,-5.285378E-2],"categories":[],"categories_nodes":[],"categories_segments":[],"categories_sizes":[],"default_left":[0,0,0,0,0,0,0,0,0,0,0,0,0,0,0,0,0,0,0],"id":44,"left_children":[1,3,5,-1,-1,7,9,11,13,15,17,-1,-1,-1,-1,-1,-1,-1,-1],"loss_changes":[8.6924314E-1,7.2005093E-1,1.3621804E0,0E0,0E0,9.0836596E-1,9.913063E-1,5.2602386E-1,5.891783E-1,7.7017677E-1,7.708724E-1,0E0,0E0,0E0,0E0,0E0,0E0,0E0,0E0],"parents":[2147483647,0,0,1,1,2,2,5,5,6,6,7,7,8,8,9,9,10,10],"right_children":[2,4,6,-1,-1,8,10,12,14,16,18,-1,-1,-1,-1,-1,-1,-1,-1],"split_conditions":[-7.8356653E-1,-1.4215302E0,-4.6977744E-2,1.1443543E-2,-6.0789384E-2,5.637673E-1,-1.8391354E-2,7.8385955E-1,1.047961E0,-2.9424816E-1,-1.4671086E-1,8.625642E-2,1.0746404E-2,-4.0651795E-2,3.333152E-2,-1.7786078E-2,6.659489E-2,1.9682752E-2,-5.285378E-2],"split_indices":[8,8,20,0,0,4,12,8,4,24,14,0,0,0,0,0,0,0,0],"split_type":[0,0,0,0,0,0,0,0,0,0,0,0,0,0,0,0,0,0,0],"sum_hessian":[1.9690775E1,4.3430724E0,1.5347703E1,1.8233217E0,2.5197506E0,6.7756248E0,8.572078E0,4.440025E0,2.3356001E0,2.7172823E0,5.8547955E0,2.8005214E0,1.6395034E0,1.2479702E0,1.0876299E0,1.4198326E0,1.2974496E0,1.4069399E0,4.4478555E0],"tree_param":{"num_deleted":"0","num_feature":"37","num_nodes":"19","size_leaf_vector":"1"}},{"base_weights":[1.2694933E-2,3.8172203E-1,-8.776262E-2,-1.6239034E-2,6.81657E-2,2.9419494E-1,-2.3960404E-1,-3.4171905E-2,5.664461E-1,-7.316681E-2,-7.34517E-2,8.7361634E-2,-1.3288177E-2,-3.3894967E-2,5.4710258E-2],"categories":[],"categories_nodes":[],"categories_segments":[],"categories_sizes":[],"default_left":[0,0,0,0,0,0,0,0,0,0,0,0,0,0,0],"id":45,"left_children":[1,3,5,-1,-1,7,9,-1,11,13,-1,-1,-1,-1,-1],"loss_changes":[7.863488E-1,8.5036033E-1,1.0434276E0,0E0,0E0,1.0974292E0,9.804276E-1,0E0,9.822029E-1,1.9174137E0,0E0,0E0,0E0,0E0,0E0],"parents":[2147483647,0,0,1,1,2,2,5,5,6,6,8,8,9,9],"right_children":[2,4,6,-1,-1,8,10,-1,12,14,-1,-1,-1,-1,-1],"split_conditions":[-8.6305225E-1,-3.1691307E-1,-7.3846483E-1,-1.6239034E-2,6.81657E-2,-1.913642E-1,7.3115534E-1,-3.4171905E-2,-7.591464E-2,1.0977465E-1,-7.34517E-2,8.7361634E-2,-1.3288177E-2,-3.3894967E-2,5.4710258E-2],"split_indices":[1,17,10,0,0,12,14,0,31,24,0,0,0,0,0],"split_type":[0,0,0,0,0,0,0,0,0,0,0,0,0,0,0],"sum_hessian":[1.9307966E1,3.5323124E0,1.5775653E1,1.418177E0,2.1141353E0,4.2207727E0,1.155488E1,1.1888173E0,3.0319555E0,9.505917E0,2.048964E0,1.9334786E0,1.0984769E0,6.9719915E0,2.533925E0],"tree_param":{"num_deleted":"0","num_feature":"37","num_nodes":"15","size_leaf_vector":"1"}},{"base_weights":[1.3869239E-2,-3.3252695E-1,1.2622453E-1,-6.694137E-2,5.1136594E-3,4.134233E-1,-1.2001705E-1,5.1787972E-2,-4.0835436E-2,6.911579E-2,2.075245E-2,2.8531417E-1,-3.1951877E-1,-3.0399187E-2,4.4506907E-2,6.1040647E-2,-2.1574983E-2,-4.834887E-2,2.3912543E-2],"categories":[],"categories_nodes":[],"categories_segments":[],"categories_sizes":[],"default_left":[0,0,0,0,0,0,0,0,0,0,0,0,0,0,0,0,0,0,0],"id":46,"left_children":[1,3,5,-1,7,9,11,-1,-1,-1,13,15,17,-1,-1,-1,-1,-1,-1],"loss_changes":[8.148406E-1,5.879342E-1,1.1612998E0,0E0,9.660098E-1,8.015473E-1,8.382026E-1,0E0,0E0,0E0,7.0442545E-1,7.1410835E-1,7.259264E-1,0E0,0E0,0E0,0E0,0E0,0E0],"parents":[2147483647,0,0,1,1,2,2,4,4,5,5,6,6,10,10,11,11,12,12],"right_children":[2,4,6,-1,8,10,12,-1,-1,-1,14,16,18,-1,-1,-1,-1,-1,-1],"split_conditions":[-7.8356653E-1,-3.815005E-1,-4.6977744E-2,-6.694137E-2,-1.1701039E0,8.354419E-2,-1.8391354E-2,5.1787972E-2,-4.0835436E-2,6.911579E-2,-3.7129182E-1,3.0774805E-1,4.99636E-1,-3.0399187E-2,4.4506907E-2,6.1040647E-2,-2.1574983E-2,-4.834887E-2,2.3912543E-2],"split_indices":[8,17,20,0,10,4,12,0,0,0,20,18,1,0,0,0,0,0,0],"split_type":[0,0,0,0,0,0,0,0,0,0,0,0,0,0,0,0,0,0,0],"sum_hessian":[1.8858133E1,4.1387105E0,1.4719423E1,1.5798079E0,2.5589023E0,6.4812355E0,8.238188E0,1.0295589E0,1.5293435E0,3.350965E0,3.1302702E0,2.5754554E0,5.6627326E0,1.933822E0,1.1964482E0,1.4296634E0,1.1457919E0,4.481795E0,1.1809381E0],"tree_param":{"num_deleted":"0","num_feature":"37","num_nodes":"19","size_leaf_vector":"1"}},{"base_weights":[1.4923619E-2,-3.1877208E-1,1.21912144E-1,-5.454735E-1,1.1691055E-2,3.907474E-1,-1.0763373E-1,-6.4109385E-2,-1.630502E-2,5.6736857E-1,-1.1770685E-2,-3.163779E-1,2.569614E-1,7.505056E-2,-4.7956323E-3,1.5510785E-2,-5.0831717E-2,6.519008E-2,-2.4277065E-2],"categories":[],"categories_nodes":[],"categories_segments":[],"categories_sizes":[],"default_left":[0,0,0,0,0,0,0,0,0,0,0,0,0,0,0,0,0,0,0],"id":47,"left_children":[1,3,5,7,-1,9,11,-1,-1,13,-1,15,17,-1,-1,-1,-1,-1,-1],"loss_changes":[7.3465896E-1,5.584312E-1,9.97392E-1,2.2382021E-2,0E0,7.265054E-1,7.7651715E-1,0E0,0E0,6.6976655E-1,0E0,6.450919E-1,9.235692E-1,0E0,0E0,0E0,0E0,0E0,0E0],"parents":[2147483647,0,0,1,1,2,2,3,3,5,5,6,6,9,9,11,11,12,12],"right_children":[2,4,6,8,-1,10,12,-1,-1,14,-1,16,18,-1,-1,-1,-1,-1,-1],"split_conditions":[-7.8356653E-1,7.9367355E-2,-4.6977744E-2,2.7577168E-1,1.1691055E-2,7.3115534E-1,1.0977465E-1,-6.4109385E-2,-1.630502E-2,5.637673E-1,-1.1770685E-2,-8.6305225E-1,1.0799675E-1,7.505056E-2,-4.7956323E-3,1.5510785E-2,-5.0831717E-2,6.519008E-2,-2.4277065E-2],"split_indices":[8,12,20,17,0,14,24,0,0,4,0,1,15,0,0,0,0,0,0],"split_type":[0,0,0,0,0,0,0,0,0,0,0,0,0,0,0,0,0,0,0],"sum_hessian":[1.8489225E1,4.008202E0,1.4481023E1,2.4706407E0,1.5375614E0,6.346263E0,8.13476E0,1.4353504E0,1.0352904E0,4.6241183E0,1.7221442E0,5.257116E0,2.8776443E0,3.394219E0,1.2298995E0,1.576483E0,3.680633E0,1.4372678E0,1.4403765E0],"tree_param":{"num_deleted":"0","num_feature":"37","num_nodes":"19","size_leaf_vector":"1"}},{"base_weights":[1.3543292E-2,-3.4406108E-1,1.0968181E-1,1.3029951E-2,-6.22103E-2,2.0838952E-1,-3.1718507E-1,-2.8967628E-2,3.0725795E-1,2.1086618E-2,-6.35057E-2,-7.4375197E-3,5.225095E-2],"categories":[],"categories_nodes":[],"categories_segments":[],"categories_sizes":[],"default_left":[0,0,0,0,0,0,0,0,0,0,0,0,0],"id":48,"left_children":[1,3,5,-1,-1,7,9,-1,11,-1,-1,-1,-1],"loss_changes":[6.956685E-1,6.4773583E-1,7.3354983E-1,0E0,0E0,7.5227046E-1,6.99834E-1,0E0,1.0019251E0,0E0,0E0,0E0,0E0],"parents":[2147483647,0,0,1,1,2,2,5,5,6,6,8,8],"right_children":[2,4,6,-1,-1,8,10,-1,12,-1,-1,-1,-1],"split_conditions":[-7.5245285E-1,1.973443E-1,1.0161878E0,1.3029951E-2,-6.22103E-2,-9.426713E-1,1.0799675E-1,-2.8967628E-2,3.1020397E-1,2.1086618E-2,-6.35057E-2,-7.4375197E-3,5.225095E-2],"split_indices":[24,34,8,0,0,23,15,0,35,0,0,0,0],"split_type":[0,0,0,0,0,0,0,0,0,0,0,0,0],"sum_hessian":[1.8137283E1,3.296512E0,1.4840771E1,1.4145498E0,1.881962E0,1.2469231E1,2.3715403E0,1.7455951E0,1.0723636E1,1.0176477E0,1.3538926E0,4.103231E0,6.6204047E0],"tree_param":{"num_deleted":"0","num_feature":"37","num_nodes":"13","size_leaf_vector":"1"}},{"base_weights":[8.2471045E-3,1.9434328E-1,-1.773518E-1,4.2730674E-1,-1.0434119E-1,-4.1088483E-1,2.5655803E-1,-1.7127102E-2,6.5574676E-1,-4.268516E-1,3.858476E-2,-6.151652E-1,3.459768E-2,-1.4147562E-2,5.8092512E-2,7.991125E-3,8.040155E-2,-6.5273926E-2,1.7084795E-3,-7.387381E-2,-1.1327366E-2],"categories":[],"categories_nodes":[],"categories_segments":[],"categories_sizes":[],"default_left":[0,0,0,0,0,0,0,0,0,0,0,0,0,0,0,0,0,0,0,0,0],"id":49,"left_children":[1,3,5,7,9,11,13,-1,15,17,-1,19,-1,-1,-1,-1,-1,-1,-1,-1,-1],"loss_changes":[6.8755966E-1,7.3476464E-1,1.117711E0,9.011251E-1,9.788829E-1,1.2763892E0,6.129518E-1,0E0,3.0991185E-1,3.7026477E-1,0E0,2.745993E-1,0E0,0E0,0E0,0E0,0E0,0E0,0E0,0E0,0E0],"parents":[2147483647,0,0,1,1,2,2,3,3,4,4,5,5,6,6,8,8,9,9,11,11],"right_children":[2,4,6,8,10,12,14,-1,16,18,-1,20,-1,-1,-1,-1,-1,-1,-1,-1,-1],"split_conditions":[-3.1379294E-1,-1.0125319E-1,1.6939236E-1,3.6689135E-1,3.3873644E-1,8.86216E-1,6.61071E-1,-1.7127102E-2,-3.682967E-1,-1.5110101E-1,3.858476E-2,3.532064E-1,3.459768E-2,-1.4147562E-2,5.8092512E-2,7.991125E-3,8.040155E-2,-6.5273926E-2,1.7084795E-3,-7.387381E-2,-1.1327366E-2],"split_indices":[28,6,17,25,6,12,20,0,15,24,0,10,0,0,0,0,0,0,0,0,0],"split_type":[0,0,0,0,0,0,0,0,0,0,0,0,0,0,0,0,0,0,0,0,0],"sum_hessian":[1.7908709E1,8.918849E0,8.98986E0,4.7687564E0,4.1500926E0,5.8788753E0,3.1109838E0,1.3863593E0,3.3823972E0,2.58111E0,1.5689827E0,4.776809E0,1.1020664E0,1.6500429E0,1.460941E0,1.0077051E0,2.374692E0,1.3989433E0,1.1821667E0,3.4543824E0,1.3224267E0],"tree_param":{"num_deleted":"0","num_feature":"37","num_nodes":"21","size_leaf_vector":"1"}},{"base_weights":[9.553678E-3,4.674044E-2,-6.481303E-2,7.2792016E-2,-4.4036153E-1,5.412335E-2,-4.8661124E-2,6.3719186E-3,-6.2121797E-2,3.6484644E-2,-3.51263E-2],"categories":[],"categories_nodes":[],"categories_segments":[],"categories_sizes":[],"default_left":[0,0,0,0,0,0,0,0,0,0,0],"id":50,"left_children":[1,-1,3,5,7,-1,9,-1,-1,-1,-1],"loss_changes":[6.60669E-1,0E0,9.004996E-1,7.748807E-1,4.633463E-1,0E0,1.5503047E0,0E0,0E0,0E0,0E0],"parents":[2147483647,0,0,2,2,3,3,4,4,6,6],"right_children":[2,-1,4,6,8,-1,10,-1,-1,-1,-1],"split_conditions":[-7.409952E-1,4.674044E-2,8.0908346E-1,-8.6305225E-1,-3.6782002E-1,5.412335E-2,-4.4622543E-1,6.3719186E-3,-6.2121797E-2,3.6484644E-2,-3.51263E-2],"split_indices":[14,0,18,1,12,0,10,0,0,0,0],"split_type":[0,0,0,0,0,0,0,0,0,0,0],"sum_hessian":[1.7513845E1,1.7087178E0,1.5805127E1,1.2156884E1,3.648243E0,1.7913564E0,1.0365528E1,1.134331E0,2.513912E0,4.2931757E0,6.0723524E0],"tree_param":{"num_deleted":"0","num_feature":"37","num_nodes":"11","size_leaf_vector":"1"}},{"base_weights":[1.1150608E-2,-3.2004133E-1,1.1840444E-1,-6.2402632E-2,-6.390912E-3,3.7848338E-1,-1.0451E-1,4.4277873E-2,-3.87851E-2,5.46999E-1,-1.0760054E-2,2.6418447E-1,-2.851457E-1,7.1421795E-2,-3.2645836E-3,-1.5997728E-2,5.9963137E-2,-4.4682834E-2,2.4591334E-2],"categories":[],"categories_nodes":[],"categories_segments":[],"categories_sizes":[],"default_left":[0,0,0,0,0,0,0,0,0,0,0,0,0,0,0,0,0,0,0],"id":51,"left_children":[1,3,5,-1,7,9,11,-1,-1,13,-1,15,17,-1,-1,-1,-1,-1,-1],"loss_changes":[6.877171E-1,4.484353E-1,8.8301635E-1,0E0,7.449988E-1,6.265909E-1,6.4926183E-1,0E0,0E0,5.381061E-1,0E0,5.729785E-1,6.477994E-1,0E0,0E0,0E0,0E0,0E0,0E0],"parents":[2147483647,0,0,1,1,2,2,4,4,5,5,6,6,9,9,11,11,12,12],"right_children":[2,4,6,-1,8,10,12,-1,-1,14,-1,16,18,-1,-1,-1,-1,-1,-1],"split_conditions":[-7.8356653E-1,-3.815005E-1,-4.6977744E-2,-6.2402632E-2,-8.6653036E-1,7.3115534E-1,-1.8391354E-2,4.4277873E-2,-3.87851E-2,5.637673E-1,-1.0760054E-2,-2.9424816E-1,4.99636E-1,7.1421795E-2,-3.2645836E-3,-1.5997728E-2,5.9963137E-2,-4.4682834E-2,2.4591334E-2],"split_indices":[8,17,20,0,10,14,12,0,0,4,0,24,1,0,0,0,0,0,0],"split_type":[0,0,0,0,0,0,0,0,0,0,0,0,0,0,0,0,0,0,0],"sum_hessian":[1.7293734E1,3.7451193E0,1.35486145E1,1.3993407E0,2.3457785E0,5.930957E0,7.617658E0,1.0034583E0,1.3423202E0,4.311075E0,1.6198816E0,2.3528152E0,5.264843E0,3.1656632E0,1.1454117E0,1.2700148E0,1.0828004E0,4.157644E0,1.1071991E0],"tree_param":{"num_deleted":"0","num_feature":"37","num_nodes":"19","size_leaf_vector":"1"}},{"base_weights":[1.1680512E-2,-3.0764627E-1,1.1414294E-1,-5.1284444E-2,9.380151E-3,2.3320726E-1,-3.3851814E-1,6.2155575E-1,-6.483983E-2,1.0098608E-2,-5.8071464E-2,8.7078065E-2,-1.8243387E-2,-3.4675144E-2,6.0257472E-2],"categories":[],"categories_nodes":[],"categories_segments":[],"categories_sizes":[],"default_left":[0,0,0,0,0,0,0,0,0,0,0,0,0,0,0],"id":52,"left_children":[1,3,5,-1,-1,7,9,11,13,-1,-1,-1,-1,-1,-1],"loss_changes":[6.2289566E-1,4.2988786E-1,8.512651E-1,0E0,0E0,1.4220463E0,4.1972736E-1,1.2164488E0,1.6501215E0,0E0,0E0,0E0,0E0,0E0,0E0],"parents":[2147483647,0,0,1,1,2,2,5,5,6,6,7,7,8,8],"right_children":[2,4,6,-1,-1,8,10,12,14,-1,-1,-1,-1,-1,-1],"split_conditions":[-7.8356653E-1,7.9367355E-2,1.0161878E0,-5.1284444E-2,9.380151E-3,-4.2982355E-1,4.8108198E-2,6.362602E-1,7.1215874E-1,1.0098608E-2,-5.8071464E-2,8.7078065E-2,-1.8243387E-2,-3.4675144E-2,6.0257472E-2],"split_indices":[8,12,8,0,0,18,15,12,7,0,0,0,0,0,0],"split_type":[0,0,0,0,0,0,0,0,0,0,0,0,0,0,0],"sum_hessian":[1.6964489E1,3.6346095E0,1.3329881E1,2.2215743E0,1.413035E0,1.0937719E1,2.3921611E0,4.2780676E0,6.6596518E0,1.0570378E0,1.3351233E0,3.202321E0,1.0757464E0,5.0197835E0,1.6398684E0],"tree_param":{"num_deleted":"0","num_feature":"37","num_nodes":"15","size_leaf_vector":"1"}},{"base_weights":[1.1224943E-2,-3.2852975E-1,1.0433955E-1,-6.294508E-2,8.203835E-3,-1.1933532E-2,4.6366447E-1,2.332065E-1,-3.0754146E-1,5.8288783E-2,1.0099358E-2,-2.660497E-2,3.9299127E-2,-6.453022E-2,1.3991251E-2],"categories":[],"categories_nodes":[],"categories_segments":[],"categories_sizes":[],"default_left":[0,0,0,0,0,0,0,0,0,0,0,0,0,0,0],"id":53,"left_children":[1,3,5,-1,-1,7,9,11,13,-1,-1,-1,-1,-1,-1],"loss_changes":[5.917202E-1,5.497095E-1,6.1506057E-1,0E0,0E0,9.4110584E-1,9.643668E-2,6.731181E-1,9.7743946E-1,0E0,0E0,0E0,0E0,0E0,0E0],"parents":[2147483647,0,0,1,1,2,2,5,5,6,6,7,7,8,8],"right_children":[2,4,6,-1,-1,8,10,12,14,-1,-1,-1,-1,-1,-1],"split_conditions":[-7.5245285E-1,1.3619448E-1,1.8272206E0,-6.294508E-2,8.203835E-3,-4.2982355E-1,3.2827225E-2,-7.8356653E-1,1.1444592E-2,5.8288783E-2,1.0099358E-2,-2.660497E-2,3.9299127E-2,-6.453022E-2,1.3991251E-2],"split_indices":[24,10,16,0,0,18,23,8,24,0,0,0,0,0,0],"split_type":[0,0,0,0,0,0,0,0,0,0,0,0,0,0,0],"sum_hessian":[1.6620413E1,3.0313725E0,1.3589041E1,1.4416273E0,1.5897453E0,1.0997255E1,2.591786E0,6.1272116E0,4.8700433E0,1.4935818E0,1.0982041E0,1.3243034E0,4.8029084E0,2.5232232E0,2.34682E0],"tree_param":{"num_deleted":"0","num_feature":"37","num_nodes":"15","size_leaf_vector":"1"}},{"base_weights":[8.698143E-3,-3.1571078E-1,9.761962E-2,1.2394643E-2,-5.7893146E-2,-1.34021845E-2,4.6113256E-1,-5.248306E-2,9.109017E-2,5.8977276E-2,9.301695E-3,2.3364091E-2,-3.142876E-2],"categories":[],"categories_nodes":[],"categories_segments":[],"categories_sizes":[],"default_left":[0,0,0,0,0,0,0,0,0,0,0,0,0],"id":54,"left_children":[1,3,5,-1,-1,7,9,-1,11,-1,-1,-1,-1],"loss_changes":[5.2971214E-1,5.296658E-1,5.848179E-1,0E0,0E0,6.866862E-1,1.0532582E-1,0E0,6.963104E-1,0E0,0E0,0E0,0E0],"parents":[2147483647,0,0,1,1,2,2,5,5,6,6,8,8],"right_children":[2,4,6,-1,-1,8,10,-1,12,-1,-1,-1,-1],"split_conditions":[-7.5245285E-1,1.973443E-1,3.897495E-1,1.2394643E-2,-5.7893146E-2,-2.735771E-1,-4.3249574E-2,-5.248306E-2,6.61071E-1,5.8977276E-2,9.301695E-3,2.3364091E-2,-3.142876E-2],"split_indices":[24,34,17,0,0,35,32,0,20,0,0,0,0],"split_type":[0,0,0,0,0,0,0,0,0,0,0,0,0],"sum_hessian":[1.6294481E1,2.9568114E0,1.333767E1,1.3054445E0,1.6513668E0,1.0954996E1,2.3826737E0,1.1760849E0,9.778912E0,1.3194455E0,1.0632284E0,7.5482297E0,2.230682E0],"tree_param":{"num_deleted":"0","num_feature":"37","num_nodes":"13","size_leaf_vector":"1"}},{"base_weights":[5.619392E-3,1.7618217E-1,-1.6404071E-1,2.9755968E-1,-2.9147869E-2,-3.7978333E-1,2.3364463E-1,-2.1738369E-2,4.1328502E-1,-5.8453524E-1,3.3286933E-2,-1.3275661E-2,5.2755296E-2,5.772167E-2,-1.8869909E-3,-6.9561265E-2,-1.1698716E-2],"categories":[],"categories_nodes":[],"categories_segments":[],"categories_sizes":[],"default_left":[0,0,0,0,0,0,0,0,0,0,0,0,0,0,0,0,0],"id":55,"left_children":[1,3,5,7,-1,9,11,-1,13,15,-1,-1,-1,-1,-1,-1,-1],"loss_changes":[5.235553E-1,5.979651E-1,8.684125E-1,5.454428E-1,0E0,1.109801E0,4.8088408E-1,0E0,4.7755075E-1,1.9050753E-1,0E0,0E0,0E0,0E0,0E0,0E0,0E0],"parents":[2147483647,0,0,1,1,2,2,3,3,5,5,6,6,8,8,9,9],"right_children":[2,4,6,8,-1,10,12,-1,14,16,-1,-1,-1,-1,-1,-1,-1],"split_conditions":[-3.1379294E-1,1.0837895E0,1.6939236E-1,-9.57725E-1,-2.9147869E-2,8.86216E-1,6.61071E-1,-2.1738369E-2,3.0774805E-1,3.532064E-1,3.3286933E-2,-1.3275661E-2,5.2755296E-2,5.772167E-2,-1.8869909E-3,-6.9561265E-2,-1.1698716E-2],"split_indices":[28,8,17,8,0,12,20,0,18,10,0,0,0,0,0,0,0],"split_type":[0,0,0,0,0,0,0,0,0,0,0,0,0,0,0,0,0],"sum_hessian":[1.6093765E1,8.006363E0,8.087402E0,6.645346E0,1.361017E0,5.2722464E0,2.815156E0,1.0582047E0,5.5871415E0,4.2352066E0,1.03704E0,1.4971001E0,1.3180557E0,3.807247E0,1.7798947E0,3.028035E0,1.2071717E0],"tree_param":{"num_deleted":"0","num_feature":"37","num_nodes":"17","size_leaf_vector":"1"}},{"base_weights":[4.835588E-3,2.3803215E-1,-1.2331727E-1,-3.905901E-2,5.2245367E-1,4.1900944E-2,-2.7798378E-1,2.646813E-4,7.2322205E-2,3.4231793E-2,-4.1942748E-1,1.6174251E-2,-5.4349374E-2],"categories":[],"categories_nodes":[],"categories_segments":[],"categories_sizes":[],"default_left":[0,0,0,0,0,0,0,0,0,0,0,0,0],"id":56,"left_children":[1,3,5,-1,7,-1,9,-1,-1,-1,11,-1,-1],"loss_changes":[5.3212655E-1,1.3318615E0,1.0824285E0,0E0,4.959551E-1,0E0,9.82493E-1,0E0,0E0,0E0,6.817204E-1,0E0,0E0],"parents":[2147483647,0,0,1,1,2,2,4,4,6,6,10,10],"right_children":[2,4,6,-1,8,-1,10,-1,-1,-1,12,-1,-1],"split_conditions":[-1.0995984E-1,-5.46592E-2,2.6829496E-1,-3.905901E-2,-6.701239E-1,4.1900944E-2,-1.1116041E0,2.646813E-4,7.2322205E-2,3.4231793E-2,-8.6305225E-1,1.6174251E-2,-5.4349374E-2],"split_indices":[14,35,36,0,8,0,18,0,0,0,1,0,0],"split_type":[0,0,0,0,0,0,0,0,0,0,0,0,0],"sum_hessian":[1.5823702E1,5.307808E0,1.0515894E1,1.5371511E0,3.770657E0,1.9542712E0,8.561623E0,1.3328848E0,2.4377723E0,1.326051E0,7.2355714E0,1.2194692E0,6.0161023E0],"tree_param":{"num_deleted":"0","num_feature":"37","num_nodes":"13","size_leaf_vector":"1"}},{"base_weights":[8.778536E-3,-3.0628338E-1,9.471572E-2,-5.930088E-2,7.57337E-3,-1.8799782E-2,4.436958E-1,2.010882E-1,-2.8243122E-1,5.5279244E-2,9.952346E-3,3.4624048E-2,-2.7951334E-2,-6.9095634E-2,6.6162297E-3],"categories":[],"categories_nodes":[],"categories_segments":[],"categories_sizes":[],"default_left":[0,0,0,0,0,0,0,0,0,0,0,0,0,0,0],"id":57,"left_children":[1,3,5,-1,-1,7,9,11,13,-1,-1,-1,-1,-1,-1],"loss_changes":[4.7708857E-1,4.5925847E-1,5.536921E-1,0E0,0E0,7.145664E-1,7.337928E-2,5.6911504E-1,8.39798E-1,0E0,0E0,0E0,0E0,0E0,0E0],"parents":[2147483647,0,0,1,1,2,2,5,5,6,6,7,7,8,8],"right_children":[2,4,6,-1,-1,8,10,12,14,-1,-1,-1,-1,-1,-1],"split_conditions":[-7.5245285E-1,1.3619448E-1,1.8272206E0,-5.930088E-2,7.57337E-3,-4.2982355E-1,3.2827225E-2,1.0139405E0,-2.2066785E-1,5.5279244E-2,9.952346E-3,3.4624048E-2,-2.7951334E-2,-6.9095634E-2,6.6162297E-3],"split_indices":[24,10,16,0,0,18,23,8,24,0,0,0,0,0,0],"split_type":[0,0,0,0,0,0,0,0,0,0,0,0,0,0,0],"sum_hessian":[1.55492115E1,2.7828226E0,1.2766389E1,1.2741736E0,1.508649E0,1.03469E1,2.4194884E0,5.7708364E0,4.576064E0,1.3768888E0,1.0425997E0,4.6469297E0,1.1239065E0,1.6547257E0,2.9213383E0],"tree_param":{"num_deleted":"0","num_feature":"37","num_nodes":"15","size_leaf_vector":"1"}},{"base_weights":[5.2326517E-3,-2.8865373E-1,1.01747945E-1,-5.7213347E-2,8.5109705E-3,3.4376898E-1,-1.0979924E-1,3.4227926E-2,-3.1751253E-2,5.8175128E-2,1.305268E-2,4.546973E-2,-5.3307425E-2,-2.9155282E-2,3.9027285E-2,2.8334945E-2,-3.3507276E-2],"categories":[],"categories_nodes":[],"categories_segments":[],"categories_sizes":[],"default_left":[0,0,0,0,0,0,0,0,0,0,0,0,0,0,0,0,0],"id":58,"left_children":[1,3,5,-1,7,9,11,-1,-1,-1,13,15,-1,-1,-1,-1,-1],"loss_changes":[4.9177933E-1,3.6633614E-1,7.0391834E-1,0E0,4.4385722E-1,4.8908913E-1,5.303441E-1,0E0,0E0,0E0,5.347664E-1,6.8836343E-1,0E0,0E0,0E0,0E0,0E0],"parents":[2147483647,0,0,1,1,2,2,4,4,5,5,6,6,10,10,11,11],"right_children":[2,4,6,-1,8,10,12,-1,-1,-1,14,16,-1,-1,-1,-1,-1],"split_conditions":[-7.8356653E-1,-3.815005E-1,-4.6977744E-2,-5.7213347E-2,-1.3651599E0,8.354419E-2,6.362602E-1,3.4227926E-2,-3.1751253E-2,5.8175128E-2,-3.7129182E-1,3.0774805E-1,-5.3307425E-2,-2.9155282E-2,3.9027285E-2,2.8334945E-2,-3.3507276E-2],"split_indices":[8,17,20,0,8,4,12,0,0,0,20,18,0,0,0,0,0],"split_type":[0,0,0,0,0,0,0,0,0,0,0,0,0,0,0,0,0],"sum_hessian":[1.53023815E1,3.2909067E0,1.2011476E1,1.2106762E0,2.0802305E0,5.310716E0,6.7007594E0,1.0032684E0,1.0769621E0,2.64693E0,2.663786E0,5.5554447E0,1.1453143E0,1.5993841E0,1.0644019E0,3.5756733E0,1.9797715E0],"tree_param":{"num_deleted":"0","num_feature":"37","num_nodes":"17","size_leaf_vector":"1"}},{"base_weights":[1.9498137E-3,4.0589184E-2,-6.4601205E-2,5.1231496E-2,-3.8163182E-1,3.035873E-1,-1.4192759E-1,1.6793212E-3,-5.377362E-2,-1.5631957E-2,5.046646E-2,-3.5870906E-2,2.6188E-2],"categories":[],"categories_nodes":[],"categories_segments":[],"categories_sizes":[],"default_left":[0,0,0,0,0,0,0,0,0,0,0,0,0],"id":59,"left_children":[1,-1,3,5,7,9,11,-1,-1,-1,-1,-1,-1],"loss_changes":[4.574963E-1,0E0,5.5703205E-1,6.085905E-1,2.5998867E-1,5.734986E-1,7.2883654E-1,0E0,0E0,0E0,0E0,0E0,0E0],"parents":[2147483647,0,0,2,2,3,3,4,4,5,5,6,6],"right_children":[2,-1,4,6,8,10,12,-1,-1,-1,-1,-1,-1],"split_conditions":[-7.409952E-1,4.0589184E-2,8.0908346E-1,3.2827225E-2,-3.0396697E-1,-3.815005E-1,1.1076176E0,1.6793212E-3,-5.377362E-2,-1.5631957E-2,5.046646E-2,-3.5870906E-2,2.6188E-2],"split_indices":[14,0,18,23,12,17,23,0,0,0,0,0,0],"split_type":[0,0,0,0,0,0,0,0,0,0,0,0,0],"sum_hessian":[1.504282E1,1.4065547E0,1.3636265E1,1.0601297E1,3.034968E0,4.348471E0,6.252826E0,1.1055913E0,1.9293767E0,1.3905579E0,2.9579132E0,4.1412864E0,2.1115396E0],"tree_param":{"num_deleted":"0","num_feature":"37","num_nodes":"13","size_leaf_vector":"1"}},{"base_weights":[2.6249024E-3,-8.261654E-2,3.1898755E-1,1.1065948E-2,-4.6585653E-2,5.9872862E-2,-1.3495611E-2,-1.9173187E-1,3.8642883E-1,-3.4356203E-2,3.458252E-2,6.326648E-2,-1.2018838E-2],"categories":[],"categories_nodes":[],"categories_segments":[],"categories_sizes":[],"default_left":[0,0,0,0,0,0,0,0,0,0,0,0,0],"id":60,"left_children":[1,3,5,7,-1,-1,-1,9,11,-1,-1,-1,-1],"loss_changes":[4.5379397E-1,4.819589E-1,5.3414416E-1,9.608064E-1,0E0,0E0,0E0,7.906052E-1,6.271095E-1,0E0,0E0,0E0,0E0],"parents":[2147483647,0,0,1,1,2,2,3,3,7,7,8,8],"right_children":[2,4,6,8,-1,-1,-1,10,12,-1,-1,-1,-1],"split_conditions":[3.9406222E-1,1.0155382E0,6.4667946E-1,1.1918142E-1,-4.6585653E-2,5.9872862E-2,-1.3495611E-2,5.493185E-1,-1.0337089E-1,-3.4356203E-2,3.458252E-2,6.326648E-2,-1.2018838E-2],"split_indices":[24,8,14,8,0,0,0,17,9,0,0,0,0],"split_type":[0,0,0,0,0,0,0,0,0,0,0,0,0],"sum_hessian":[1.4850375E1,1.2280379E1,2.5699968E0,1.0648495E1,1.6318845E0,1.392763E0,1.1772338E0,7.231001E0,3.4174936E0,5.9198523E0,1.3111484E0,2.1323063E0,1.2851872E0],"tree_param":{"num_deleted":"0","num_feature":"37","num_nodes":"13","size_leaf_vector":"1"}},{"base_weights":[5.8393707E-3,-2.7302557E-1,9.657272E-2,-4.6689764E-2,9.517864E-3,4.933601E-2,-2.5907632E-2,-2.231664E-1,3.5003832E-1,1.8314954E-2,-5.740751E-2,5.5345155E-2,-1.105755E-2],"categories":[],"categories_nodes":[],"categories_segments":[],"categories_sizes":[],"default_left":[0,0,0,0,0,0,0,0,0,0,0,0,0],"id":61,"left_children":[1,3,5,-1,-1,-1,7,9,11,-1,-1,-1,-1],"loss_changes":[4.2100573E-1,3.364162E-1,6.205914E-1,0E0,0E0,0E0,8.572903E-1,1.1747414E0,4.3645442E-1,0E0,0E0,0E0,0E0],"parents":[2147483647,0,0,1,1,2,2,6,6,7,7,8,8],"right_children":[2,4,6,-1,-1,-1,8,10,12,-1,-1,-1,-1],"split_conditions":[-7.8356653E-1,7.9367355E-2,-3.1081837E-1,-4.6689764E-2,9.517864E-3,4.933601E-2,3.6195922E-1,-4.2982355E-1,6.1491314E-2,1.8314954E-2,-5.740751E-2,5.5345155E-2,-1.105755E-2],"split_indices":[8,12,12,0,0,0,1,18,28,0,0,0,0],"split_type":[0,0,0,0,0,0,0,0,0,0,0,0,0],"sum_hessian":[1.4596925E1,3.090208E0,1.1506717E1,1.8487426E0,1.2414656E0,1.9998684E0,9.506848E0,6.501762E0,3.0050864E0,3.2345543E0,3.2672079E0,1.9447199E0,1.0603664E0],"tree_param":{"num_deleted":"0","num_feature":"37","num_nodes":"13","size_leaf_vector":"1"}},{"base_weights":[6.373381E-3,-2.5160518E-1,1.0538735E-1,6.0761426E-2,-5.9824377E-2,-6.0163666E-2,3.8894665E-1,-3.6329452E-2,5.151711E-2,3.844164E-2,-2.21895E-1,5.73319E-2,-8.025876E-3,2.1900158E-2,-4.954837E-2],"categories":[],"categories_nodes":[],"categories_segments":[],"categories_sizes":[],"default_left":[0,0,0,0,0,0,0,0,0,0,0,0,0,0,0],"id":62,"left_children":[1,3,5,7,-1,9,11,-1,-1,-1,13,-1,-1,-1,-1],"loss_changes":[4.189545E-1,5.297072E-1,5.7767063E-1,8.239134E-1,0E0,6.835901E-1,4.3411875E-1,0E0,0E0,0E0,9.2095476E-1,0E0,0E0,0E0,0E0],"parents":[2147483647,0,0,1,1,2,2,3,3,5,5,6,6,10,10],"right_children":[2,4,6,8,-1,10,12,-1,-1,-1,14,-1,-1,-1,-1],"split_conditions":[-6.454269E-1,3.8901895E-1,5.291219E-1,1.3619448E-1,-5.9824377E-2,-7.617954E-1,6.61071E-1,-3.6329452E-2,5.151711E-2,3.844164E-2,-3.7515748E-1,5.73319E-2,-8.025876E-3,2.1900158E-2,-4.954837E-2],"split_indices":[24,34,35,10,0,5,20,0,0,0,9,0,0,0,0],"split_type":[0,0,0,0,0,0,0,0,0,0,0,0,0,0,0],"sum_hessian":[1.4363546E1,3.5563788E0,1.0807168E1,2.3044662E0,1.2519125E0,7.3208485E0,3.4863193E0,1.2957673E0,1.008699E0,1.5855311E0,5.7353177E0,2.3435411E0,1.1427783E0,2.272552E0,3.4627655E0],"tree_param":{"num_deleted":"0","num_feature":"37","num_nodes":"15","size_leaf_vector":"1"}},{"base_weights":[6.80403E-3,-7.58602E-2,3.1035528E-1,-1.8076317E-1,2.2243655E-1,5.9145678E-2,-1.0190121E-2,-4.2881772E-1,7.9982534E-2,3.9826035E-2,-1.1920864E-2,-6.0949247E-2,1.5924012E-2,2.6917217E-2,-2.8439129E-2],"categories":[],"categories_nodes":[],"categories_segments":[],"categories_sizes":[],"default_left":[0,0,0,0,0,0,0,0,0,0,0,0,0,0,0],"id":63,"left_children":[1,3,5,7,9,-1,-1,11,13,-1,-1,-1,-1,-1,-1],"loss_changes":[4.025271E-1,4.3681172E-1,4.5765096E-1,6.764549E-1,2.724865E-1,0E0,0E0,6.5434283E-1,4.683225E-1,0E0,0E0,0E0,0E0,0E0,0E0],"parents":[2147483647,0,0,1,1,2,2,3,3,4,4,7,7,8,8],"right_children":[2,4,6,8,10,-1,-1,12,14,-1,-1,-1,-1,-1,-1],"split_conditions":[3.9406222E-1,3.532064E-1,4.5485112E-1,-1.6682191E-1,8.354419E-2,5.9145678E-2,-1.0190121E-2,3.897495E-1,-1.601949E-1,3.9826035E-2,-1.1920864E-2,-6.0949247E-2,1.5924012E-2,2.6917217E-2,-2.8439129E-2],"split_indices":[24,10,10,8,4,0,0,17,28,0,0,0,0,0,0],"split_type":[0,0,0,0,0,0,0,0,0,0,0,0,0,0,0],"sum_hessian":[1.4103257E1,1.1674189E1,2.4290686E0,8.928345E0,2.7458436E0,1.1858217E0,1.2432468E0,4.245193E0,4.6831512E0,1.7034626E0,1.042381E0,3.219565E0,1.0256283E0,3.254585E0,1.4285663E0],"tree_param":{"num_deleted":"0","num_feature":"37","num_nodes":"15","size_leaf_vector":"1"}},{"base_weights":[8.140025E-3,-2.92802E-1,9.142394E-2,1.085239E-2,-5.314299E-2,-1.8958166E-2,4.2498633E-2,2.1535198E-1,-2.297053E-1,-2.1735018E-2,3.807589E-2,1.824639E-2,-4.8172988E-2],"categories":[],"categories_nodes":[],"categories_segments":[],"categories_sizes":[],"default_left":[0,0,0,0,0,0,0,0,0,0,0,0,0],"id":64,"left_children":[1,3,5,-1,-1,7,-1,9,11,-1,-1,-1,-1],"loss_changes":[3.9978895E-1,3.894048E-1,4.653156E-1,0E0,0E0,5.5751216E-1,0E0,4.6838653E-1,7.0081735E-1,0E0,0E0,0E0,0E0],"parents":[2147483647,0,0,1,1,2,2,5,5,7,7,8,8],"right_children":[2,4,6,-1,-1,8,-1,10,12,-1,-1,-1,-1],"split_conditions":[-7.5245285E-1,1.973443E-1,1.8272206E0,1.085239E-2,-5.314299E-2,-5.852788E-1,4.2498633E-2,-7.8356653E-1,-7.138973E-1,-2.1735018E-2,3.807589E-2,1.824639E-2,-4.8172988E-2],"split_indices":[24,34,16,0,0,18,0,8,25,0,0,0,0],"split_type":[0,0,0,0,0,0,0,0,0,0,0,0,0],"sum_hessian":[1.3882913E1,2.4639285E0,1.1418984E1,1.1220591E0,1.3418692E0,9.288431E0,2.130553E0,4.3879867E0,4.9004445E0,1.1266506E0,3.261336E0,1.9641753E0,2.9362693E0],"tree_param":{"num_deleted":"0","num_feature":"37","num_nodes":"13","size_leaf_vector":"1"}},{"base_weights":[6.4477227E-3,-2.3864658E-1,9.992179E-2,5.6119297E-2,-5.6914736E-2,-5.639478E-2,3.6792967E-1,-3.3350304E-2,4.518229E-2,3.46227E-2,-2.2388339E-1,5.381456E-2,-6.937193E-3,6.361379E-3,-5.672046E-2],"categories":[],"categories_nodes":[],"categories_segments":[],"categories_sizes":[],"default_left":[0,0,0,0,0,0,0,0,0,0,0,0,0,0,0],"id":65,"left_children":[1,3,5,7,-1,9,11,-1,-1,-1,13,-1,-1,-1,-1],"loss_changes":[3.5982922E-1,4.551379E-1,4.9504617E-1,6.4503103E-1,0E0,6.1818945E-1,3.5767096E-1,0E0,0E0,0E0,6.549146E-1,0E0,0E0,0E0,0E0],"parents":[2147483647,0,0,1,1,2,2,3,3,5,5,6,6,10,10],"right_children":[2,4,6,8,-1,10,12,-1,-1,-1,14,-1,-1,-1,-1],"split_conditions":[-6.454269E-1,3.8901895E-1,5.291219E-1,-2.531584E-1,-5.6914736E-2,-1.1416591E0,6.61071E-1,-3.3350304E-2,4.518229E-2,3.46227E-2,-3.1379294E-1,5.381456E-2,-6.937193E-3,6.361379E-3,-5.672046E-2],"split_indices":[24,34,35,10,0,26,20,0,0,0,28,0,0,0,0],"split_type":[0,0,0,0,0,0,0,0,0,0,0,0,0,0,0],"sum_hessian":[1.3665376E1,3.3440387E0,1.0321337E1,2.2064009E0,1.1376379E0,7.0177727E0,3.303564E0,1.1909467E0,1.015454E0,1.7481854E0,5.2695875E0,2.2119687E0,1.0915953E0,3.311363E0,1.9582245E0],"tree_param":{"num_deleted":"0","num_feature":"37","num_nodes":"15","size_leaf_vector":"1"}},{"base_weights":[4.817045E-3,-7.413681E-2,2.9506615E-1,2.0662561E-2,-4.4180032E-2,5.5998784E-2,-1.2741531E-2,-1.6330302E-1,3.4690946E-1,-3.0900935E-2,3.2539107E-2,5.703423E-2,-1.6334262E-2],"categories":[],"categories_nodes":[],"categories_segments":[],"categories_sizes":[],"default_left":[0,0,0,0,0,0,0,0,0,0,0,0,0],"id":66,"left_children":[1,3,5,7,-1,-1,-1,9,11,-1,-1,-1,-1],"loss_changes":[3.5250244E-1,4.3231082E-1,4.3915042E-1,6.9332045E-1,0E0,0E0,0E0,6.319578E-1,5.6571317E-1,0E0,0E0,0E0,0E0],"parents":[2147483647,0,0,1,1,2,2,3,3,7,7,8,8],"right_children":[2,4,6,8,-1,-1,-1,10,12,-1,-1,-1,-1],"split_conditions":[3.9406222E-1,1.0155382E0,6.4667946E-1,1.1918142E-1,-4.4180032E-2,5.5998784E-2,-1.2741531E-2,5.493185E-1,4.2070806E-1,-3.0900935E-2,3.2539107E-2,5.703423E-2,-1.6334262E-2],"split_indices":[24,8,14,8,0,0,0,17,36,0,0,0,0],"split_type":[0,0,0,0,0,0,0,0,0,0,0,0,0],"sum_hessian":[1.34276085E1,1.114147E1,2.2861385E0,9.607934E0,1.5335356E0,1.2050349E0,1.0811037E0,6.462999E0,3.1449354E0,5.261841E0,1.2011578E0,2.10529E0,1.0396454E0],"tree_param":{"num_deleted":"0","num_feature":"37","num_nodes":"13","size_leaf_vector":"1"}},{"base_weights":[7.4350946E-3,2.8394383E-1,-7.364496E-2,-1.11078685E-2,5.38566E-2,2.78903E-1,-2.1824005E-1,4.6889175E-2,-6.413118E-3,6.07198E-2,-4.2074084E-1,-2.7145276E-2,5.745841E-2,-6.2133246E-3,-5.8514353E-2],"categories":[],"categories_nodes":[],"categories_segments":[],"categories_sizes":[],"default_left":[0,0,0,0,0,0,0,0,0,0,0,0,0,0,0],"id":67,"left_children":[1,3,5,-1,-1,7,9,-1,-1,11,13,-1,-1,-1,-1],"loss_changes":[3.3979988E-1,4.0492576E-1,6.620235E-1,0E0,0E0,2.822193E-1,5.296502E-1,0E0,0E0,9.457989E-1,2.759099E-1,0E0,0E0,0E0,0E0],"parents":[2147483647,0,0,1,1,2,2,5,5,6,6,9,9,10,10],"right_children":[2,4,6,-1,-1,8,10,-1,-1,12,14,-1,-1,-1,-1],"split_conditions":[-8.6305225E-1,-2.1678385E-1,-7.3846483E-1,-1.11078685E-2,5.38566E-2,3.4863394E-1,3.2827225E-2,4.6889175E-2,-6.413118E-3,2.4921792E-2,-3.1435725E-1,-2.7145276E-2,5.745841E-2,-6.2133246E-3,-5.8514353E-2],"split_indices":[1,7,10,0,0,36,23,0,0,24,20,0,0,0,0],"split_type":[0,0,0,0,0,0,0,0,0,0,0,0,0,0,0],"sum_hessian":[1.3223827E1,2.4310741E0,1.0792753E1,1.1737938E0,1.2572803E0,2.868935E0,7.923818E0,1.6102221E0,1.258713E0,3.6272135E0,4.2966046E0,2.4896162E0,1.1375974E0,1.7837298E0,2.5128748E0],"tree_param":{"num_deleted":"0","num_feature":"37","num_nodes":"15","size_leaf_vector":"1"}},{"base_weights":[1.0362495E-2,1.5696351E-1,-1.4085922E-1,2.8521943E-1,-2.7621433E-2,3.4566775E-2,-2.80285E-1,-3.0706434E-2,5.8826983E-2,-4.3751067E-1,9.757231E-3,3.5868213E-2,-2.8040994E-2,1.6344077E-3,-5.8477946E-2],"categories":[],"categories_nodes":[],"categories_segments":[],"categories_sizes":[],"default_left":[0,0,0,0,0,0,0,0,0,0,0,0,0,0,0],"id":68,"left_children":[1,3,5,7,-1,-1,9,11,-1,13,-1,-1,-1,-1,-1],"loss_changes":[3.328146E-1,5.0042224E-1,6.0061544E-1,6.257839E-1,0E0,0E0,4.1839364E-1,4.951568E-1,0E0,3.202355E-1,0E0,0E0,0E0,0E0,0E0],"parents":[2147483647,0,0,1,1,2,2,3,3,6,6,7,7,9,9],"right_children":[2,4,6,8,-1,-1,10,12,-1,14,-1,-1,-1,-1,-1],"split_conditions":[-3.1379294E-1,3.4795764E-1,-9.175919E-1,-1.5110101E-1,-2.7621433E-2,3.4566775E-2,1.6939236E-1,-3.1081837E-1,5.8826983E-2,-1.1937785E0,9.757231E-3,3.5868213E-2,-2.8040994E-2,1.6344077E-3,-5.8477946E-2],"split_indices":[28,17,5,24,0,0,17,12,0,25,0,0,0,0,0],"split_type":[0,0,0,0,0,0,0,0,0,0,0,0,0,0,0],"sum_hessian":[1.3015122E1,6.5892463E0,6.425876E0,5.3475122E0,1.2417341E0,1.101826E0,5.3240504E0,3.0581298E0,2.2893825E0,3.648178E0,1.6758722E0,1.0243392E0,2.0337906E0,1.1115642E0,2.536614E0],"tree_param":{"num_deleted":"0","num_feature":"37","num_nodes":"15","size_leaf_vector":"1"}},{"base_weights":[1.13767665E-2,2.1116455E-1,-9.863505E-2,-3.345727E-2,4.645424E-1,3.844772E-2,-2.4398711E-1,8.913565E-5,6.413883E-2,3.2322254E-2,-3.8329098E-1,1.3061821E-2,-4.9410205E-2],"categories":[],"categories_nodes":[],"categories_segments":[],"categories_sizes":[],"default_left":[0,0,0,0,0,0,0,0,0,0,0,0,0],"id":69,"left_children":[1,3,5,-1,7,-1,9,-1,-1,-1,11,-1,-1],"loss_changes":[3.241747E-1,8.771545E-1,7.6668304E-1,0E0,3.2602763E-1,0E0,7.5424933E-1,0E0,0E0,0E0,4.5532477E-1,0E0,0E0],"parents":[2147483647,0,0,1,1,2,2,4,4,6,6,10,10],"right_children":[2,4,6,-1,8,-1,10,-1,-1,-1,12,-1,-1],"split_conditions":[-1.0995984E-1,-5.46592E-2,2.6829496E-1,-3.345727E-2,-6.701239E-1,3.844772E-2,-1.1116041E0,8.913565E-5,6.413883E-2,3.2322254E-2,-8.6305225E-1,1.3061821E-2,-4.9410205E-2],"split_indices":[14,35,36,0,8,0,18,0,0,0,1,0,0],"split_type":[0,0,0,0,0,0,0,0,0,0,0,0,0],"sum_hessian":[1.2801639E1,4.2194333E0,8.582206E0,1.2362626E0,2.9831707E0,1.6044128E0,6.9777927E0,1.1011744E0,1.8819964E0,1.1154985E0,5.862294E0,1.0081313E0,4.8541627E0],"tree_param":{"num_deleted":"0","num_feature":"37","num_nodes":"13","size_leaf_vector":"1"}},{"base_weights":[1.5227984E-2,-2.2336724E-1,1.0636901E-1,5.1643405E-2,-5.328224E-2,-4.629068E-2,3.596855E-1,2.0624079E-2,-1.2362526E-2,3.550993E-2,-1.9799583E-1,5.5357117E-2,9.305941E-3,2.1474602E-2,-4.535569E-2],"categories":[],"categories_nodes":[],"categories_segments":[],"categories_sizes":[],"default_left":[0,0,0,0,0,0,0,0,0,0,0,0,0,0,0],"id":70,"left_children":[1,3,5,7,-1,9,11,-1,-1,-1,13,-1,-1,-1,-1],"loss_changes":[3.193471E-1,3.7471622E-1,4.2320544E-1,1.08728215E-1,0E0,5.237071E-1,1.5874326E-1,0E0,0E0,0E0,7.350925E-1,0E0,0E0,0E0,0E0],"parents":[2147483647,0,0,1,1,2,2,3,3,5,5,6,6,10,10],"right_children":[2,4,6,8,-1,10,12,-1,-1,-1,14,-1,-1,-1,-1],"split_conditions":[-6.454269E-1,3.8901895E-1,5.291219E-1,3.2167047E-1,-5.328224E-2,-7.617954E-1,-4.2982355E-1,2.0624079E-2,-1.2362526E-2,3.550993E-2,-3.7515748E-1,5.5357117E-2,9.305941E-3,2.1474602E-2,-4.535569E-2],"split_indices":[24,34,35,4,0,5,18,0,0,0,9,0,0,0,0],"split_type":[0,0,0,0,0,0,0,0,0,0,0,0,0,0,0],"sum_hessian":[1.2592859E1,3.0797338E0,9.513125E0,2.071723E0,1.0080109E0,6.4458394E0,3.0672853E0,1.0068814E0,1.0648415E0,1.4002527E0,5.045587E0,1.1527901E0,1.9144953E0,1.9905206E0,3.0550663E0],"tree_param":{"num_deleted":"0","num_feature":"37","num_nodes":"15","size_leaf_vector":"1"}},{"base_weights":[1.6161345E-2,-6.0429562E-2,2.9336917E-1,-1.6334246E-1,2.2532369E-1,5.2932788E-2,-9.691763E-3,-3.9020962E-1,7.427616E-2,3.9278854E-2,-5.909623E-3,9.450173E-3,-5.7837974E-2,2.4801899E-2,-2.5584936E-2],"categories":[],"categories_nodes":[],"categories_segments":[],"categories_sizes":[],"default_left":[0,0,0,0,0,0,0,0,0,0,0,0,0,0,0],"id":71,"left_children":[1,3,5,7,9,-1,-1,11,13,-1,-1,-1,-1,-1,-1],"loss_changes":[3.027217E-1,3.7047732E-1,3.34635E-1,5.0993866E-1,1.8632846E-1,0E0,0E0,4.8553175E-1,3.6158168E-1,0E0,0E0,0E0,0E0,0E0,0E0],"parents":[2147483647,0,0,1,1,2,2,3,3,4,4,7,7,8,8],"right_children":[2,4,6,8,10,-1,-1,12,14,-1,-1,-1,-1,-1,-1],"split_conditions":[3.9406222E-1,3.532064E-1,6.4667946E-1,-1.6682191E-1,4.8108198E-2,5.2932788E-2,-9.691763E-3,-1.4215302E0,-1.601949E-1,3.9278854E-2,-5.909623E-3,9.450173E-3,-5.7837974E-2,2.4801899E-2,-2.5584936E-2],"split_indices":[24,10,14,8,15,0,0,8,28,0,0,0,0,0,0],"split_type":[0,0,0,0,0,0,0,0,0,0,0,0,0,0,0],"sum_hessian":[1.2423084E1,1.0346432E1,2.0766525E0,7.921805E0,2.424627E0,1.0721817E0,1.004471E0,