{"learner":{"attributes":{},"feature_names":[],"feature_types":[],"gradient_booster":{"model":{"gbtree_model_param":{"num_parallel_tree":"1","num_trees":"75"},"iteration_indptr":[0,1,2,3,4,5,6,7,8,9,10,11,12,13,14,15,16,17,18,19,20,21,22,23,24,25,26,27,28,29,30,31,32,33,34,35,36,37,38,39,40,41,42,43,44,45,46,47,48,49,50,51,52,53,54,55,56,57,58,59,60,61,62,63,64,65,66,67,68,69,70,71,72,73,74,75],"tree_info":[0,0,0,0,0,0,0,0,0,0,0,0,0,0,0,0,0,0,0,0,0,0,0,0,0,0,0,0,0,0,0,0,0,0,0,0,0,0,0,0,0,0,0,0,0,0,0,0,0,0,0,0,0,0,0,0,0,0,0,0,0,0,0,0,0,0,0,0,0,0,0,0,0,0,0],"trees":[{"base_weights":[-0E0,-1.0545454E0,3.8410595E-1,-2.6666668E-1,-1.3793104E0,-1.1578947E0,5.882353E-1,-1E0,6.666667E-1,-0E0,-1.1733334E0,-7.2727275E-1,8.135593E-1,8.615385E-1,-1.7777778E-1,3.2000002E-1,-1E0,7.3513514E-1,-4.3636367E-1],"categories":[],"categories_nodes":[],"categories_segments":[],"categories_sizes":[],"default_left":[0,0,0,0,0,0,0,0,0,0,0,0,0,0,0,0,0,0,0],"id":0,"left_children":[1,3,5,7,-1,9,11,-1,13,-1,-1,15,17,-1,-1,-1,-1,-1,-1],"loss_changes":[2.0860445E1,6.7941475E0,1.2563591E1,7.7166667E0,0E0,1.6982455E0,1.0669807E1,0E0,1.880342E0,0E0,0E0,3.740909E0,4.725191E0,0E0,0E0,0E0,0E0,0E0,0E0],"parents":[2147483647,0,0,1,1,2,2,3,3,5,5,6,6,8,8,11,11,12,12],"right_children":[2,4,6,8,-1,10,12,-1,14,-1,-1,16,18,-1,-1,-1,-1,-1,-1],"split_conditions":[-6.711942E-1,-8.445215E-2,-5.06764E-1,-7.837441E-1,-1.3793104E0,-2.85849E-1,-7.1379817E-1,-1E0,6.550618E-2,-0E0,-1.1733334E0,2.5538847E-1,8.434078E-1,8.615385E-1,-1.7777778E-1,3.2000002E-1,-1E0,7.3513514E-1,-4.3636367E-1],"split_indices":[8,21,16,21,0,5,10,0,5,0,0,21,22,0,0,0,0,0,0],"split_type":[0,0,0,0,0,0,0,0,0,0,0,0,0,0,0,0,0,0,0],"sum_hessian":[4.95E1,1.275E1,3.675E1,6.5E0,6.25E0,3.75E0,3.3E1,3E0,3.5E0,1E0,2.75E0,4.5E0,2.85E1,2.25E0,1.25E0,1.5E0,3E0,2.675E1,1.75E0],"tree_param":{"num_deleted":"0","num_feature":"34","num_nodes":"19","size_leaf_vector":"1"}},{"base_weights":[-9.986954E-2,-3.4296137E-1,5.1727283E-1,-4.2913562E-1,8.198353E-1,-4.146236E-1,1.052566E0,-1.0499301E0,-2.3775586E-1,2.658059E-1,-7.5951105E-1,1.0666329E0,-3.5538724E-1,7.32356E-2,-1.086027E0,7.5011796E-1,-3.0773222E-1],"categories":[],"categories_nodes":[],"categories_segments":[],"categories_sizes":[],"default_left":[0,0,0,0,0,0,0,0,0,0,0,0,0,0,0,0,0],"id":1,"left_children":[1,3,5,7,-1,9,11,13,15,-1,-1,-1,-1,-1,-1,-1,-1],"loss_changes":[6.539744E0,4.096696E0,6.6135483E0,3.3017879E0,0E0,2.4064367E0,4.0159016E0,2.4947038E0,4.5293236E0,0E0,0E0,0E0,0E0,0E0,0E0,0E0,0E0],"parents":[2147483647,0,0,1,1,2,2,3,3,5,5,6,6,7,7,8,8],"right_children":[2,4,6,8,-1,10,12,14,16,-1,-1,-1,-1,-1,-1,-1,-1],"split_conditions":[4.7853988E-1,3.528084E0,3.583261E-2,-7.837441E-1,8.198353E-1,-1.4412966E-2,9.7734326E-1,-5.289974E-1,-9.4068164E-1,2.658059E-1,-7.5951105E-1,1.0666329E0,-3.5538724E-1,7.32356E-2,-1.086027E0,7.5011796E-1,-3.0773222E-1],"split_indices":[10,6,7,21,0,15,1,15,9,0,0,0,0,0,0,0,0],"split_type":[0,0,0,0,0,0,0,0,0,0,0,0,0,0,0,0,0],"sum_hessian":[4.14093E1,3.0026258E1,1.1383042E1,2.889218E1,1.1340785E0,4.235264E0,7.147778E0,5.751018E0,2.3141163E1,1.9251645E0,2.3100996E0,6.1109147E0,1.0368636E0,1.3699007E0,4.3811173E0,1.9729952E0,2.1168167E1],"tree_param":{"num_deleted":"0","num_feature":"34","num_nodes":"17","size_leaf_vector":"1"}},{"base_weights":[1.755773E-2,1.9734502E-1,-6.1125785E-1,-3.1980065E-1,4.0829948E-1,-9.509432E-1,7.246676E-1,-7.3793954E-1,3.4132993E-1,-5.8381814E-1,5.110818E-1,-1.2084068E0,-1.2476327E-3,2.5697008E-1,-8.544554E-1,-2.8486612E-1,6.295301E-1,2.55959E-1,8.65057E-1,-3.109103E-1,-1.0675005E0],"categories":[],"categories_nodes":[],"categories_segments":[],"categories_sizes":[],"default_left":[0,0,0,0,0,0,0,0,0,0,0,0,0,0,0,0,0,0,0,0,0],"id":2,"left_children":[1,3,5,7,9,11,-1,13,15,-1,17,19,-1,-1,-1,-1,-1,-1,-1,-1,-1],"loss_changes":[4.388174E0,3.4155164E0,5.3123894E0,2.818649E0,2.9260564E0,1.8423176E0,0E0,2.4424057E0,1.6105418E0,0E0,1.8999515E0,9.4184875E-2,0E0,0E0,0E0,0E0,0E0,0E0,0E0,0E0,0E0],"parents":[2147483647,0,0,1,1,2,2,3,3,4,4,5,5,7,7,8,8,10,10,11,11],"right_children":[2,4,6,8,10,12,-1,14,16,-1,18,20,-1,-1,-1,-1,-1,-1,-1,-1,-1],"split_conditions":[8.654844E-2,1.5994649E-1,1.5457577E0,5.5742073E-1,-1.5929575E0,1.7828412E0,7.246676E-1,-6.106075E-1,-2.8455648E-1,-5.8381814E-1,8.391756E-1,-1.14304E0,-1.2476327E-3,2.5697008E-1,-8.544554E-1,-2.8486612E-1,6.295301E-1,2.55959E-1,8.65057E-1,-3.109103E-1,-1.0675005E0],"split_indices":[25,31,18,4,8,25,0,4,10,0,1,10,0,0,0,0,0,0,0,0,0],"split_type":[0,0,0,0,0,0,0,0,0,0,0,0,0,0,0,0,0,0,0,0,0],"sum_hessian":[3.6748165E1,2.9111063E1,7.6371017E0,8.284935E0,2.0826128E1,6.5448537E0,1.0922482E0,5.003954E0,3.2809806E0,1.2197788E0,1.960635E1,4.9339747E0,1.6108787E0,1.1954889E0,3.8084652E0,1.357353E0,1.9236277E0,1.585361E1,3.75274E0,1.2013197E0,3.732655E0],"tree_param":{"num_deleted":"0","num_feature":"34","num_nodes":"21","size_leaf_vector":"1"}},{"base_weights":[-1.5824566E-2,-2.539118E-1,3.5346675E-1,4.9702253E-2,-6.0188323E-1,-4.6008664E-1,5.765654E-1,4.694663E-1,-6.230717E-1,8.8721104E-2,-7.66323E-1,-7.035629E-1,1.8048799E-1,9.4008607E-1,-1.1511886E-1,7.269598E-1,-5.842036E-2,-7.397564E-1,2.3519723E-1,2.3690036E-2,-8.39539E-1,1.964224E-1,8.864338E-1,4.7292247E-1,-4.527587E-1],"categories":[],"categories_nodes":[],"categories_segments":[],"categories_sizes":[],"default_left":[0,0,0,0,0,0,0,0,0,0,0,0,0,0,0,0,0,0,0,0,0,0,0,0,0],"id":3,"left_children":[1,3,5,7,9,11,13,15,17,-1,19,-1,-1,21,23,-1,-1,-1,-1,-1,-1,-1,-1,-1,-1],"loss_changes":[3.0709102E0,2.2693853E0,2.753494E0,3.7502568E0,1.2516251E0,1.2067399E0,2.9249985E0,1.9988005E0,1.6919484E0,0E0,1.8819389E0,0E0,0E0,5.972967E-1,1.847064E0,0E0,0E0,0E0,0E0,0E0,0E0,0E0,0E0,0E0,0E0],"parents":[2147483647,0,0,1,1,2,2,3,3,4,4,5,5,6,6,7,7,8,8,10,10,13,13,14,14],"right_children":[2,4,6,8,10,12,14,16,18,-1,20,-1,-1,22,24,-1,-1,-1,-1,-1,-1,-1,-1,-1,-1],"split_conditions":[2.1554528E-1,-2.8434017E-1,-1.8916944E-1,-1.4412966E-2,-6.081891E-1,-2.0118428E-2,3.350388E-2,-2.3758292E-1,-4.578673E-1,8.8721104E-2,2.7120915E-1,-7.035629E-1,1.8048799E-1,-4.221618E-2,-1.4412966E-2,7.269598E-1,-5.842036E-2,-7.397564E-1,2.3519723E-1,2.3690036E-2,-8.39539E-1,1.964224E-1,8.864338E-1,4.7292247E-1,-4.527587E-1],"split_indices":[8,8,10,15,18,12,6,6,8,0,31,0,0,32,15,0,0,0,0,0,0,0,0,0,0],"split_type":[0,0,0,0,0,0,0,0,0,0,0,0,0,0,0,0,0,0,0,0,0,0,0,0,0],"sum_hessian":[3.290629E1,2.0197266E1,1.27090225E1,1.1243868E1,8.953399E0,2.5065088E0,1.0202514E1,7.109948E0,4.1339192E0,1.7393873E0,7.214011E0,1.3799636E0,1.1265452E0,6.4523163E0,3.7501972E0,3.5558631E0,3.5540853E0,3.1045241E0,1.0293952E0,2.1276207E0,5.0863905E0,1.7358446E0,4.7164717E0,1.339879E0,2.4103181E0],"tree_param":{"num_deleted":"0","num_feature":"34","num_nodes":"25","size_leaf_vector":"1"}},{"base_weights":[2.114766E-3,-2.7891836E-1,1.8272634E-1,-5.6445104E-1,5.6122255E-1,4.9318606E-1,-2.1093938E-1,1.3411507E-1,-7.43789E-1,9.33804E-1,-1.8255618E-1,5.922312E-1,-4.69591E-1,1.0292051E-1,-7.239104E-1,9.1597766E-1,7.429064E-2,1.8830913E-1,-4.632361E-1,-5.46024E-1,3.069698E-1],"categories":[],"categories_nodes":[],"categories_segments":[],"categories_sizes":[],"default_left":[0,0,0,0,0,0,0,0,0,0,0,0,0,0,0,0,0,0,0,0,0],"id":4,"left_children":[1,3,5,7,-1,9,11,-1,13,15,17,-1,19,-1,-1,-1,-1,-1,-1,-1,-1],"loss_changes":[1.5097326E0,3.654537E0,2.316158E0,1.3809853E0,0E0,3.272659E0,2.4834683E0,0E0,1.2225108E0,1.0426545E0,9.563549E-1,0E0,1.6132075E0,0E0,0E0,0E0,0E0,0E0,0E0,0E0,0E0],"parents":[2147483647,0,0,1,1,2,2,3,3,5,5,6,6,8,8,9,9,10,10,12,12],"right_children":[2,4,6,8,-1,10,12,-1,14,16,18,-1,20,-1,-1,-1,-1,-1,-1,-1,-1],"split_conditions":[-9.146788E-2,9.247803E-1,1.3913601E-2,-6.081891E-1,5.6122255E-1,-2.577935E-2,-2.7914947E-2,1.3411507E-1,-3.2400933E-1,5.616493E-1,2.7440418E-2,5.922312E-1,1.0031687E0,1.0292051E-1,-7.239104E-1,9.1597766E-1,7.429064E-2,1.8830913E-1,-4.632361E-1,-5.46024E-1,3.069698E-1],"split_indices":[14,18,4,18,0,25,14,0,25,15,1,0,10,0,0,0,0,0,0,0,0],"split_type":[0,0,0,0,0,0,0,0,0,0,0,0,0,0,0,0,0,0,0,0,0],"sum_hessian":[2.7739738E1,1.0639808E1,1.709993E1,8.568669E0,2.0711377E0,9.418969E0,7.6809607E0,1.6988437E0,6.869826E0,5.470218E0,3.9487514E0,1.2439708E0,6.43699E0,1.1022036E0,5.7676225E0,4.0833206E0,1.3868977E0,2.1201766E0,1.8285748E0,5.3116236E0,1.1253661E0],"tree_param":{"num_deleted":"0","num_feature":"34","num_nodes":"21","size_leaf_vector":"1"}},{"base_weights":[5.8342822E-2,1.5499532E-1,-4.5178398E-1,-4.0113717E-1,2.5526816E-1,8.4333785E-2,-5.408752E-1,-5.9041303E-1,1.5683964E-1,3.598672E-1,-3.5042813E-1,1.4784692E-1,7.0521986E-1,-5.428215E-1,1.1968064E-1],"categories":[],"categories_nodes":[],"categories_segments":[],"categories_sizes":[],"default_left":[0,0,0,0,0,0,0,0,0,0,0,0,0,0,0],"id":5,"left_children":[1,3,5,7,9,-1,-1,-1,-1,11,13,-1,-1,-1,-1],"loss_changes":[1.317228E0,1.3298372E0,6.068023E-1,8.993715E-1,1.3463073E0,0E0,0E0,0E0,0E0,1.3819396E0,6.4993167E-1,0E0,0E0,0E0,0E0],"parents":[2147483647,0,0,1,1,2,2,3,3,4,4,9,9,10,10],"right_children":[2,4,6,8,10,-1,-1,-1,-1,12,14,-1,-1,-1,-1],"split_conditions":[6.4204884E-1,-9.966644E-2,-4.7878262E-1,-1.7801613E-1,1.2757939E0,8.4333785E-2,-5.408752E-1,-5.9041303E-1,1.5683964E-1,6.469934E-1,1.6759396E0,1.4784692E-1,7.0521986E-1,-5.428215E-1,1.1968064E-1],"split_indices":[5,31,18,16,4,0,0,0,0,4,4,0,0,0,0],"split_type":[0,0,0,0,0,0,0,0,0,0,0,0,0,0,0],"sum_hessian":[2.4295666E1,2.1010939E1,3.2847288E0,2.7512908E0,1.8259647E1,1.0949175E0,2.1898112E0,1.6082429E0,1.1430479E0,1.5916801E1,2.3428454E0,1.2931503E1,2.9852986E0,1.1990814E0,1.1437639E0],"tree_param":{"num_deleted":"0","num_feature":"34","num_nodes":"15","size_leaf_vector":"1"}},{"base_weights":[-6.970286E-3,8.908506E-2,-3.3159912E-1,5.798139E-1,-5.007324E-2,-5.9349626E-1,1.6597836E-1,-5.9348595E-1,1.12947695E-1,-7.2591975E-2,-6.138768E-1,-7.552353E-1,-4.5215745E-2,5.846868E-1,-1.7722446E-2],"categories":[],"categories_nodes":[],"categories_segments":[],"categories_sizes":[],"default_left":[0,0,0,0,0,0,0,0,0,0,0,0,0,0,0],"id":6,"left_children":[1,3,5,-1,7,9,-1,11,13,-1,-1,-1,-1,-1,-1],"loss_changes":[7.6570934E-1,1.7175884E0,9.140789E-1,0E0,1.5312216E0,2.8256834E-1,0E0,6.947036E-1,1.1476915E0,0E0,0E0,0E0,0E0,0E0,0E0],"parents":[2147483647,0,0,1,1,2,2,4,4,5,5,7,7,8,8],"right_children":[2,4,6,-1,8,10,-1,12,14,-1,-1,-1,-1,-1,-1],"split_conditions":[1.2954114E-1,-4.0326756E-1,-9.378239E-2,5.798139E-1,-2.2166498E-2,-8.5687876E-1,1.6597836E-1,-1.7307931E-1,-4.2608055E-1,-7.2591975E-2,-6.138768E-1,-7.552353E-1,-4.5215745E-2,5.846868E-1,-1.7722446E-2],"split_indices":[29,12,10,0,12,10,0,18,15,0,0,0,0,0,0],"split_type":[0,0,0,0,0,0,0,0,0,0,0,0,0,0,0],"sum_hessian":[2.2608522E1,1.8006197E1,4.602326E0,2.4780614E0,1.5528135E1,3.029531E0,1.5727949E0,2.9740176E0,1.2554118E1,1.1694735E0,1.8600574E0,1.3406609E0,1.6333567E0,1.4612166E0,1.1092901E1],"tree_param":{"num_deleted":"0","num_feature":"34","num_nodes":"15","size_leaf_vector":"1"}},{"base_weights":[-9.291505E-3,-4.1579458E-1,5.2577898E-2,1.1640213E-1,-3.2525572E-1,-3.2189604E-2,4.416196E-1,9.948623E-2,-6.255329E-1,-2.2047885E-1,5.283651E-1],"categories":[],"categories_nodes":[],"categories_segments":[],"categories_sizes":[],"default_left":[0,0,0,0,0,0,0,0,0,0,0],"id":7,"left_children":[1,-1,3,5,-1,7,9,-1,-1,-1,-1],"loss_changes":[7.1404725E-1,0E0,6.4227E-1,9.131371E-1,0E0,1.705185E0,1.1083053E0,0E0,0E0,0E0,0E0],"parents":[2147483647,0,0,2,2,3,3,5,5,6,6],"right_children":[2,-1,4,6,-1,8,10,-1,-1,-1,-1],"split_conditions":[-5.06764E-1,-4.1579458E-1,1.4167719E0,3.7763935E-1,-3.2525572E-1,2.5538847E-1,-5.840234E-1,9.948623E-2,-6.255329E-1,-2.2047885E-1,5.283651E-1],"split_indices":[16,0,21,21,0,21,24,0,0,0,0],"split_type":[0,0,0,0,0,0,0,0,0,0,0],"sum_hessian":[2.0744492E1,1.4425039E0,1.9301987E1,1.7601725E1,1.7002621E0,1.2700084E1,4.901642E0,1.1196348E1,1.5037355E0,1.0852971E0,3.8163445E0],"tree_param":{"num_deleted":"0","num_feature":"34","num_nodes":"11","size_leaf_vector":"1"}},{"base_weights":[-5.2592367E-2,-1.0708746E-1,3.1190798E-1,-2.9159728E-1,1.1900268E-1,5.0614618E-2,-6.034369E-1,-2.479257E-1,4.007006E-1,-2.1555617E-1,5.2677506E-1,-6.026824E-1,-3.3618122E-2,1.0240852E-1,-4.4600043E-1,-9.521832E-2,6.0553306E-1],"categories":[],"categories_nodes":[],"categories_segments":[],"categories_sizes":[],"default_left":[0,0,0,0,0,0,0,0,0,0,0,0,0,0,0,0,0],"id":8,"left_children":[1,3,-1,5,7,9,11,13,15,-1,-1,-1,-1,-1,-1,-1,-1],"loss_changes":[5.2514464E-1,8.120081E-1,0E0,1.1563876E0,1.0382298E0,1.3355083E0,4.3944216E-1,6.023723E-1,1.1121601E0,0E0,0E0,0E0,0E0,0E0,0E0,0E0,0E0],"parents":[2147483647,0,0,1,1,3,3,4,4,5,5,6,6,7,7,8,8],"right_children":[2,4,-1,6,8,10,12,14,16,-1,-1,-1,-1,-1,-1,-1,-1],"split_conditions":[1.7351743E0,4.36586E-1,3.1190798E-1,2.5884664E-1,-2.3162399E-1,1.5994649E-1,4.70264E-1,-1.7307931E-1,-2.1765876E-1,-2.1555617E-1,5.2677506E-1,-6.026824E-1,-3.3618122E-2,1.0240852E-1,-4.4600043E-1,-9.521832E-2,6.0553306E-1],"split_indices":[15,33,0,31,1,31,8,18,6,0,0,0,0,0,0,0,0],"split_type":[0,0,0,0,0,0,0,0,0,0,0,0,0,0,0,0,0],"sum_hessian":[1.9047108E1,1.763338E1,1.4137285E0,9.549992E0,8.083388E0,4.9526544E0,4.5973377E0,3.562677E0,4.5207114E0,3.6090634E0,1.3435906E0,3.3585973E0,1.2387404E0,1.873754E0,1.6889229E0,2.109212E0,2.4114995E0],"tree_param":{"num_deleted":"0","num_feature":"34","num_nodes":"17","size_leaf_vector":"1"}},{"base_weights":[-3.0563627E-3,2.0673607E-1,-1.21789776E-1,-1.3495493E-1,4.567282E-1,-4.9118787E-1,7.012619E-2,2.2865644E-1,-3.9510557E-1,-5.62583E-1,-8.553275E-2,3.528988E-1,-2.048521E-1,-3.4646433E-2,4.7836706E-1,-3.763588E-1,7.1801275E-2],"categories":[],"categories_nodes":[],"categories_segments":[],"categories_sizes":[],"default_left":[0,0,0,0,0,0,0,0,0,0,0,0,0,0,0,0,0],"id":9,"left_children":[1,3,5,7,-1,9,11,-1,-1,-1,-1,13,15,-1,-1,-1,-1],"loss_changes":[4.6743283E-1,9.2164147E-1,8.828342E-1,7.921849E-1,0E0,2.6838338E-1,7.5270385E-1,0E0,0E0,0E0,0E0,4.8043644E-1,4.3886197E-1,0E0,0E0,0E0,0E0],"parents":[2147483647,0,0,1,1,2,2,3,3,5,5,6,6,11,11,12,12],"right_children":[2,4,6,8,-1,10,12,-1,-1,-1,-1,14,16,-1,-1,-1,-1],"split_conditions":[-4.0754053E-1,-7.726151E-1,-4.246598E-2,2.8851297E-1,4.567282E-1,-9.8113775E-2,-7.6566427E-3,2.2865644E-1,-3.9510557E-1,-5.62583E-1,-8.553275E-2,-3.55866E-1,1.2957773E-1,-3.4646433E-2,4.7836706E-1,-3.763588E-1,7.1801275E-2],"split_indices":[5,5,5,33,0,6,21,0,0,0,0,21,8,0,0,0,0],"split_type":[0,0,0,0,0,0,0,0,0,0,0,0,0,0,0,0,0],"sum_hessian":[1.6754541E1,5.7874327E0,1.0967109E1,3.3106217E0,2.476811E0,3.2165442E0,7.750565E0,1.6177685E0,1.6928532E0,1.5379021E0,1.6786422E0,3.6814225E0,4.0691423E0,1.7214695E0,1.9599528E0,1.8260255E0,2.243117E0],"tree_param":{"num_deleted":"0","num_feature":"34","num_nodes":"17","size_leaf_vector":"1"}},{"base_weights":[-1.2601106E-2,9.076583E-2,-2.0242608E-1,2.9269525E-1,-2.030557E-1,-3.8929933E-1,2.3147619E-1,4.1936013E-1,-7.830236E-2,-3.7988344E-1,1.3187249E-1,-5.853405E-1,1.1530619E-1,5.0178045E-1,2.5121383E-3,2.039582E-1,-4.2362865E-2,-1.8037419E-1,-5.800581E-1],"categories":[],"categories_nodes":[],"categories_segments":[],"categories_sizes":[],"default_left":[0,0,0,0,0,0,0,0,0,0,0,0,0,0,0,0,0,0,0],"id":10,"left_children":[1,3,5,7,9,11,-1,13,-1,-1,15,17,-1,-1,-1,-1,-1,-1,-1],"loss_changes":[3.3938453E-1,7.288455E-1,6.711518E-1,3.9212722E-1,5.3472215E-1,5.894935E-1,0E0,4.7802645E-1,0E0,0E0,8.415128E-2,2.4073958E-2,0E0,0E0,0E0,0E0,0E0,0E0,0E0],"parents":[2147483647,0,0,1,1,2,2,3,3,4,4,5,5,7,7,10,10,11,11],"right_children":[2,4,6,8,10,12,-1,14,-1,-1,16,18,-1,-1,-1,-1,-1,-1,-1],"split_conditions":[2.1431206E-2,2.2359683E-1,1.2586191E-1,2.0091705E-1,8.391756E-1,4.043781E-1,2.3147619E-1,-8.486591E-2,-7.830236E-2,-3.7988344E-1,3.019077E-1,1.1943167E-1,1.1530619E-1,5.0178045E-1,2.5121383E-3,2.039582E-1,-4.2362865E-2,-1.8037419E-1,-5.800581E-1],"split_indices":[6,1,1,5,1,12,0,9,0,0,32,14,0,0,0,0,0,0,0],"split_type":[0,0,0,0,0,0,0,0,0,0,0,0,0,0,0,0,0,0,0],"sum_hessian":[1.5360068E1,1.028263E1,5.077439E0,6.0965776E0,4.1860523E0,3.830298E0,1.247141E0,4.5479503E0,1.5486275E0,2.0801797E0,2.1058724E0,2.7297714E0,1.1005265E0,2.6950512E0,1.8528988E0,1.0363661E0,1.0695064E0,1.4944541E0,1.2353172E0],"tree_param":{"num_deleted":"0","num_feature":"34","num_nodes":"19","size_leaf_vector":"1"}},{"base_weights":[-1.5623944E-2,-3.022881E-1,5.4165598E-2,-1.9367306E-1,1.401104E-1,-3.3985713E-1,1.1178835E-1,4.1455746E-1,-1.2188432E-2,4.8527455E-1,9.105312E-4,-2.4724405E-1,2.7214038E-1],"categories":[],"categories_nodes":[],"categories_segments":[],"categories_sizes":[],"default_left":[0,0,0,0,0,0,0,0,0,0,0,0,0],"id":11,"left_children":[1,-1,3,5,7,-1,-1,9,11,-1,-1,-1,-1],"loss_changes":[3.9937252E-1,0E0,3.134478E-1,3.584435E-1,4.46473E-1,0E0,0E0,3.0080163E-1,9.1720957E-1,0E0,0E0,0E0,0E0],"parents":[2147483647,0,0,2,2,3,3,4,4,7,7,8,8],"right_children":[2,-1,4,6,8,-1,-1,10,12,-1,-1,-1,-1],"split_conditions":[-9.880006E-1,-3.022881E-1,-5.3080934E-1,-2.4065906E-2,-1.834487E-1,-3.3985713E-1,1.1178835E-1,-2.8508982E-1,-2.4152607E-1,4.8527455E-1,9.105312E-4,-2.4724405E-1,2.7214038E-1],"split_indices":[8,0,9,1,9,0,0,25,27,0,0,0,0],"split_type":[0,0,0,0,0,0,0,0,0,0,0,0,0],"sum_hessian":[1.3988175E1,1.5465697E0,1.2441606E1,2.880799E0,9.560806E0,1.5393844E0,1.3414147E0,2.7975457E0,6.763261E0,1.5911758E0,1.2063699E0,3.7374055E0,3.0258553E0],"tree_param":{"num_deleted":"0","num_feature":"34","num_nodes":"13","size_leaf_vector":"1"}},{"base_weights":[2.7266893E-4,-2.4603759E-1,6.731758E-2,3.1350026E-1,-2.9635081E-2,-2.853907E-1,5.9432924E-2,1.4122035E-1,-1.934131E-1],"categories":[],"categories_nodes":[],"categories_segments":[],"categories_sizes":[],"default_left":[0,0,0,0,0,0,0,0,0],"id":12,"left_children":[1,-1,3,-1,5,-1,7,-1,-1],"loss_changes":[3.0975583E-1,0E0,3.99329E-1,0E0,3.2469702E-1,0E0,3.6167192E-1,0E0,0E0],"parents":[2147483647,0,0,2,2,4,4,6,6],"right_children":[2,-1,4,-1,6,-1,8,-1,-1],"split_conditions":[-9.966644E-2,-2.4603759E-1,-4.2608055E-1,3.1350026E-1,-8.4486955E-1,-2.853907E-1,7.5523055E-1,1.4122035E-1,-1.934131E-1],"split_indices":[31,0,15,0,21,0,8,0,0],"split_type":[0,0,0,0,0,0,0,0,0],"sum_hessian":[1.3006017E1,1.6845689E0,1.1321447E1,1.9043938E0,9.417054E0,1.3722422E0,8.044811E0,6.090881E0,1.953931E0],"tree_param":{"num_deleted":"0","num_feature":"34","num_nodes":"9","size_leaf_vector":"1"}},{"base_weights":[-1.9766046E-2,-1.5613352E-1,1.8020768E-1,3.9552238E-2,-3.740728E-1,3.4279367E-1,-5.1172983E-2,2.6914445E-1,-1.9165201E-1,-4.236147E-1,3.4328118E-2,-2.7391657E-1,2.1032608E-1,3.5084328E-1,-3.2464404E-2],"categories":[],"categories_nodes":[],"categories_segments":[],"categories_sizes":[],"default_left":[0,0,0,0,0,0,0,0,0,0,0,0,0,0,0],"id":13,"left_children":[1,3,5,7,9,-1,11,13,-1,-1,-1,-1,-1,-1,-1],"loss_changes":[3.935341E-1,3.774034E-1,3.606921E-1,4.0952098E-1,2.8965026E-1,0E0,4.5091742E-1,1.9751693E-1,0E0,0E0,0E0,0E0,0E0,0E0,0E0],"parents":[2147483647,0,0,1,1,2,2,3,3,4,4,6,6,7,7],"right_children":[2,4,6,8,10,-1,12,14,-1,-1,-1,-1,-1,-1,-1],"split_conditions":[2.1554528E-1,4.9298186E-2,-5.310859E-1,1.3981893E-2,5.739269E-1,3.4279367E-1,2.835717E-1,-2.6607572E-3,-1.9165201E-1,-4.236147E-1,3.4328118E-2,-2.7391657E-1,2.1032608E-1,3.5084328E-1,-3.2464404E-2],"split_indices":[8,10,1,14,10,0,31,9,0,0,0,0,0,0,0],"split_type":[0,0,0,0,0,0,0,0,0,0,0,0,0,0,0],"sum_hessian":[1.2399296E1,7.502422E0,4.896874E0,4.384308E0,3.1181142E0,1.9512166E0,2.9456573E0,2.4251738E0,1.9591342E0,2.074783E0,1.0433311E0,1.4816679E0,1.4639893E0,1.2988158E0,1.1263578E0],"tree_param":{"num_deleted":"0","num_feature":"34","num_nodes":"15","size_leaf_vector":"1"}},{"base_weights":[-4.5726923E-3,-2.2278307E-1,1.0886209E-1,-3.411939E-1,5.4759003E-2,3.854085E-1,-8.369461E-2,-3.686396E-1,-6.601662E-2,4.042504E-2,3.9609113E-1,-1.891037E-1,1.6126086E-1,3.919976E-2,-2.7213392E-1],"categories":[],"categories_nodes":[],"categories_segments":[],"categories_sizes":[],"default_left":[0,0,0,0,0,0,0,0,0,0,0,0,0,0,0],"id":14,"left_children":[1,3,5,7,-1,9,11,-1,-1,-1,-1,13,-1,-1,-1],"loss_changes":[3.3090246E-1,1.8079877E-1,5.020877E-1,6.756723E-2,0E0,1.1458707E-1,2.1922874E-1,0E0,0E0,0E0,0E0,1.9341302E-1,0E0,0E0,0E0],"parents":[2147483647,0,0,1,1,2,2,3,3,5,5,6,6,11,11],"right_children":[2,4,6,8,-1,10,12,-1,-1,-1,-1,14,-1,-1,-1],"split_conditions":[-3.819528E-1,5.758003E-1,1.3913601E-2,-4.3682456E-1,5.4759003E-2,2.1078078E-1,1.8107404E-1,-3.686396E-1,-6.601662E-2,4.042504E-2,3.9609113E-1,-3.1508714E-1,1.6126086E-1,3.919976E-2,-2.7213392E-1],"split_indices":[4,18,4,6,0,22,9,0,0,0,0,9,0,0,0],"split_type":[0,0,0,0,0,0,0,0,0,0,0,0,0,0,0],"sum_hessian":[1.1388568E1,3.5655923E0,7.8229756E0,2.4129612E0,1.152631E0,2.8000553E0,5.0229206E0,1.1156905E0,1.2972708E0,1.0513637E0,1.7486916E0,3.913842E0,1.1090784E0,1.7815058E0,2.1323361E0],"tree_param":{"num_deleted":"0","num_feature":"34","num_nodes":"15","size_leaf_vector":"1"}},{"base_weights":[-1.626533E-3,7.446571E-2,-2.4432965E-1,-2.012126E-1,1.827158E-1,-4.6873298E-2,-2.4556863E-1,8.016468E-2,-3.234417E-1,-6.7820355E-2,2.8205037E-1,-3.5355773E-2,3.1627044E-1],"categories":[],"categories_nodes":[],"categories_segments":[],"categories_sizes":[],"default_left":[0,0,0,0,0,0,0,0,0,0,0,0,0],"id":15,"left_children":[1,3,5,7,9,-1,-1,-1,-1,-1,11,-1,-1],"loss_changes":[2.3562673E-1,3.271235E-1,1.7423004E-2,2.3758061E-1,2.2347438E-1,0E0,0E0,0E0,0E0,0E0,2.2843051E-1,0E0,0E0],"parents":[2147483647,0,0,1,1,2,2,3,3,4,4,10,10],"right_children":[2,4,6,8,10,-1,-1,-1,-1,-1,12,-1,-1],"split_conditions":[2.7595288E-1,-4.876649E-1,-8.1598073E-1,2.7120915E-1,1.781717E-1,-4.6873298E-2,-2.4556863E-1,8.016468E-2,-3.234417E-1,-6.7820355E-2,-7.726151E-1,-3.5355773E-2,3.1627044E-1],"split_indices":[6,9,7,31,32,0,0,0,0,0,5,0,0],"split_type":[0,0,0,0,0,0,0,0,0,0,0,0,0],"sum_hessian":[1.0773588E1,8.729803E0,2.0437846E0,2.2192667E0,6.5105367E0,1.0034553E0,1.0403293E0,1.0972939E0,1.1219727E0,1.8027099E0,4.7078266E0,1.3706186E0,3.337208E0],"tree_param":{"num_deleted":"0","num_feature":"34","num_nodes":"13","size_leaf_vector":"1"}},{"base_weights":[-2.8004775E-2,-1.9307871E-1,8.259176E-2,6.9338016E-2,-3.14072E-1,3.2687232E-1,-1.0272724E-1,3.9644065E-1,2.745223E-3,9.938791E-2,-2.3787196E-1,-3.174387E-1,-4.9399952E-3],"categories":[],"categories_nodes":[],"categories_segments":[],"categories_sizes":[],"default_left":[0,0,0,0,0,0,0,0,0,0,0,0,0],"id":16,"left_children":[1,3,5,-1,-1,7,9,-1,-1,-1,11,-1,-1],"loss_changes":[2.203918E-1,3.0150247E-1,3.6885196E-1,0E0,0E0,1.8564677E-1,1.8206191E-1,0E0,0E0,0E0,1.2494019E-1,0E0,0E0],"parents":[2147483647,0,0,1,1,2,2,5,5,6,6,10,10],"right_children":[2,4,6,-1,-1,8,10,-1,-1,-1,12,-1,-1],"split_conditions":[-9.146788E-2,-2.0951656E-1,1.3981893E-2,6.9338016E-2,-3.14072E-1,4.9298186E-2,2.2080678E-1,3.9644065E-1,2.745223E-3,9.938791E-2,-2.7743125E-1,-3.174387E-1,-4.9399952E-3],"split_indices":[14,8,14,0,0,10,32,0,0,0,6,0,0],"split_type":[0,0,0,0,0,0,0,0,0,0,0,0,0],"sum_hessian":[1.0198417E1,3.7923083E0,6.406109E0,1.8141356E0,1.9781728E0,2.433942E0,3.9721668E0,1.2499533E0,1.1839887E0,1.5126121E0,2.459555E0,1.0362153E0,1.4233395E0],"tree_param":{"num_deleted":"0","num_feature":"34","num_nodes":"13","size_leaf_vector":"1"}},{"base_weights":[-1.22445375E-2,-8.722653E-2,1.8568605E-1,-2.6486132E-1,9.2458455E-3,-5.0748665E-2,2.88988E-1,2.3725842E-1,-1.994605E-1,3.2921398E-1,-2.492248E-2,-2.7249563E-1,6.087647E-2],"categories":[],"categories_nodes":[],"categories_segments":[],"categories_sizes":[],"default_left":[0,0,0,0,0,0,0,0,0,0,0,0,0],"id":17,"left_children":[1,3,5,-1,7,-1,-1,9,11,-1,-1,-1,-1],"loss_changes":[1.7289786E-1,1.9921009E-1,1.6375908E-1,0E0,3.779251E-1,0E0,0E0,1.8947141E-1,1.8813813E-1,0E0,0E0,0E0,0E0],"parents":[2147483647,0,0,1,1,2,2,4,4,7,7,8,8],"right_children":[2,4,6,-1,8,-1,-1,10,12,-1,-1,-1,-1],"split_conditions":[1.6049491E-1,-4.753792E-1,-7.7553535E-1,-2.6486132E-1,2.2956884E-2,-5.0748665E-2,2.88988E-1,8.850393E-2,4.0854577E-2,3.2921398E-1,-2.492248E-2,-2.7249563E-1,6.087647E-2],"split_indices":[7,8,6,0,23,0,0,15,9,0,0,0,0],"split_type":[0,0,0,0,0,0,0,0,0,0,0,0,0],"sum_hessian":[9.558499E0,7.3379664E0,2.2205324E0,1.3907596E0,5.947207E0,1.1819159E0,1.0386165E0,2.7767694E0,3.1704376E0,1.3604043E0,1.4163651E0,1.9403422E0,1.2300954E0],"tree_param":{"num_deleted":"0","num_feature":"34","num_nodes":"13","size_leaf_vector":"1"}},{"base_weights":[6.041634E-3,1.5174432E-1,-1.1767125E-1,2.843918E-1,-9.996322E-2,-2.524717E-1,1.9845264E-1,-1.3206616E-2,3.4871903E-1,-3.141665E-1,2.5691181E-2],"categories":[],"categories_nodes":[],"categories_segments":[],"categories_sizes":[],"default_left":[0,0,0,0,0,0,0,0,0,0,0],"id":18,"left_children":[1,3,5,7,-1,9,-1,-1,-1,-1,-1],"loss_changes":[1.96709E-1,2.1879566E-1,3.5495478E-1,1.7497438E-1,0E0,2.0529729E-1,0E0,0E0,0E0,0E0,0E0],"parents":[2147483647,0,0,1,1,2,2,3,3,5,5],"right_children":[2,4,6,8,-1,10,-1,-1,-1,-1,-1],"split_conditions":[-1.834487E-1,3.9496705E-1,4.043781E-1,-1.8173815E-1,-9.996322E-2,1.4468524E-1,1.9845264E-1,-1.3206616E-2,3.4871903E-1,-3.141665E-1,2.5691181E-2],"split_indices":[9,12,12,14,0,10,0,0,0,0,0],"split_type":[0,0,0,0,0,0,0,0,0,0,0],"sum_hessian":[8.922336E0,3.993E0,4.929335E0,2.680284E0,1.3127161E0,3.8280964E0,1.1012387E0,1.1960037E0,1.4842803E0,2.3099058E0,1.5181906E0],"tree_param":{"num_deleted":"0","num_feature":"34","num_nodes":"11","size_leaf_vector":"1"}},{"base_weights":[1.8337326E-2,8.239414E-2,-1.8823175E-1,-1.14691794E-1,1.4710638E-1,-7.2976924E-2,2.0552152E-1,-8.1405245E-2,2.4706152E-1],"categories":[],"categories_nodes":[],"categories_segments":[],"categories_sizes":[],"default_left":[0,0,0,0,0,0,0,0,0],"id":19,"left_children":[1,3,-1,-1,5,-1,7,-1,-1],"loss_changes":[1.7200509E-1,1.4147681E-1,0E0,0E0,1.1478321E-1,0E0,2.1704863E-1,0E0,0E0],"parents":[2147483647,0,0,1,1,4,4,6,6],"right_children":[2,4,-1,-1,6,-1,8,-1,-1],"split_conditions":[6.4204884E-1,-8.3926225E-1,-1.8823175E-1,-1.14691794E-1,-7.837441E-1,-7.2976924E-2,-4.0433362E-1,-8.1405245E-2,2.4706152E-1],"split_indices":[5,4,0,0,21,0,1,0,0],"split_type":[0,0,0,0,0,0,0,0,0],"sum_hessian":[8.393916E0,7.240396E0,1.15352E0,1.3422669E0,5.898129E0,1.0505197E0,4.8476095E0,1.2234613E0,3.6241481E0],"tree_param":{"num_deleted":"0","num_feature":"34","num_nodes":"9","size_leaf_vector":"1"}},{"base_weights":[-1.7166302E-2,1.5714692E-1,-9.7234145E-2,-2.7815357E-1,2.462875E-2,1.4375298E-1,-1.3024177E-1,2.0498577E-1,-5.7178944E-2],"categories":[],"categories_nodes":[],"categories_segments":[],"categories_sizes":[],"default_left":[0,0,0,0,0,0,0,0,0],"id":20,"left_children":[1,-1,3,-1,5,7,-1,-1,-1],"loss_changes":[1.748217E-1,0E0,2.3111357E-1,0E0,1.5377077E-1,1.175932E-1,0E0,0E0,0E0],"parents":[2147483647,0,0,2,2,4,4,5,5],"right_children":[2,-1,4,-1,6,8,-1,-1,-1],"split_conditions":[-3.746221E-1,1.5714692E-1,-9.146788E-2,-2.7815357E-1,3.350388E-2,3.9496705E-1,-1.3024177E-1,2.0498577E-1,-5.7178944E-2],"split_indices":[15,0,14,0,6,12,0,0,0],"split_type":[0,0,0,0,0,0,0,0,0],"sum_hessian":[8.105206E0,1.8136158E0,6.2915893E0,1.4527322E0,4.838857E0,3.1010065E0,1.7378508E0,1.9115118E0,1.1894947E0],"tree_param":{"num_deleted":"0","num_feature":"34","num_nodes":"9","size_leaf_vector":"1"}},{"base_weights":[-1.613625E-2,-9.3846515E-2,1.3518932E-1,4.3200836E-2,-1.8262962E-1,1.7682514E-1,-1.1927744E-1,-2.286111E-1,2.2283358E-2],"categories":[],"categories_nodes":[],"categories_segments":[],"categories_sizes":[],"default_left":[0,0,0,0,0,0,0,0,0],"id":21,"left_children":[1,3,-1,5,7,-1,-1,-1,-1],"loss_changes":[1.4161366E-1,9.062746E-2,0E0,1.5202759E-1,1.0169272E-1,0E0,0E0,0E0,0E0],"parents":[2147483647,0,0,1,1,3,3,4,4],"right_children":[2,4,-1,6,8,-1,-1,-1,-1],"split_conditions":[5.06097E-1,2.341216E-1,1.3518932E-1,1.0886684E-2,3.69291E-1,1.7682514E-1,-1.1927744E-1,-2.286111E-1,2.2283358E-2],"split_indices":[31,31,0,21,21,0,0,0,0],"split_type":[0,0,0,0,0,0,0,0,0],"sum_hessian":[7.741506E0,5.7999015E0,1.9416046E0,2.482019E0,3.3178823E0,1.2118844E0,1.2701346E0,1.9867492E0,1.3311331E0],"tree_param":{"num_deleted":"0","num_feature":"34","num_nodes":"9","size_leaf_vector":"1"}},{"base_weights":[-5.6574214E-3,-1.4671956E-1,7.005403E-2,-4.389092E-2,1.9722886E-1,1.4446859E-1,-1.6293684E-1,4.3135576E-2,-2.565733E-1],"categories":[],"categories_nodes":[],"categories_segments":[],"categories_sizes":[],"default_left":[0,0,0,0,0,0,0,0,0],"id":22,"left_children":[1,-1,3,5,-1,-1,7,-1,-1],"loss_changes":[1.276243E-1,0E0,1.4565043E-1,1.6098636E-1,0E0,0E0,1.4535365E-1,0E0,0E0],"parents":[2147483647,0,0,2,2,3,3,6,6],"right_children":[2,-1,4,6,-1,-1,8,-1,-1],"split_conditions":[1.5994649E-1,-1.4671956E-1,4.70264E-1,3.4247443E-1,1.9722886E-1,1.4446859E-1,-1.8916944E-1,4.3135576E-2,-2.565733E-1],"split_indices":[31,0,8,32,0,0,10,0,0],"split_type":[0,0,0,0,0,0,0,0,0],"sum_hessian":[7.529058E0,1.8241925E0,5.7048655E0,3.9231803E0,1.7816851E0,1.1804138E0,2.7427664E0,1.432359E0,1.3104075E0],"tree_param":{"num_deleted":"0","num_feature":"34","num_nodes":"9","size_leaf_vector":"1"}},{"base_weights":[-4.2099757E-3,-7.7855475E-2,1.16939716E-1,8.033409E-2,-2.0759387E-1,-5.502483E-2,1.984674E-1,1.5184055E-1,-4.1771043E-2,-2.4722111E-1,1.0218941E-2],"categories":[],"categories_nodes":[],"categories_segments":[],"categories_sizes":[],"default_left":[0,0,0,0,0,0,0,0,0,0,0],"id":23,"left_children":[1,3,5,7,9,-1,-1,-1,-1,-1,-1],"loss_changes":[8.243335E-2,1.3390271E-1,1.0247892E-1,5.7715103E-2,8.032876E-2,0E0,0E0,0E0,0E0,0E0,0E0],"parents":[2147483647,0,0,1,1,2,2,3,3,4,4],"right_children":[2,4,6,8,10,-1,-1,-1,-1,-1,-1],"split_conditions":[4.0719688E-1,2.341216E-1,6.322712E-2,5.9530076E-2,-1.2184694E-2,-5.502483E-2,1.984674E-1,1.5184055E-1,-4.1771043E-2,-2.4722111E-1,1.0218941E-2],"split_indices":[31,31,12,8,18,0,0,0,0,0,0],"split_type":[0,0,0,0,0,0,0,0,0,0,0],"sum_hessian":[7.2187724E0,4.711853E0,2.5069196E0,2.294715E0,2.417138E0,1.2343805E0,1.2725391E0,1.020215E0,1.2744999E0,1.3797386E0,1.0373994E0],"tree_param":{"num_deleted":"0","num_feature":"34","num_nodes":"11","size_leaf_vector":"1"}},{"base_weights":[8.6806837E-4,5.9157047E-2,-1.1433971E-1,1.9237307E-1,-6.333657E-2,2.3685034E-2,2.1599853E-1,-1.8029289E-1,9.783147E-2],"categories":[],"categories_nodes":[],"categories_segments":[],"categories_sizes":[],"default_left":[0,0,0,0,0,0,0,0,0],"id":24,"left_children":[1,3,-1,5,7,-1,-1,-1,-1],"loss_changes":[7.57436E-2,1.1694306E-1,0E0,3.3991568E-2,1.5077886E-1,0E0,0E0,0E0,0E0],"parents":[2147483647,0,0,1,1,3,3,4,4],"right_children":[2,4,-1,6,8,-1,-1,-1,-1],"split_conditions":[1.2954114E-1,-2.3758292E-1,-1.1433971E-1,2.911675E-1,4.0854577E-2,2.3685034E-2,2.1599853E-1,-1.8029289E-1,9.783147E-2],"split_indices":[29,6,0,21,9,0,0,0,0],"split_type":[0,0,0,0,0,0,0,0,0],"sum_hessian":[7.0282006E0,5.419787E0,1.6084139E0,2.3229856E0,3.096801E0,1.196186E0,1.1267998E0,1.5391859E0,1.5576153E0],"tree_param":{"num_deleted":"0","num_feature":"34","num_nodes":"9","size_leaf_vector":"1"}},{"base_weights":[5.999355E-3,-6.278566E-2,1.1883477E-1,-1.71935E-1,5.463324E-2,9.6759036E-2,-2.8778777E-1,-1.271195E-1,2.0688772E-1],"categories":[],"categories_nodes":[],"categories_segments":[],"categories_sizes":[],"default_left":[0,0,0,0,0,0,0,0,0],"id":25,"left_children":[1,3,-1,5,7,-1,-1,-1,-1],"loss_changes":[8.611923E-2,8.610779E-2,0E0,2.2739947E-1,1.997442E-1,0E0,0E0,0E0,0E0],"parents":[2147483647,0,0,1,1,3,3,4,4],"right_children":[2,4,-1,6,8,-1,-1,-1,-1],"split_conditions":[3.3545932E-1,-1.641575E-1,1.1883477E-1,-2.9230013E-1,6.166157E-1,9.6759036E-2,-2.8778777E-1,-1.271195E-1,2.0688772E-1],"split_indices":[10,5,0,8,22,0,0,0,0],"split_type":[0,0,0,0,0,0,0,0,0],"sum_hessian":[6.832087E0,4.9857407E0,1.8463465E0,2.3432415E0,2.6424992E0,1.0545629E0,1.2886785E0,1.3989748E0,1.2435244E0],"tree_param":{"num_deleted":"0","num_feature":"34","num_nodes":"9","size_leaf_vector":"1"}},{"base_weights":[5.744394E-4,-1.1379794E-1,5.174381E-2,-1.13997E-1,1.4883184E-1,2.4828847E-1,-4.6023346E-2,2.8980336E-1,5.388525E-4],"categories":[],"categories_nodes":[],"categories_segments":[],"categories_sizes":[],"default_left":[0,0,0,0,0,0,0,0,0],"id":26,"left_children":[1,-1,3,-1,5,7,-1,-1,-1],"loss_changes":[6.236284E-2,0E0,1.3953088E-1,0E0,1.101809E-1,9.403798E-2,0E0,0E0,0E0],"parents":[2147483647,0,0,2,2,4,4,5,5],"right_children":[2,-1,4,-1,6,8,-1,-1,-1],"split_conditions":[-5.884106E-1,-1.1379794E-1,-2.2166498E-2,-1.13997E-1,3.350388E-2,-2.4065906E-2,-4.6023346E-2,2.8980336E-1,5.388525E-4],"split_indices":[8,0,12,0,6,1,0,0,0],"split_type":[0,0,0,0,0,0,0,0,0],"sum_hessian":[6.5262218E0,1.251936E0,5.274286E0,1.601843E0,3.6724427E0,2.3410082E0,1.3314345E0,1.286101E0,1.0549072E0],"tree_param":{"num_deleted":"0","num_feature":"34","num_nodes":"9","size_leaf_vector":"1"}},{"base_weights":[5.2678795E-3,1.5255518E-1,-5.628162E-2,-1.799951E-1,1.9374592E-2,1.502192E-1,-1.5505101E-1,1.8166079E-1,1.2907862E-2],"categories":[],"categories_nodes":[],"categories_segments":[],"categories_sizes":[],"default_left":[0,0,0,0,0,0,0,0,0],"id":27,"left_children":[1,-1,3,-1,5,7,-1,-1,-1],"loss_changes":[9.4280005E-2,0E0,8.43675E-2,0E0,1.7551348E-1,3.5656974E-2,0E0,0E0,0E0],"parents":[2147483647,0,0,2,2,4,4,5,5],"right_children":[2,-1,4,-1,6,8,-1,-1,-1],"split_conditions":[-4.0326756E-1,1.5255518E-1,-2.2166498E-2,-1.799951E-1,-6.8928815E-2,1.3913601E-2,-1.5505101E-1,1.8166079E-1,1.2907862E-2],"split_indices":[12,0,12,0,25,4,0,0,0],"split_type":[0,0,0,0,0,0,0,0,0],"sum_hessian":[6.32045E0,1.0522337E0,5.268216E0,1.0199171E0,4.248299E0,2.8155935E0,1.4327054E0,1.3488858E0,1.4667077E0],"tree_param":{"num_deleted":"0","num_feature":"34","num_nodes":"9","size_leaf_vector":"1"}},{"base_weights":[2.9004994E-3,1.4317529E-1,-6.284823E-2,7.907122E-2,-1.5282348E-1,-2.0527978E-1,4.186539E-3],"categories":[],"categories_nodes":[],"categories_segments":[],"categories_sizes":[],"default_left":[0,0,0,0,0,0,0],"id":28,"left_children":[1,-1,3,-1,5,-1,-1],"loss_changes":[9.35093E-2,0E0,1.011415E-1,0E0,7.0108406E-2,0E0,0E0],"parents":[2147483647,0,0,2,2,4,4],"right_children":[2,-1,4,-1,6,-1,-1],"split_conditions":[-4.77539E-1,1.4317529E-1,-4.0754053E-1,7.907122E-2,1.2957773E-1,-2.0527978E-1,4.186539E-3],"split_indices":[15,0,5,0,8,0,0],"split_type":[0,0,0,0,0,0,0],"sum_hessian":[6.106027E0,1.1919873E0,4.91404E0,1.7216636E0,3.1923764E0,1.5507342E0,1.6416421E0],"tree_param":{"num_deleted":"0","num_feature":"34","num_nodes":"7","size_leaf_vector":"1"}},{"base_weights":[2.6781994E-3,-1.2194752E-1,7.646609E-2,-6.7176595E-2,1.5714568E-1,1.9548665E-1,-5.508258E-3],"categories":[],"categories_nodes":[],"categories_segments":[],"categories_sizes":[],"default_left":[0,0,0,0,0,0,0],"id":29,"left_children":[1,-1,3,-1,5,-1,-1],"loss_changes":[9.131066E-2,0E0,8.28601E-2,0E0,5.7894744E-2,0E0,0E0],"parents":[2147483647,0,0,2,2,4,4],"right_children":[2,-1,4,-1,6,-1,-1],"split_conditions":[1.5994649E-1,-1.2194752E-1,-3.819528E-1,-6.7176595E-2,5.5742073E-1,1.9548665E-1,-5.508258E-3],"split_indices":[31,0,4,0,4,0,0],"split_type":[0,0,0,0,0,0,0],"sum_hessian":[5.9595094E0,1.5775114E0,4.381998E0,1.4526037E0,2.9293942E0,1.592813E0,1.3365813E0],"tree_param":{"num_deleted":"0","num_feature":"34","num_nodes":"7","size_leaf_vector":"1"}},{"base_weights":[1.5258825E-3,8.667837E-2,-1.1387202E-1,1.868298E-1,-5.7748366E-2,-1.6121337E-1,1.6759532E-2],"categories":[],"categories_nodes":[],"categories_segments":[],"categories_sizes":[],"default_left":[0,0,0,0,0,0,0],"id":30,"left_children":[1,3,5,-1,-1,-1,-1],"loss_changes":[7.720324E-2,1.22093305E-1,4.3707553E-2,0E0,0E0,0E0,0E0],"parents":[2147483647,0,0,1,1,2,2],"right_children":[2,4,6,-1,-1,-1,-1],"split_conditions":[9.3731104E-4,-2.0200162E-1,4.35781E-1,1.868298E-1,-5.7748366E-2,-1.6121337E-1,1.6759532E-2],"split_indices":[15,8,14,0,0,0,0],"split_type":[0,0,0,0,0,0,0],"sum_hessian":[5.852242E0,3.510619E0,2.341623E0,1.5799837E0,1.9306352E0,1.1192974E0,1.2223258E0],"tree_param":{"num_deleted":"0","num_feature":"34","num_nodes":"7","size_leaf_vector":"1"}},{"base_weights":[-1.5303772E-3,8.714857E-2,-8.377312E-2,1.6547452E-1,-7.100879E-2,-1.6640157E-1,7.494714E-2],"categories":[],"categories_nodes":[],"categories_segments":[],"categories_sizes":[],"default_left":[0,0,0,0,0,0,0],"id":31,"left_children":[1,3,5,-1,-1,-1,-1],"loss_changes":[5.6396797E-2,9.688077E-2,1.0772269E-1,0E0,0E0,0E0,0E0],"parents":[2147483647,0,0,1,1,2,2],"right_children":[2,4,6,-1,-1,-1,-1],"split_conditions":[-1.834487E-1,3.082967E-1,-2.4152607E-1,1.6547452E-1,-7.100879E-2,-1.6640157E-1,7.494714E-2],"split_indices":[9,31,27,0,0,0,0],"split_type":[0,0,0,0,0,0,0],"sum_hessian":[5.7317624E0,2.7292619E0,3.0025005E0,1.519497E0,1.2097647E0,1.6648773E0,1.3376234E0],"tree_param":{"num_deleted":"0","num_feature":"34","num_nodes":"7","size_leaf_vector":"1"}},{"base_weights":[2.6182333E-4,-1.0516495E-1,7.34881E-2,5.8423247E-2,-1.8068261E-1,1.4512128E-1,-5.597487E-2],"categories":[],"categories_nodes":[],"categories_segments":[],"categories_sizes":[],"default_left":[0,0,0,0,0,0,0],"id":32,"left_children":[1,3,5,-1,-1,-1,-1],"loss_changes":[5.8744192E-2,8.3591E-2,8.217572E-2,0E0,0E0,0E0,0E0],"parents":[2147483647,0,0,1,1,2,2],"right_children":[2,4,6,-1,-1,-1,-1],"split_conditions":[-9.146788E-2,-4.77539E-1,1.2049768E-1,5.8423247E-2,-1.8068261E-1,1.4512128E-1,-5.597487E-2],"split_indices":[14,15,14,0,0,0,0],"split_type":[0,0,0,0,0,0,0],"sum_hessian":[5.608258E0,2.1199367E0,3.4883208E0,1.0154861E0,1.1044507E0,1.8398288E0,1.6484921E0],"tree_param":{"num_deleted":"0","num_feature":"34","num_nodes":"7","size_leaf_vector":"1"}},{"base_weights":[-5.2434327E-3,-1.0421157E-1,4.354539E-2,-9.0633504E-2,1.1545851E-1,-2.6468693E-3,1.7638618E-1],"categories":[],"categories_nodes":[],"categories_segments":[],"categories_sizes":[],"default_left":[0,0,0,0,0,0,0],"id":33,"left_children":[1,-1,3,-1,5,-1,-1],"loss_changes":[4.5236386E-2,0E0,7.415488E-2,0E0,5.3217117E-2,0E0,0E0],"parents":[2147483647,0,0,2,2,4,4],"right_children":[2,-1,4,-1,6,-1,-1],"split_conditions":[-5.884106E-1,-1.0421157E-1,-1.3405234E-1,-9.0633504E-2,3.69291E-1,-2.6468693E-3,1.7638618E-1],"split_indices":[8,0,12,0,21,0,0],"split_type":[0,0,0,0,0,0,0],"sum_hessian":[5.4862914E0,1.0712515E0,4.4150395E0,1.2070823E0,3.2079575E0,1.9599905E0,1.247967E0],"tree_param":{"num_deleted":"0","num_feature":"34","num_nodes":"7","size_leaf_vector":"1"}},{"base_weights":[-3.7151722E-3,1.1566765E-1,-1.01120494E-1,-5.45789E-2,2.0278911E-1,4.5434162E-2,-1.4781779E-1],"categories":[],"categories_nodes":[],"categories_segments":[],"categories_sizes":[],"default_left":[0,0,0,0,0,0,0],"id":34,"left_children":[1,3,5,-1,-1,-1,-1],"loss_changes":[8.6011164E-2,1.0188778E-1,6.403081E-2,0E0,0E0,0E0,0E0],"parents":[2147483647,0,0,1,1,2,2],"right_children":[2,4,6,-1,-1,-1,-1],"split_conditions":[-8.445215E-2,-6.614932E-1,-4.0754053E-1,-5.45789E-2,2.0278911E-1,4.5434162E-2,-1.4781779E-1],"split_indices":[21,21,5,0,0,0,0],"split_type":[0,0,0,0,0,0,0],"sum_hessian":[5.3907337E0,2.337876E0,3.0528576E0,1.2178617E0,1.1200144E0,1.1683644E0,1.8844931E0],"tree_param":{"num_deleted":"0","num_feature":"34","num_nodes":"7","size_leaf_vector":"1"}},{"base_weights":[7.2397925E-3,5.6477387E-2,-9.5774285E-2,-7.344511E-2,1.1408075E-1,-8.290858E-3,1.5297626E-1],"categories":[],"categories_nodes":[],"categories_segments":[],"categories_sizes":[],"default_left":[0,0,0,0,0,0,0],"id":35,"left_children":[1,3,-1,-1,5,-1,-1],"loss_changes":[4.5880523E-2,5.4792963E-2,0E0,0E0,4.2135533E-2,0E0,0E0],"parents":[2147483647,0,0,1,1,4,4],"right_children":[2,4,-1,-1,6,-1,-1],"split_conditions":[8.127757E-1,-4.876649E-1,-9.5774285E-2,-7.344511E-2,-1.641575E-1,-8.290858E-3,1.5297626E-1],"split_indices":[21,9,0,0,5,0,0],"split_type":[0,0,0,0,0,0,0],"sum_hessian":[5.257976E0,4.188652E0,1.0693241E0,1.0057812E0,3.1828709E0,1.5492374E0,1.6336334E0],"tree_param":{"num_deleted":"0","num_feature":"34","num_nodes":"7","size_leaf_vector":"1"}},{"base_weights":[-2.0224294E-3,-7.198242E-2,5.931115E-2,1.616252E-1,-5.959441E-2,-1.4759447E-1,7.324886E-2],"categories":[],"categories_nodes":[],"categories_segments":[],"categories_sizes":[],"default_left":[0,0,0,0,0,0,0],"id":36,"left_children":[1,-1,3,-1,5,-1,-1],"loss_changes":[3.870285E-2,0E0,8.41078E-2,0E0,7.5207256E-2,0E0,0E0],"parents":[2147483647,0,0,2,2,4,4],"right_children":[2,-1,4,-1,6,-1,-1],"split_conditions":[2.0279607E-1,-7.198242E-2,-3.1881458E-1,1.616252E-1,8.12037E-2,-1.4759447E-1,7.324886E-2],"split_indices":[24,0,6,0,6,0,0],"split_type":[0,0,0,0,0,0,0],"sum_hessian":[5.185065E0,1.9383464E0,3.2467182E0,1.1578628E0,2.0888555E0,1.0230036E0,1.0658519E0],"tree_param":{"num_deleted":"0","num_feature":"34","num_nodes":"7","size_leaf_vector":"1"}},{"base_weights":[2.398223E-3,-1.0354153E-1,6.509687E-2,-4.4248994E-2,1.7536007E-1,-1.2290801E-1,4.6539437E-2],"categories":[],"categories_nodes":[],"categories_segments":[],"categories_sizes":[],"default_left":[0,0,0,0,0,0,0],"id":37,"left_children":[1,-1,3,5,-1,-1,-1],"loss_changes":[5.8619805E-2,0E0,9.025982E-2,4.959116E-2,0E0,0E0,0E0],"parents":[2147483647,0,0,2,2,3,3],"right_children":[2,-1,4,6,-1,-1,-1],"split_conditions":[1.5994649E-1,-1.0354153E-1,4.70264E-1,-2.2464027E-1,1.7536007E-1,-1.2290801E-1,4.6539437E-2],"split_indices":[31,0,8,21,0,0,0],"split_type":[0,0,0,0,0,0,0],"sum_hessian":[5.0729523E0,1.2920732E0,3.7808793E0,2.6285908E0,1.1522883E0,1.0293089E0,1.5992819E0],"tree_param":{"num_deleted":"0","num_feature":"34","num_nodes":"7","size_leaf_vector":"1"}},{"base_weights":[2.7020802E-4,6.426273E-2,-8.140692E-2,-9.289302E-2,1.6610806E-1,-1.6256953E-2,2.1487112E-1],"categories":[],"categories_nodes":[],"categories_segments":[],"categories_sizes":[],"default_left":[0,0,0,0,0,0,0],"id":38,"left_children":[1,3,-1,-1,5,-1,-1],"loss_changes":[4.546924E-2,9.786365E-2,0E0,0E0,6.554742E-2,0E0,0E0],"parents":[2147483647,0,0,1,1,4,4],"right_children":[2,4,-1,-1,6,-1,-1],"split_conditions":[3.350388E-2,-2.8455648E-1,-8.140692E-2,-9.289302E-2,6.319992E-1,-1.6256953E-2,2.1487112E-1],"split_indices":[6,10,0,0,22,0,0],"split_type":[0,0,0,0,0,0,0],"sum_hessian":[4.9625444E0,3.2772217E0,1.6853226E0,1.1320739E0,2.1451478E0,1.0452948E0,1.0998532E0],"tree_param":{"num_deleted":"0","num_feature":"34","num_nodes":"7","size_leaf_vector":"1"}},{"base_weights":[5.791551E-3,8.799305E-2,-5.7451602E-2,-1.4873359E-1,8.005753E-2,1.45764565E-2,-1.970384E-1],"categories":[],"categories_nodes":[],"categories_segments":[],"categories_sizes":[],"default_left":[0,0,0,0,0,0,0],"id":39,"left_children":[1,-1,3,5,-1,-1,-1],"loss_changes":[4.477097E-2,0E0,7.654107E-2,5.5259936E-2,0E0,0E0,0E0],"parents":[2147483647,0,0,2,2,3,3],"right_children":[2,-1,4,6,-1,-1,-1],"split_conditions":[-2.8434017E-1,8.799305E-2,3.69291E-1,-4.1495115E-1,8.005753E-2,1.45764565E-2,-1.970384E-1],"split_indices":[8,0,21,7,0,0,0],"split_type":[0,0,0,0,0,0,0],"sum_hessian":[4.83494E0,1.5469671E0,3.2879727E0,2.1170068E0,1.1709659E0,1.0807874E0,1.0362194E0],"tree_param":{"num_deleted":"0","num_feature":"34","num_nodes":"7","size_leaf_vector":"1"}},{"base_weights":[-2.305961E-3,7.019876E-2,-8.170686E-2,1.5189397E-1,-4.8481863E-2,-1.2665862E-1,2.481017E-2],"categories":[],"categories_nodes":[],"categories_segments":[],"categories_sizes":[],"default_left":[0,0,0,0,0,0,0],"id":40,"left_children":[1,3,5,-1,-1,-1,-1],"loss_changes":[3.8791627E-2,6.690441E-2,3.25695E-2,0E0,0E0,0E0,0E0],"parents":[2147483647,0,0,1,1,2,2],"right_children":[2,4,6,-1,-1,-1,-1],"split_conditions":[1.0886684E-2,7.173961E-1,8.022597E-2,1.5189397E-1,-4.8481863E-2,-1.2665862E-1,2.481017E-2],"split_indices":[21,23,8,0,0,0,0],"split_type":[0,0,0,0,0,0,0],"sum_hessian":[4.7419233E0,2.5391762E0,2.2027473E0,1.0901939E0,1.4489822E0,1.0705258E0,1.1322216E0],"tree_param":{"num_deleted":"0","num_feature":"34","num_nodes":"7","size_leaf_vector":"1"}},{"base_weights":[1.6179187E-5,-5.0495066E-2,8.74218E-2,5.5648573E-2,-1.1051422E-1],"categories":[],"categories_nodes":[],"categories_segments":[],"categories_sizes":[],"default_left":[0,0,0,0,0],"id":41,"left_children":[1,3,-1,-1,-1],"loss_changes":[3.6737118E-2,5.751202E-2,0E0,0E0,0E0],"parents":[2147483647,0,0,1,1],"right_children":[2,4,-1,-1,-1],"split_conditions":[6.1894745E-1,2.8851297E-1,8.74218E-2,5.5648573E-2,-1.1051422E-1],"split_indices":[32,33,0,0,0],"split_type":[0,0,0,0,0],"sum_hessian":[4.6567593E0,3.552358E0,1.104401E0,1.5861218E0,1.9662362E0],"tree_param":{"num_deleted":"0","num_feature":"34","num_nodes":"5","size_leaf_vector":"1"}},{"base_weights":[5.6727114E-3,-8.04717E-2,5.5106595E-2,-6.250162E-2,1.1927301E-1,1.5535928E-1,-2.0628713E-2],"categories":[],"categories_nodes":[],"categories_segments":[],"categories_sizes":[],"default_left":[0,0,0,0,0,0,0],"id":42,"left_children":[1,-1,3,-1,5,-1,-1],"loss_changes":[3.5019416E-2,0E0,4.7582664E-2,0E0,4.214257E-2,0E0,0E0],"parents":[2147483647,0,0,2,2,4,4],"right_children":[2,-1,4,-1,6,-1,-1],"split_conditions":[1.5994649E-1,-8.04717E-2,-6.106075E-1,-6.250162E-2,5.5742073E-1,1.5535928E-1,-2.0628713E-2],"split_indices":[31,0,4,0,4,0,0],"split_type":[0,0,0,0,0,0,0],"sum_hessian":[4.6113625E0,1.1355562E0,3.4758062E0,1.0591153E0,2.4166908E0,1.3701949E0,1.046496E0],"tree_param":{"num_deleted":"0","num_feature":"34","num_nodes":"7","size_leaf_vector":"1"}},{"base_weights":[2.0855447E-4,-4.8466913E-2,8.086095E-2,2.8874967E-2,-1.2193298E-1,1.0375597E-1,-5.9530932E-2],"categories":[],"categories_nodes":[],"categories_segments":[],"categories_sizes":[],"default_left":[0,0,0,0,0,0,0],"id":43,"left_children":[1,3,-1,5,-1,-1,-1],"loss_changes":[3.2147657E-2,3.9930902E-2,0E0,4.4793732E-2,0E0,0E0,0E0],"parents":[2147483647,0,0,1,1,3,3],"right_children":[2,4,-1,6,-1,-1,-1],"split_conditions":[4.7853988E-1,1.6651493E-2,8.086095E-2,-1.834487E-1,-1.2193298E-1,1.0375597E-1,-5.9530932E-2],"split_indices":[10,10,0,9,0,0,0],"split_type":[0,0,0,0,0,0,0],"sum_hessian":[4.549905E0,3.419341E0,1.1305639E0,2.3747017E0,1.0446393E0,1.0723376E0,1.302364E0],"tree_param":{"num_deleted":"0","num_feature":"34","num_nodes":"7","size_leaf_vector":"1"}},{"base_weights":[5.791624E-4,-8.739684E-2,5.775315E-2,1.09292775E-1,-4.0201794E-2,1.5776473E-1,-3.3203907E-2],"categories":[],"categories_nodes":[],"categories_segments":[],"categories_sizes":[],"default_left":[0,0,0,0,0,0,0],"id":44,"left_children":[1,-1,3,5,-1,-1,-1],"loss_changes":[4.071075E-2,0E0,2.9189974E-2,5.0566595E-2,0E0,0E0,0E0],"parents":[2147483647,0,0,2,2,3,3],"right_children":[2,-1,4,6,-1,-1,-1],"split_conditions":[-4.876649E-1,-8.739684E-2,2.1431206E-2,1.3913601E-2,-4.0201794E-2,1.5776473E-1,-3.3203907E-2],"split_indices":[9,0,6,4,0,0,0],"split_type":[0,0,0,0,0,0,0],"sum_hessian":[4.4786835E0,1.2215157E0,3.2571676E0,2.196899E0,1.0602688E0,1.1934062E0,1.0034927E0],"tree_param":{"num_deleted":"0","num_feature":"34","num_nodes":"7","size_leaf_vector":"1"}},{"base_weights":[2.0523187E-4,-6.264227E-2,5.811017E-2,-5.5392344E-2,1.2134427E-1],"categories":[],"categories_nodes":[],"categories_segments":[],"categories_sizes":[],"default_left":[0,0,0,0,0],"id":45,"left_children":[1,-1,3,-1,-1],"loss_changes":[2.913888E-2,0E0,5.4436367E-2,0E0,0E0],"parents":[2147483647,0,0,2,2],"right_children":[2,-1,4,-1,-1],"split_conditions":[2.0279607E-1,-6.264227E-2,4.5078844E-2,-5.5392344E-2,1.2134427E-1],"split_indices":[24,0,7,0,0],"split_type":[0,0,0,0,0],"sum_hessian":[4.408857E0,1.7219523E0,2.6869047E0,1.2481571E0,1.4387475E0],"tree_param":{"num_deleted":"0","num_feature":"34","num_nodes":"5","size_leaf_vector":"1"}},{"base_weights":[9.882515E-4,-7.360154E-2,5.2009046E-2,1.611293E-1,-9.2082754E-2],"categories":[],"categories_nodes":[],"categories_segments":[],"categories_sizes":[],"default_left":[0,0,0,0,0],"id":46,"left_children":[1,-1,3,-1,-1],"loss_changes":[3.020103E-2,0E0,1.2549752E-1,0E0,0E0],"parents":[2147483647,0,0,2,2],"right_children":[2,-1,4,-1,-1],"split_conditions":[-4.169004E-1,-7.360154E-2,4.75324E-1,1.611293E-1,-9.2082754E-2],"split_indices":[6,0,22,0,0],"split_type":[0,0,0,0,0],"sum_hessian":[4.3570366E0,1.2590595E0,3.0979774E0,1.527294E0,1.5706832E0],"tree_param":{"num_deleted":"0","num_feature":"34","num_nodes":"5","size_leaf_vector":"1"}},{"base_weights":[-5.2148127E-5,-8.2531236E-2,7.61641E-2,-4.0254023E-2,1.18825875E-1],"categories":[],"categories_nodes":[],"categories_segments":[],"categories_sizes":[],"default_left":[0,0,0,0,0],"id":47,"left_children":[1,-1,3,-1,-1],"loss_changes":[4.936332E-2,0E0,4.0535938E-2,0E0,0E0],"parents":[2147483647,0,0,2,2],"right_children":[2,-1,4,-1,-1],"split_conditions":[2.0279607E-1,-8.2531236E-2,-1.641575E-1,-4.0254023E-2,1.18825875E-1],"split_indices":[24,0,5,0,0],"split_type":[0,0,0,0,0],"sum_hessian":[4.281457E0,1.6693908E0,2.612066E0,1.0615112E0,1.5505549E0],"tree_param":{"num_deleted":"0","num_feature":"34","num_nodes":"5","size_leaf_vector":"1"}},{"base_weights":[-5.480261E-4,4.9047258E-2,-6.220424E-2,-3.2364264E-2,1.1345903E-1],"categories":[],"categories_nodes":[],"categories_segments":[],"categories_sizes":[],"default_left":[0,0,0,0,0],"id":48,"left_children":[1,3,-1,-1,-1],"loss_changes":[2.3847971E-2,3.7282646E-2,0E0,0E0,0E0],"parents":[2147483647,0,0,1,1],"right_children":[2,4,-1,-1,-1],"split_conditions":[6.550618E-2,-3.8341288E-2,-6.220424E-2,-3.2364264E-2,1.1345903E-1],"split_indices":[5,6,0,0,0],"split_type":[0,0,0,0,0],"sum_hessian":[4.2320914E0,2.7989047E0,1.4331869E0,1.711627E0,1.0872777E0],"tree_param":{"num_deleted":"0","num_feature":"34","num_nodes":"5","size_leaf_vector":"1"}},{"base_weights":[3.7176302E-3,5.6167636E-2,-6.310516E-2,1.2861401E-1,-7.90603E-2],"categories":[],"categories_nodes":[],"categories_segments":[],"categories_sizes":[],"default_left":[0,0,0,0,0],"id":49,"left_children":[1,3,-1,-1,-1],"loss_changes":[2.6963513E-2,7.693055E-2,0E0,0E0,0E0],"parents":[2147483647,0,0,1,1],"right_children":[2,4,-1,-1,-1],"split_conditions":[3.350388E-2,3.2104674E-1,-6.310516E-2,1.2861401E-1,-7.90603E-2],"split_indices":[6,1,0,0,0],"split_type":[0,0,0,0,0],"sum_hessian":[4.2011204E0,2.7652178E0,1.4359026E0,1.6287615E0,1.1364563E0],"tree_param":{"num_deleted":"0","num_feature":"34","num_nodes":"5","size_leaf_vector":"1"}},{"base_weights":[-1.5077651E-3,-6.663391E-2,3.899125E-2,-5.4877687E-2,1.2705491E-1,4.8236053E-2,-1.1451621E-1],"categories":[],"categories_nodes":[],"categories_segments":[],"categories_sizes":[],"default_left":[0,0,0,0,0,0,0],"id":50,"left_children":[1,-1,3,5,-1,-1,-1],"loss_changes":[2.0279787E-2,0E0,5.506132E-2,3.9674085E-2,0E0,0E0,0E0],"parents":[2147483647,0,0,2,2,3,3],"right_children":[2,-1,4,6,-1,-1,-1],"split_conditions":[1.5994649E-1,-6.663391E-2,2.1554528E-1,-2.3686296E-1,1.2705491E-1,4.8236053E-2,-1.1451621E-1],"split_indices":[31,0,8,10,0,0,0],"split_type":[0,0,0,0,0,0,0],"sum_hessian":[4.1422405E0,1.0219134E0,3.120327E0,2.0536165E0,1.0667104E0,1.0285093E0,1.0251073E0],"tree_param":{"num_deleted":"0","num_feature":"34","num_nodes":"7","size_leaf_vector":"1"}},{"base_weights":[-1.3230427E-3,-7.326563E-2,5.2351985E-2,1.5971214E-1,-6.493816E-2],"categories":[],"categories_nodes":[],"categories_segments":[],"categories_sizes":[],"default_left":[0,0,0,0,0],"id":51,"left_children":[1,-1,3,-1,-1],"loss_changes":[2.9379977E-2,0E0,9.1304064E-2,0E0,0E0],"parents":[2147483647,0,0,2,2],"right_children":[2,-1,4,-1,-1],"split_conditions":[-4.7533056E-1,-7.326563E-2,-6.587142E-2,1.5971214E-1,-6.493816E-2],"split_indices":[10,0,15,0,0],"split_type":[0,0,0,0,0],"sum_hessian":[4.0747643E0,1.2561735E0,2.818591E0,1.1047784E0,1.7138126E0],"tree_param":{"num_deleted":"0","num_feature":"34","num_nodes":"5","size_leaf_vector":"1"}},{"base_weights":[4.731714E-3,-6.57348E-2,6.4906664E-2,1.3282955E-1,-4.8996594E-2],"categories":[],"categories_nodes":[],"categories_segments":[],"categories_sizes":[],"default_left":[0,0,0,0,0],"id":52,"left_children":[1,-1,3,-1,-1],"loss_changes":[3.150344E-2,0E0,5.502153E-2,0E0,0E0],"parents":[2147483647,0,0,2,2],"right_children":[2,-1,4,-1,-1],"split_conditions":[-9.146788E-2,-6.57348E-2,-1.834487E-1,1.3282955E-1,-4.8996594E-2],"split_indices":[14,0,9,0,0],"split_type":[0,0,0,0,0],"sum_hessian":[4.004604E0,1.4889208E0,2.5156832E0,1.2208363E0,1.2948468E0],"tree_param":{"num_deleted":"0","num_feature":"34","num_nodes":"5","size_leaf_vector":"1"}},{"base_weights":[5.0050304E-3,-5.6870878E-2,6.1255775E-2,-5.6177583E-2,1.2808849E-1],"categories":[],"categories_nodes":[],"categories_segments":[],"categories_sizes":[],"default_left":[0,0,0,0,0],"id":53,"left_children":[1,-1,3,-1,-1],"loss_changes":[2.5578689E-2,0E0,5.5279627E-2,0E0,0E0],"parents":[2147483647,0,0,2,2],"right_children":[2,-1,4,-1,-1],"split_conditions":[-2.3162399E-1,-5.6870878E-2,-3.0836998E-2,-5.6177583E-2,1.2808849E-1],"split_indices":[1,0,18,0,0],"split_type":[0,0,0,0,0],"sum_hessian":[3.9585276E0,1.5703901E0,2.3881376E0,1.149259E0,1.2388786E0],"tree_param":{"num_deleted":"0","num_feature":"34","num_nodes":"5","size_leaf_vector":"1"}},{"base_weights":[4.4466914E-3,-6.7175694E-2,4.991619E-2,8.211765E-2,-3.149451E-2],"categories":[],"categories_nodes":[],"categories_segments":[],"categories_sizes":[],"default_left":[0,0,0,0,0],"id":54,"left_children":[1,-1,3,-1,-1],"loss_changes":[2.3945479E-2,0E0,2.2270894E-2,0E0,0E0],"parents":[2147483647,0,0,2,2],"right_children":[2,-1,4,-1,-1],"split_conditions":[-4.876649E-1,-6.7175694E-2,2.5538847E-1,8.211765E-2,-3.149451E-2],"split_indices":[9,0,21,0,0],"split_type":[0,0,0,0,0],"sum_hessian":[3.9136395E0,1.0415674E0,2.8720722E0,1.7115654E0,1.1605067E0],"tree_param":{"num_deleted":"0","num_feature":"34","num_nodes":"5","size_leaf_vector":"1"}},{"base_weights":[-2.4138675E-3,6.6921644E-2,-5.4542042E-2,-9.548269E-2,3.312708E-2],"categories":[],"categories_nodes":[],"categories_segments":[],"categories_sizes":[],"default_left":[0,0,0,0,0],"id":55,"left_children":[1,-1,3,-1,-1],"loss_changes":[2.6492912E-2,0E0,2.7638046E-2,0E0,0E0],"parents":[2147483647,0,0,2,2],"right_children":[2,-1,4,-1,-1],"split_conditions":[2.341216E-1,6.6921644E-2,4.3192193E-1,-9.548269E-2,3.312708E-2],"split_indices":[31,0,31,0,0],"split_type":[0,0,0,0,0],"sum_hessian":[3.8881216E0,1.2385248E0,2.6495967E0,1.4358394E0,1.2137574E0],"tree_param":{"num_deleted":"0","num_feature":"34","num_nodes":"5","size_leaf_vector":"1"}},{"base_weights":[3.3005123E-4,-6.818443E-2,4.740626E-2,9.129097E-2,-5.1016074E-2],"categories":[],"categories_nodes":[],"categories_segments":[],"categories_sizes":[],"default_left":[0,0,0,0,0],"id":56,"left_children":[1,-1,3,-1,-1],"loss_changes":[2.3610871E-2,0E0,3.5287198E-2,0E0,0E0],"parents":[2147483647,0,0,2,2],"right_children":[2,-1,4,-1,-1],"split_conditions":[-5.392423E-1,-6.818443E-2,6.550618E-2,9.129097E-2,-5.1016074E-2],"split_indices":[21,0,5,0,0],"split_type":[0,0,0,0,0],"sum_hessian":[3.8587518E0,1.08191E0,2.7768419E0,1.7189974E0,1.0578444E0],"tree_param":{"num_deleted":"0","num_feature":"34","num_nodes":"5","size_leaf_vector":"1"}},{"base_weights":[-5.610167E-3,-4.7717053E-2,5.7380307E-2,-8.900768E-2,5.017505E-2],"categories":[],"categories_nodes":[],"categories_segments":[],"categories_sizes":[],"default_left":[0,0,0,0,0],"id":57,"left_children":[1,3,-1,-1,-1],"loss_changes":[1.914067E-2,3.3123307E-2,0E0,0E0,0E0],"parents":[2147483647,0,0,1,1],"right_children":[2,4,-1,-1,-1],"split_conditions":[3.3545932E-1,-9.8113775E-2,5.7380307E-2,-8.900768E-2,5.017505E-2],"split_indices":[10,6,0,0,0],"split_type":[0,0,0,0,0],"sum_hessian":[3.8269074E0,2.7257857E0,1.1011217E0,1.7255057E0,1.00028E0],"tree_param":{"num_deleted":"0","num_feature":"34","num_nodes":"5","size_leaf_vector":"1"}},{"base_weights":[2.6192395E-3,6.4464234E-2,-7.438117E-2,1.3062772E-1,-3.9079618E-2],"categories":[],"categories_nodes":[],"categories_segments":[],"categories_sizes":[],"default_left":[0,0,0,0,0],"id":58,"left_children":[1,3,-1,-1,-1],"loss_changes":[3.435782E-2,4.72087E-2,0E0,0E0,0E0],"parents":[2147483647,0,0,1,1],"right_children":[2,4,-1,-1,-1],"split_conditions":[3.350388E-2,-1.3663371E-1,-7.438117E-2,1.3062772E-1,-3.9079618E-2],"split_indices":[6,1,0,0,0],"split_type":[0,0,0,0,0],"sum_hessian":[3.7976334E0,2.5036025E0,1.294031E0,1.1017636E0,1.4018388E0],"tree_param":{"num_deleted":"0","num_feature":"34","num_nodes":"5","size_leaf_vector":"1"}},{"base_weights":[4.525622E-3,-6.1047513E-2,6.465372E-2,-3.849971E-2,1.1269393E-1],"categories":[],"categories_nodes":[],"categories_segments":[],"categories_sizes":[],"default_left":[0,0,0,0,0],"id":59,"left_children":[1,-1,3,-1,-1],"loss_changes":[2.8017888E-2,0E0,3.4841597E-2,0E0,0E0],"parents":[2147483647,0,0,2,2],"right_children":[2,-1,4,-1,-1],"split_conditions":[-2.3162399E-1,-6.1047513E-2,2.0279607E-1,-3.849971E-2,1.1269393E-1],"split_indices":[1,0,24,0,0],"split_type":[0,0,0,0,0],"sum_hessian":[3.7493908E0,1.4845192E0,2.2648716E0,1.0619668E0,1.2029048E0],"tree_param":{"num_deleted":"0","num_feature":"34","num_nodes":"5","size_leaf_vector":"1"}},{"base_weights":[3.9774003E-3,4.7618892E-2,-3.801954E-2],"categories":[],"categories_nodes":[],"categories_segments":[],"categories_sizes":[],"default_left":[0,0,0],"id":60,"left_children":[1,-1,-1],"loss_changes":[1.630858E-2,0E0,0E0],"parents":[2147483647,0,0],"right_children":[2,-1,-1],"split_conditions":[-1.834487E-1,4.7618892E-2,-3.801954E-2],"split_indices":[9,0,0],"split_type":[0,0,0],"sum_hessian":[3.711996E0,1.7109401E0,2.001056E0],"tree_param":{"num_deleted":"0","num_feature":"34","num_nodes":"3","size_leaf_vector":"1"}},{"base_weights":[2.8515365E-3,-4.3077353E-2,5.5004466E-2,3.0962184E-2,-9.354241E-2],"categories":[],"categories_nodes":[],"categories_segments":[],"categories_sizes":[],"default_left":[0,0,0,0,0],"id":61,"left_children":[1,3,-1,-1,-1],"loss_changes":[1.7198848E-2,2.4978971E-2,0E0,0E0,0E0],"parents":[2147483647,0,0,1,1],"right_children":[2,4,-1,-1,-1],"split_conditions":[4.0854577E-2,9.3731104E-4,5.5004466E-2,3.0962184E-2,-9.354241E-2],"split_indices":[9,15,0,0,0],"split_type":[0,0,0,0,0],"sum_hessian":[3.703506E0,2.38662E0,1.316886E0,1.3583524E0,1.0282676E0],"tree_param":{"num_deleted":"0","num_feature":"34","num_nodes":"5","size_leaf_vector":"1"}},{"base_weights":[-1.1764552E-3,-5.9756465E-2,5.1194176E-2,-4.2101692E-2,9.662164E-2],"categories":[],"categories_nodes":[],"categories_segments":[],"categories_sizes":[],"default_left":[0,0,0,0,0],"id":62,"left_children":[1,-1,3,-1,-1],"loss_changes":[2.1836333E-2,0E0,3.0379549E-2,0E0,0E0],"parents":[2147483647,0,0,2,2],"right_children":[2,-1,4,-1,-1],"split_conditions":[-9.146788E-2,-5.9756465E-2,9.0982884E-2,-4.2101692E-2,9.662164E-2],"split_indices":[14,0,8,0,0],"split_type":[0,0,0,0,0],"sum_hessian":[3.6782389E0,1.3528244E0,2.3254144E0,1.0309138E0,1.2945005E0],"tree_param":{"num_deleted":"0","num_feature":"34","num_nodes":"5","size_leaf_vector":"1"}},{"base_weights":[-1.2021438E-3,5.7165843E-2,-4.668633E-2,-1.0491233E-1,3.4811776E-2],"categories":[],"categories_nodes":[],"categories_segments":[],"categories_sizes":[],"default_left":[0,0,0,0,0],"id":63,"left_children":[1,-1,3,-1,-1],"loss_changes":[1.8695686E-2,0E0,3.2088242E-2,0E0,0E0],"parents":[2147483647,0,0,2,2],"right_children":[2,-1,4,-1,-1],"split_conditions":[-2.8434017E-1,5.7165843E-2,-1.9833204E-1,-1.0491233E-1,3.4811776E-2],"split_indices":[8,0,5,0,0],"split_type":[0,0,0,0,0],"sum_hessian":[3.6475875E0,1.1844432E0,2.4631443E0,1.0376954E0,1.4254489E0],"tree_param":{"num_deleted":"0","num_feature":"34","num_nodes":"5","size_leaf_vector":"1"}},{"base_weights":[-3.2152066E-3,4.3279015E-2,-5.767731E-2,1.028803E-1,-3.8235746E-2],"categories":[],"categories_nodes":[],"categories_segments":[],"categories_sizes":[],"default_left":[0,0,0,0,0],"id":64,"left_children":[1,3,-1,-1,-1],"loss_changes":[1.7921021E-2,3.2441936E-2,0E0,0E0,0E0],"parents":[2147483647,0,0,1,1],"right_children":[2,4,-1,-1,-1],"split_conditions":[3.350388E-2,-1.3663371E-1,-5.767731E-2,1.028803E-1,-3.8235746E-2],"split_indices":[6,1,0,0,0],"split_type":[0,0,0,0,0],"sum_hessian":[3.6214957E0,2.384006E0,1.2374899E0,1.0181326E0,1.3658733E0],"tree_param":{"num_deleted":"0","num_feature":"34","num_nodes":"5","size_leaf_vector":"1"}},{"base_weights":[1.0597499E-3,-5.0451763E-2,6.1088543E-2,-7.305363E-2,1.7413126E-2],"categories":[],"categories_nodes":[],"categories_segments":[],"categories_sizes":[],"default_left":[0,0,0,0,0],"id":65,"left_children":[1,3,-1,-1,-1],"loss_changes":[2.1658681E-2,1.1809336E-2,0E0,0E0,0E0],"parents":[2147483647,0,0,1,1],"right_children":[2,4,-1,-1,-1],"split_conditions":[4.5921445E-1,3.4247443E-1,6.1088543E-2,-7.305363E-2,1.7413126E-2],"split_indices":[1,32,0,0,0],"split_type":[0,0,0,0,0],"sum_hessian":[3.5905569E0,2.3280165E0,1.2625406E0,1.3178431E0,1.0101733E0],"tree_param":{"num_deleted":"0","num_feature":"34","num_nodes":"5","size_leaf_vector":"1"}},{"base_weights":[1.3772922E-3,4.364597E-2,-5.057211E-2,1.1749529E-1,-5.557355E-2],"categories":[],"categories_nodes":[],"categories_segments":[],"categories_sizes":[],"default_left":[0,0,0,0,0],"id":66,"left_children":[1,3,-1,-1,-1],"loss_changes":[1.5248361E-2,4.9393624E-2,0E0,0E0,0E0],"parents":[2147483647,0,0,1,1],"right_children":[2,4,-1,-1,-1],"split_conditions":[4.5169836E-1,1.518656E-1,-5.057211E-2,1.1749529E-1,-5.557355E-2],"split_indices":[32,8,0,0,0],"split_type":[0,0,0,0,0],"sum_hessian":[3.5744298E0,2.3565876E0,1.2178422E0,1.0761232E0,1.2804643E0],"tree_param":{"num_deleted":"0","num_feature":"34","num_nodes":"5","size_leaf_vector":"1"}},{"base_weights":[3.0360112E-3,-6.0303092E-2,6.898485E-2,-9.351062E-2,1.8557098E-2],"categories":[],"categories_nodes":[],"categories_segments":[],"categories_sizes":[],"default_left":[0,0,0,0,0],"id":67,"left_children":[1,3,-1,-1,-1],"loss_changes":[2.913461E-2,1.767615E-2,0E0,0E0,0E0],"parents":[2147483647,0,0,1,1],"right_children":[2,4,-1,-1,-1],"split_conditions":[2.1554528E-1,2.0279607E-1,6.898485E-2,-9.351062E-2,1.8557098E-2],"split_indices":[8,24,0,0,0],"split_type":[0,0,0,0,0],"sum_hessian":[3.542103E0,2.1672587E0,1.3748444E0,1.0534781E0,1.1137805E0],"tree_param":{"num_deleted":"0","num_feature":"34","num_nodes":"5","size_leaf_vector":"1"}},{"base_weights":[-8.2297984E-4,-4.332196E-2,5.9008885E-2,-8.6613275E-2,2.8290052E-2],"categories":[],"categories_nodes":[],"categories_segments":[],"categories_sizes":[],"default_left":[0,0,0,0,0],"id":68,"left_children":[1,3,-1,-1,-1],"loss_changes":[1.7493399E-2,2.173153E-2,0E0,0E0,0E0],"parents":[2147483647,0,0,1,1],"right_children":[2,4,-1,-1,-1],"split_conditions":[3.3545932E-1,-1.641575E-1,5.9008885E-2,-8.6613275E-2,2.8290052E-2],"split_indices":[10,5,0,0,0],"split_type":[0,0,0,0,0],"sum_hessian":[3.510745E0,2.503418E0,1.0073272E0,1.1654888E0,1.337929E0],"tree_param":{"num_deleted":"0","num_feature":"34","num_nodes":"5","size_leaf_vector":"1"}},{"base_weights":[-1.1172951E-4,5.475855E-2,-4.861975E-2,5.153196E-2,-1.1342948E-1],"categories":[],"categories_nodes":[],"categories_segments":[],"categories_sizes":[],"default_left":[0,0,0,0,0],"id":69,"left_children":[1,-1,3,-1,-1],"loss_changes":[1.8250365E-2,0E0,4.2963993E-2,0E0,0E0],"parents":[2147483647,0,0,2,2],"right_children":[2,-1,4,-1,-1],"split_conditions":[-4.0754053E-1,5.475855E-2,-7.6566427E-3,5.153196E-2,-1.1342948E-1],"split_indices":[5,0,21,0,0],"split_type":[0,0,0,0,0],"sum_hessian":[3.4869962E0,1.2745345E0,2.2124617E0,1.1390821E0,1.0733796E0],"tree_param":{"num_deleted":"0","num_feature":"34","num_nodes":"5","size_leaf_vector":"1"}},{"base_weights":[-1.8686401E-3,-6.297107E-2,4.4281866E-2,8.027767E-2,-3.4278248E-2],"categories":[],"categories_nodes":[],"categories_segments":[],"categories_sizes":[],"default_left":[0,0,0,0,0],"id":70,"left_children":[1,-1,3,-1,-1],"loss_changes":[1.9279344E-2,0E0,2.1017727E-2,0E0,0E0],"parents":[2147483647,0,0,2,2],"right_children":[2,-1,4,-1,-1],"split_conditions":[-3.55866E-1,-6.297107E-2,1.5310034E-1,8.027767E-2,-3.4278248E-2],"split_indices":[21,0,12,0,0],"split_type":[0,0,0,0,0],"sum_hessian":[3.4534037E0,1.031036E0,2.4223676E0,1.3816323E0,1.0407352E0],"tree_param":{"num_deleted":"0","num_feature":"34","num_nodes":"5","size_leaf_vector":"1"}},{"base_weights":[-4.1232137E-3,4.6913266E-2,-4.824746E-2],"categories":[],"categories_nodes":[],"categories_segments":[],"categories_sizes":[],"default_left":[0,0,0],"id":71,"left_children":[1,-1,-1],"loss_changes":[1.9154819E-2,0E0,0E0],"parents":[2147483647,0,0],"right_children":[2,-1,-1],"split_conditions":[4.75324E-1,4.6913266E-2,-4.824746E-2],"split_indices":[22,0,0],"split_type":[0,0,0],"sum_hessian":[3.4287944E0,1.5989381E0,1.8298562E0],"tree_param":{"num_deleted":"0","num_feature":"34","num_nodes":"3","size_leaf_vector":"1"}},{"base_weights":[-1.130588E-3,-3.906459E-2,4.3528866E-2],"categories":[],"categories_nodes":[],"categories_segments":[],"categories_sizes":[],"default_left":[0,0,0],"id":72,"left_children":[1,-1,-1],"loss_changes":[1.4369061E-2,0E0,0E0],"parents":[2147483647,0,0],"right_children":[2,-1,-1],"split_conditions":[4.36586E-1,-3.906459E-2,4.3528866E-2],"split_indices":[33,0,0],"split_type":[0,0,0],"sum_hessian":[3.4207623E0,1.9052917E0,1.5154706E0],"tree_param":{"num_deleted":"0","num_feature":"34","num_nodes":"3","size_leaf_vector":"1"}},{"base_weights":[7.911533E-4,-5.0500937E-2,3.854056E-2,8.750635E-2,-4.0425826E-2],"categories":[],"categories_nodes":[],"categories_segments":[],"categories_sizes":[],"default_left":[0,0,0,0,0],"id":73,"left_children":[1,-1,3,-1,-1],"loss_changes":[1.3077921E-2,0E0,2.6947714E-2,0E0,0E0],"parents":[2147483647,0,0,2,2],"right_children":[2,-1,4,-1,-1],"split_conditions":[-2.6366254E-2,-5.0500937E-2,-4.6088863E-2,8.750635E-2,-4.0425826E-2],"split_indices":[12,0,10,0,0],"split_type":[0,0,0,0,0],"sum_hessian":[3.411813E0,1.0172173E0,2.3945956E0,1.2067853E0,1.1878103E0],"tree_param":{"num_deleted":"0","num_feature":"34","num_nodes":"5","size_leaf_vector":"1"}},{"base_weights":[-5.127142E-4,-5.521501E-2,4.0909037E-2,9.733822E-2,-3.6039706E-2],"categories":[],"categories_nodes":[],"categories_segments":[],"categories_sizes":[],"default_left":[0,0,0,0,0],"id":74,"left_children":[1,-1,3,-1,-1],"loss_changes":[1.5286358E-2,0E0,2.8841611E-2,0E0,0E0],"parents":[2147483647,0,0,2,2],"right_children":[2,-1,4,-1,-1],"split_conditions":[-4.7533056E-1,-5.521501E-2,-5.038146E-2,9.733822E-2,-3.6039706E-2],"split_indices":[10,0,15,0,0],"split_type":[0,0,0,0,0],"sum_hessian":[3.391982E0,1.0270817E0,2.3649004E0,1.0050813E0,1.3598192E0],"tree_param":{"num_deleted":"0","num_feature":"34","num_nodes":"5","size_leaf_vector":"1"}}]},"name":"gbtree"},"learner_model_param":{"base_score":"5E-1","boost_from_average":"1","num_class":"0","num_feature":"34","num_target":"1"},"objective":{"name":"binary:logistic","reg_loss_param":{"scale_pos_weight":"1"}}},"version":[3,0,2]}